//Numpy array shape [1, 16, 16]
//Min -2.000000000000
//Max 3.500000000000
//Number of zeros 84

#ifndef W19_H_
#define W19_H_

[[intel::fpga_register]] static constexpr w19_t w19 = {{-0.625000000, 0.500000000, 0.078125000, 0.000000000, -0.187500000, -0.093750000, 0.046875000, 0.062500000, 0.062500000, 0.250000000, -0.031250000, 0.187500000, 0.015625000, 3.500000000, 0.281250000, -0.312500000, 0.000000000, 0.000000000, 0.000000000, 0.000000000, 0.000000000, 0.000000000, 0.000000000, 0.000000000, 0.000000000, -0.500000000, 0.500000000, 0.500000000, 0.000000000, 0.000000000, 0.000000000, 0.500000000, 0.000000000, 0.000000000, 0.000000000, 0.000000000, 0.000000000, 0.000000000, 0.000000000, 0.000000000, 0.000000000, 0.000000000, 0.000000000, 0.000000000, 0.000000000, 0.000000000, 0.000000000, 0.000000000, 0.000000000, 0.000000000, 0.000000000, 0.000000000, 0.000000000, 0.000000000, 0.000000000, 0.000000000, 0.000000000, 0.000000000, 0.000000000, 0.000000000, 0.000000000, 0.000000000, 0.000000000, 0.000000000, -0.156250000, -0.179687500, -0.250000000, -0.390625000, 0.117187500, 0.023437500, -0.458984375, 0.277343750, -0.019531250, 0.007812500, 0.117187500, 0.031250000, 0.367187500, 0.062500000, 0.117187500, 0.000000000, -0.152343750, -0.187500000, -0.046875000, 0.132812500, 0.312500000, 0.062500000, 0.029296875, 0.117187500, 0.023437500, -0.125000000, 0.312500000, -0.117187500, 0.042968750, 0.000000000, 0.117187500, 0.453125000, 0.281250000, 0.250000000, 0.226562500, 0.093750000, -0.250000000, 0.015625000, -0.039062500, -0.218750000, 0.218750000, 0.875000000, -0.093750000, -0.187500000, -0.031250000, 0.062500000, 0.312500000, 0.218750000, 0.312500000, 0.250000000, 0.203125000, 0.109375000, -0.375000000, 0.015625000, -0.031250000, -0.218750000, 0.187500000, -0.156250000, -0.140625000, 0.875000000, -0.046875000, 0.062500000, 0.343750000, 0.156250000, 0.000000000, 0.000000000, 0.000000000, 0.000000000, 0.000000000, 0.000000000, 0.000000000, 0.000000000, 0.000000000, 0.000000000, 0.000000000, 0.000000000, 0.000000000, 0.000000000, 0.000000000, 0.000000000, 0.046875000, 0.000000000, 0.039062500, 0.015625000, 0.031250000, -0.062500000, 0.007812500, -0.062500000, -2.000000000, 0.000000000, 0.156250000, 0.093750000, 0.062500000, 0.031250000, 0.093750000, 0.000000000, 0.000000000, 0.000000000, 0.000000000, 0.000000000, 0.000000000, 0.000000000, 0.000000000, 0.000000000, 0.000000000, 0.000000000, 0.000000000, 0.000000000, 0.000000000, 0.000000000, 0.000000000, 0.000000000, 0.304687500, 0.195312500, 0.058593750, -0.007812500, 0.218750000, -0.093750000, -0.062500000, -0.250000000, 0.117187500, -0.062500000, -0.062500000, -0.046875000, 0.031250000, 0.156250000, -0.125000000, 0.109375000, 0.066406250, 0.093750000, -0.015625000, 0.250000000, -0.187500000, 0.140625000, 0.156250000, -0.171875000, -0.062500000, 0.062500000, 0.109375000, 0.039062500, -0.093750000, 0.015625000, 0.093750000, 0.062500000, 0.000000000, -0.031250000, 0.234375000, 0.031250000, -0.250000000, -0.125000000, -0.031250000, -0.046875000, 0.062500000, 0.062500000, 0.750000000, -0.062500000, 0.046875000, 0.031250000, -0.062500000, 0.312500000, 0.164062500, 0.179687500, 0.203125000, 0.359375000, -0.125000000, -0.210937500, 0.511718750, -0.179687500, 0.000000000, 0.078125000, -0.125000000, 0.050781250, -0.417968750, 0.011718750, -0.070312500, -0.187500000, -0.078125000, 0.250000000, 0.125000000, 0.031250000, -0.250000000, -0.125000000, -0.031250000, -0.031250000, -0.218750000, 0.250000000, -0.250000000, 0.187500000, 0.062500000, -0.312500000, -2.000000000, 0.250000000}};

#endif
