//Numpy array shape [1, 16, 16]
//Min -1.000000000000
//Max 1.500000000000
//Number of zeros 28

#ifndef W27_H_
#define W27_H_

[[intel::fpga_register]] static constexpr w27_t w27 = {{0.00000, 0.12500, -0.25000, 1.00000, 0.06250, -0.12500, -0.50000, -0.50000, 0.25000, 0.12500, 0.25000, -0.75000, -0.18750, -0.50000, -0.12500, -0.12500, 0.25000, -0.50000, -0.50000, -0.25000, 0.06250, -0.12500, 0.00000, 0.12500, 0.25000, 0.00000, 0.12500, -0.06250, -0.25000, -0.25000, 0.12500, -0.25000, -0.75000, -0.25000, 0.25000, 0.25000, -0.12500, -0.50000, 0.25000, -0.25000, 1.50000, 0.50000, 0.50000, -0.25000, 0.37500, 0.25000, 0.00000, 0.25000, 0.25000, 0.12500, -0.25000, 0.25000, 0.12500, -0.12500, -0.25000, 0.25000, -0.50000, 0.12500, 1.00000, 0.06250, -0.25000, 0.25000, 0.12500, -0.25000, 0.00000, 0.25000, 0.25000, -0.12500, 0.06250, 0.12500, 0.12500, 0.25000, 0.50000, 0.25000, 0.06250, 0.25000, 0.12500, -0.25000, 0.06250, -0.25000, -0.50000, 0.12500, -0.25000, 0.00000, 0.12500, -0.25000, 0.00000, 0.00000, -1.00000, -0.50000, -0.25000, 0.25000, -0.25000, -0.75000, 0.25000, -0.25000, 0.12500, 1.50000, 0.00000, 0.00000, 0.50000, 0.50000, 0.12500, 0.50000, 0.25000, -0.50000, 1.50000, 0.37500, 0.25000, 0.50000, -0.50000, -1.00000, 0.25000, 0.50000, 1.00000, 0.00000, 0.50000, 0.25000, 0.00000, -0.25000, -0.50000, 0.00000, -0.25000, 0.12500, 0.25000, 0.00000, -0.12500, 0.25000, 0.25000, 0.03125, 0.25000, 0.12500, 0.12500, 0.12500, -0.12500, 0.18750, 0.25000, -0.50000, -0.12500, 0.12500, 0.12500, -0.12500, -0.12500, 0.00000, -0.25000, -0.25000, 0.12500, 0.25000, -0.12500, -0.12500, 0.00000, -0.25000, 0.25000, 0.25000, 0.25000, -0.12500, 0.25000, 0.25000, 0.12500, 0.25000, -0.50000, -0.50000, 0.00000, 0.00000, -0.25000, 0.00000, 0.00000, -0.50000, 0.25000, 0.50000, 0.12500, -0.12500, 0.50000, 0.50000, 0.25000, 0.50000, -0.25000, -0.25000, 0.25000, 0.12500, -0.12500, 0.06250, -0.12500, 0.25000, 0.25000, 0.25000, 0.25000, -0.12500, 0.25000, 0.25000, 0.12500, 0.25000, 0.50000, 0.12500, -0.12500, 0.25000, 0.25000, 0.06250, -0.25000, -0.50000, 0.50000, -0.25000, -1.00000, 0.25000, 0.12500, 0.00000, 0.25000, 0.50000, -0.12500, -0.75000, -0.50000, -0.12500, -0.12500, 0.06250, -0.12500, 0.50000, -0.50000, 0.00000, 0.25000, 0.06250, -0.12500, 0.12500, 0.25000, 0.00000, 0.25000, 0.25000, -0.25000, 0.25000, 0.00000, 0.12500, -0.25000, 0.12500, 0.50000, 0.00000, -0.12500, 0.50000, -0.12500, -0.62500, 0.00000, -0.50000, -0.25000, -0.12500, -0.12500, -0.25000, 0.06250, -0.62500, 0.12500, -0.50000, 0.50000, 0.00000, 0.25000, 0.00000, 0.12500, -0.06250, 0.12500, 0.25000}};

#endif
