//Numpy array shape [16, 5]
//Min -0.250000000000
//Max 0.158203125000
//Number of zeros 1

#ifndef W54_H_
#define W54_H_

[[intel::fpga_register]] static constexpr w54_t w54 = {{-0.12500000000000000, 0.04003906250000000, -0.00012969970703125, -0.02880859375000000, 0.03710937500000000, -0.07763671875000000, 0.08593750000000000, -0.06640625000000000, 0.12402343750000000, -0.03051757812500000, 0.06787109375000000, -0.15625000000000000, -0.00390625000000000, 0.13769531250000000, 0.05175781250000000, 0.03222656250000000, 0.00000000000000000, 0.04589843750000000, 0.00781250000000000, -0.00683593750000000, 0.03125000000000000, -0.03759765625000000, 0.14453125000000000, -0.02685546875000000, 0.12353515625000000, -0.02783203125000000, 0.06347656250000000, -0.15234375000000000, -0.04101562500000000, 0.10498046875000000, 0.05664062500000000, -0.00390625000000000, -0.25000000000000000, -0.01269531250000000, -0.06542968750000000, 0.04394531250000000, -0.00097656250000000, -0.06347656250000000, 0.15820312500000000, -0.00292968750000000, 0.14843750000000000, 0.05859375000000000, -0.08203125000000000, -0.15625000000000000, -0.05273437500000000, 0.06640625000000000, 0.04687500000000000, 0.00781250000000000, -0.18750000000000000, 0.01855468750000000, 0.03222656250000000, 0.05419921875000000, 0.03125000000000000, -0.06445312500000000, 0.14062500000000000, 0.00018310546875000, 0.02685546875000000, -0.12695312500000000, 0.10937500000000000, -0.16015625000000000, -0.05468750000000000, 0.07031250000000000, 0.01562500000000000, 0.00634765625000000, -0.25000000000000000, -0.02539062500000000, -0.04492187500000000, 0.00976562500000000, 0.05664062500000000, -0.09082031250000000, 0.11328125000000000, -0.01562500000000000, 0.15234375000000000, -0.01171875000000000, 0.07763671875000000, -0.12500000000000000, -0.04296875000000000, 0.14257812500000000, 0.01269531250000000, -0.01318359375000000}};

#endif
