//Numpy array shape [1, 64, 2]
//Min -2.000000000000
//Max 2.000000000000
//Number of zeros 72

#ifndef W9_H_
#define W9_H_

[[intel::fpga_register]] static constexpr w9_t w9 = {{-0.750, 0.500, -1.000, 0.750, 0.000, 0.000, -0.500, -0.500, 0.000, 0.000, 0.000, 0.000, 0.000, 0.000, -0.500, 2.000, 0.000, 0.000, -0.125, 0.250, 0.000, 0.000, 0.250, 0.500, -2.000, 1.000, 0.000, 0.000, 0.000, 0.000, 0.000, 0.000, -2.000, 0.500, 0.000, 0.000, 0.250, -0.500, 0.000, 0.000, 0.250, -0.500, 0.250, -0.500, 0.000, 0.000, 0.000, 0.000, 0.000, -0.500, 0.250, -0.500, 0.250, -1.000, 0.250, -1.000, 0.000, 0.000, 0.500, -1.000, 0.500, -1.000, 0.250, -0.500, 0.500, -0.500, 0.500, -0.500, 0.250, -1.000, 0.000, 0.000, 0.500, -1.000, 0.500, -1.000, 0.500, -0.500, 0.000, -0.500, 0.500, 0.000, 0.000, 0.000, 0.500, 0.000, 1.000, -0.500, 0.000, 0.000, 0.000, 0.000, 0.000, 0.000, 0.000, 0.000, 0.000, 0.000, 0.000, 0.000, 0.000, 0.000, 0.000, 0.000, 0.000, 0.000, 0.000, 0.000, 0.000, 0.000, 0.000, 0.000, 0.000, 0.000, 0.500, 0.500, 0.500, 0.000, 0.000, 0.000, 0.000, 0.000, 0.000, 0.000, 0.000, 0.000, 0.500, 0.000}};

#endif
