//Numpy array shape [64, 1]
//Min -0.296875000000
//Max 0.312500000000
//Number of zeros 0

#ifndef W12_H_
#define W12_H_

[[intel::fpga_register]] static constexpr w12_t w12 = {{-0.033203125000, 0.148437500000, 0.101562500000, 0.265625000000, -0.156250000000, 0.019531250000, 0.044921875000, -0.005371093750, -0.132812500000, 0.117187500000, 0.210937500000, -0.016601562500, -0.044921875000, -0.066406250000, 0.082031250000, -0.218750000000, 0.004638671875, 0.082031250000, -0.085937500000, 0.050781250000, -0.048828125000, 0.281250000000, 0.195312500000, -0.250000000000, -0.226562500000, -0.024414062500, -0.132812500000, 0.042968750000, 0.148437500000, -0.195312500000, -0.171875000000, -0.074218750000, 0.140625000000, -0.109375000000, 0.018554687500, 0.265625000000, 0.050781250000, 0.312500000000, 0.250000000000, -0.078125000000, -0.242187500000, -0.296875000000, 0.195312500000, -0.203125000000, -0.148437500000, 0.312500000000, -0.242187500000, 0.250000000000, -0.117187500000, -0.171875000000, -0.265625000000, 0.265625000000, -0.226562500000, -0.140625000000, -0.195312500000, 0.101562500000, 0.029296875000, -0.281250000000, -0.164062500000, 0.074218750000, 0.265625000000, -0.078125000000, -0.006103515625, -0.007568359375}};

#endif
