//Numpy array shape [64, 64]
//Min -0.265625000000
//Max 0.265625000000
//Number of zeros 0

#ifndef W6_H_
#define W6_H_

[[intel::fpga_register]] static constexpr w6_t w6 = {{0.1875000000000000000, 0.1718750000000000000, -0.1093750000000000000, -0.0664062500000000000, 0.0527343750000000000, 0.1562500000000000000, -0.0087890625000000000, 0.0937500000000000000, 0.1562500000000000000, -0.0263671875000000000, -0.1250000000000000000, -0.1054687500000000000, -0.1875000000000000000, -0.0664062500000000000, 0.1796875000000000000, -0.0214843750000000000, -0.1562500000000000000, 0.1875000000000000000, 0.1328125000000000000, -0.0507812500000000000, -0.0468750000000000000, 0.0585937500000000000, -0.0205078125000000000, -0.1093750000000000000, 0.1875000000000000000, 0.1562500000000000000, 0.2343750000000000000, 0.1171875000000000000, 0.1484375000000000000, 0.0332031250000000000, -0.0937500000000000000, -0.1953125000000000000, -0.1875000000000000000, 0.1718750000000000000, -0.1875000000000000000, 0.1250000000000000000, 0.2265625000000000000, -0.1796875000000000000, 0.1328125000000000000, -0.0410156250000000000, -0.1328125000000000000, 0.0205078125000000000, -0.0036621093750000000, -0.0605468750000000000, 0.1328125000000000000, -0.1875000000000000000, 0.0859375000000000000, -0.0087890625000000000, 0.1718750000000000000, -0.0273437500000000000, 0.0742187500000000000, -0.1484375000000000000, -0.0742187500000000000, 0.2265625000000000000, -0.0976562500000000000, 0.0585937500000000000, -0.2265625000000000000, 0.0371093750000000000, 0.1562500000000000000, -0.1484375000000000000, -0.0820312500000000000, 0.0312500000000000000, 0.1562500000000000000, 0.0131835937500000000, -0.0253906250000000000, -0.2187500000000000000, 0.0664062500000000000, -0.2031250000000000000, -0.0048828125000000000, 0.2187500000000000000, 0.2031250000000000000, -0.2265625000000000000, -0.1640625000000000000, -0.1171875000000000000, 0.0820312500000000000, -0.0312500000000000000, -0.0371093750000000000, 0.0224609375000000000, -0.2031250000000000000, 0.1171875000000000000, -0.0664062500000000000, 0.2187500000000000000, -0.0898437500000000000, -0.0429687500000000000, 0.0664062500000000000, -0.1640625000000000000, -0.1875000000000000000, -0.2265625000000000000, -0.0449218750000000000, -0.1171875000000000000, -0.0126953125000000000, -0.1875000000000000000, -0.0151367187500000000, 0.0664062500000000000, 0.1132812500000000000, 0.0625000000000000000, 0.0781250000000000000, -0.0126953125000000000, 0.1328125000000000000, 0.1132812500000000000, -0.1640625000000000000, 0.0585937500000000000, -0.0021972656250000000, 0.1132812500000000000, 0.1406250000000000000, 0.2109375000000000000, -0.1875000000000000000, -0.1406250000000000000, 0.1093750000000000000, 0.1640625000000000000, -0.1171875000000000000, 0.0166015625000000000, -0.0781250000000000000, -0.0429687500000000000, 0.1484375000000000000, 0.0332031250000000000, 0.0898437500000000000, -0.1875000000000000000, 0.2265625000000000000, -0.0585937500000000000, -0.1328125000000000000, -0.0527343750000000000, 0.0371093750000000000, 0.1640625000000000000, 0.0820312500000000000, -0.0527343750000000000, 0.0859375000000000000, -0.0898437500000000000, -0.1328125000000000000, 0.1640625000000000000, 0.1328125000000000000, -0.2031250000000000000, 0.1796875000000000000, -0.0820312500000000000, -0.1953125000000000000, 0.1406250000000000000, -0.1875000000000000000, -0.1210937500000000000, -0.0156250000000000000, -0.0283203125000000000, -0.0468750000000000000, -0.0546875000000000000, -0.1796875000000000000, 0.0410156250000000000, -0.0742187500000000000, 0.0585937500000000000, 0.1875000000000000000, 0.0065917968750000000, -0.0703125000000000000, -0.1562500000000000000, 0.1250000000000000000, 0.2031250000000000000, 0.2031250000000000000, 0.0205078125000000000, 0.1132812500000000000, -0.2031250000000000000, 0.1406250000000000000, -0.0214843750000000000, -0.0175781250000000000, 0.0126953125000000000, 0.2031250000000000000, 0.0664062500000000000, 0.1562500000000000000, 0.0429687500000000000, -0.1171875000000000000, 0.0898437500000000000, 0.2187500000000000000, -0.1796875000000000000, 0.0898437500000000000, -0.1484375000000000000, -0.1953125000000000000, 0.1875000000000000000, -0.1406250000000000000, 0.0566406250000000000, -0.1015625000000000000, 0.1093750000000000000, 0.1132812500000000000, 0.0283203125000000000, 0.0664062500000000000, -0.0224609375000000000, 0.1132812500000000000, -0.0507812500000000000, 0.1640625000000000000, -0.1796875000000000000, 0.0664062500000000000, -0.1015625000000000000, 0.0468750000000000000, 0.1132812500000000000, 0.1796875000000000000, 0.1171875000000000000, -0.2265625000000000000, -0.0390625000000000000, 0.1250000000000000000, 0.1875000000000000000, 0.1328125000000000000, -0.0566406250000000000, 0.1718750000000000000, -0.0625000000000000000, -0.1875000000000000000, -0.0703125000000000000, -0.0332031250000000000, 0.0351562500000000000, 0.1953125000000000000, 0.1171875000000000000, -0.0527343750000000000, 0.1406250000000000000, -0.0703125000000000000, 0.2265625000000000000, -0.1796875000000000000, -0.0429687500000000000, -0.1093750000000000000, 0.0976562500000000000, 0.1328125000000000000, 0.1562500000000000000, -0.0703125000000000000, 0.0625000000000000000, -0.1093750000000000000, -0.0488281250000000000, -0.0371093750000000000, -0.1484375000000000000, 0.1640625000000000000, 0.1054687500000000000, 0.1796875000000000000, -0.0488281250000000000, 0.1484375000000000000, 0.0585937500000000000, 0.0585937500000000000, 0.1328125000000000000, 0.2343750000000000000, 0.0937500000000000000, -0.1328125000000000000, 0.0742187500000000000, -0.2343750000000000000, -0.1796875000000000000, 0.0332031250000000000, -0.1328125000000000000, -0.0566406250000000000, -0.1093750000000000000, -0.1250000000000000000, 0.1953125000000000000, -0.0585937500000000000, 0.2031250000000000000, 0.0292968750000000000, 0.1796875000000000000, 0.0820312500000000000, 0.1562500000000000000, -0.1210937500000000000, -0.0112304687500000000, 0.0976562500000000000, -0.0937500000000000000, -0.1875000000000000000, -0.1484375000000000000, 0.1953125000000000000, -0.0410156250000000000, 0.0175781250000000000, 0.1718750000000000000, 0.1718750000000000000, -0.0351562500000000000, -0.0664062500000000000, 0.0781250000000000000, -0.0898437500000000000, 0.0820312500000000000, 0.1484375000000000000, -0.0742187500000000000, -0.1250000000000000000, 0.1328125000000000000, -0.0781250000000000000, -0.0224609375000000000, -0.1210937500000000000, -0.1210937500000000000, -0.0205078125000000000, -0.0742187500000000000, -0.1328125000000000000, -0.0332031250000000000, 0.0332031250000000000, 0.2343750000000000000, 0.1562500000000000000, -0.1484375000000000000, 0.1015625000000000000, 0.0859375000000000000, 0.2343750000000000000, 0.1015625000000000000, 0.1328125000000000000, 0.1054687500000000000, -0.1328125000000000000, 0.2109375000000000000, 0.1484375000000000000, -0.1093750000000000000, 0.0507812500000000000, -0.1054687500000000000, 0.1875000000000000000, 0.0507812500000000000, -0.1093750000000000000, 0.0859375000000000000, 0.2343750000000000000, -0.0898437500000000000, 0.1562500000000000000, 0.1562500000000000000, 0.1875000000000000000, 0.2265625000000000000, -0.1562500000000000000, 0.1171875000000000000, -0.1406250000000000000, -0.0820312500000000000, 0.0976562500000000000, 0.1718750000000000000, -0.0937500000000000000, 0.1640625000000000000, -0.0023193359375000000, -0.2109375000000000000, 0.0703125000000000000, -0.0263671875000000000, 0.0585937500000000000, 0.0312500000000000000, -0.0371093750000000000, -0.1406250000000000000, -0.2421875000000000000, 0.0065917968750000000, -0.0546875000000000000, 0.1484375000000000000, 0.1132812500000000000, 0.0859375000000000000, 0.1250000000000000000, 0.0781250000000000000, -0.1406250000000000000, -0.1093750000000000000, -0.0410156250000000000, -0.0937500000000000000, -0.1250000000000000000, 0.0468750000000000000, -0.1054687500000000000, 0.0112304687500000000, -0.1562500000000000000, -0.0898437500000000000, 0.1054687500000000000, -0.2109375000000000000, -0.2109375000000000000, 0.0156250000000000000, 0.1875000000000000000, -0.1718750000000000000, 0.0005187988281250000, -0.1093750000000000000, -0.0585937500000000000, 0.0781250000000000000, -0.0283203125000000000, -0.1875000000000000000, -0.1484375000000000000, 0.0859375000000000000, -0.0527343750000000000, -0.0166015625000000000, -0.0605468750000000000, 0.0273437500000000000, 0.0546875000000000000, 0.0507812500000000000, -0.0468750000000000000, 0.0097656250000000000, 0.0937500000000000000, -0.0937500000000000000, 0.1328125000000000000, -0.0302734375000000000, -0.1171875000000000000, -0.1640625000000000000, -0.0244140625000000000, 0.1406250000000000000, -0.0488281250000000000, -0.1406250000000000000, -0.1875000000000000000, -0.1953125000000000000, 0.1406250000000000000, 0.2031250000000000000, -0.0976562500000000000, 0.0048828125000000000, 0.1796875000000000000, 0.0449218750000000000, -0.1562500000000000000, 0.1132812500000000000, 0.1328125000000000000, 0.1562500000000000000, -0.0605468750000000000, -0.1406250000000000000, 0.0820312500000000000, -0.0131835937500000000, 0.0781250000000000000, -0.0112304687500000000, 0.1796875000000000000, -0.1796875000000000000, 0.0058593750000000000, -0.2109375000000000000, 0.0083007812500000000, -0.1015625000000000000, -0.0449218750000000000, 0.0585937500000000000, -0.1093750000000000000, 0.0664062500000000000, -0.1718750000000000000, -0.1015625000000000000, -0.0312500000000000000, 0.1718750000000000000, 0.0585937500000000000, 0.0073242187500000000, 0.0410156250000000000, -0.1250000000000000000, -0.0546875000000000000, 0.1640625000000000000, 0.0036621093750000000, 0.0664062500000000000, -0.2109375000000000000, 0.1953125000000000000, -0.0107421875000000000, 0.1328125000000000000, 0.0488281250000000000, -0.2031250000000000000, 0.1953125000000000000, -0.0937500000000000000, -0.0937500000000000000, -0.1250000000000000000, 0.2031250000000000000, -0.1796875000000000000, 0.0048828125000000000, 0.0781250000000000000, 0.0585937500000000000, 0.1484375000000000000, -0.0214843750000000000, -0.2265625000000000000, 0.0205078125000000000, -0.1171875000000000000, 0.0429687500000000000, 0.0410156250000000000, -0.1210937500000000000, -0.1093750000000000000, -0.1054687500000000000, 0.1054687500000000000, -0.0041503906250000000, -0.0126953125000000000, 0.1484375000000000000, 0.0976562500000000000, 0.1875000000000000000, -0.1718750000000000000, -0.0097656250000000000, -0.1054687500000000000, 0.0390625000000000000, 0.0244140625000000000, -0.0253906250000000000, -0.1718750000000000000, -0.0527343750000000000, 0.1953125000000000000, -0.0976562500000000000, -0.0507812500000000000, -0.0292968750000000000, 0.1054687500000000000, 0.1406250000000000000, -0.1953125000000000000, -0.1718750000000000000, -0.1953125000000000000, -0.0371093750000000000, 0.0048828125000000000, -0.0273437500000000000, -0.0742187500000000000, 0.1171875000000000000, 0.0664062500000000000, 0.1953125000000000000, 0.1562500000000000000, -0.1875000000000000000, -0.1132812500000000000, 0.2031250000000000000, -0.1406250000000000000, 0.1328125000000000000, 0.0820312500000000000, -0.0332031250000000000, 0.1953125000000000000, 0.1015625000000000000, -0.1328125000000000000, 0.1640625000000000000, 0.1250000000000000000, 0.2265625000000000000, -0.0185546875000000000, -0.1406250000000000000, 0.1406250000000000000, 0.0546875000000000000, -0.1132812500000000000, -0.0263671875000000000, 0.1796875000000000000, 0.0063476562500000000, -0.0263671875000000000, 0.1718750000000000000, -0.1406250000000000000, -0.0781250000000000000, 0.0566406250000000000, -0.1562500000000000000, -0.0976562500000000000, 0.1718750000000000000, 0.0859375000000000000, -0.0605468750000000000, -0.1484375000000000000, 0.1171875000000000000, 0.2187500000000000000, -0.1093750000000000000, -0.1328125000000000000, -0.1875000000000000000, 0.0468750000000000000, 0.0625000000000000000, -0.1953125000000000000, -0.1054687500000000000, -0.2109375000000000000, 0.0224609375000000000, 0.0703125000000000000, 0.0585937500000000000, 0.0664062500000000000, -0.0205078125000000000, 0.0175781250000000000, 0.0664062500000000000, 0.1015625000000000000, 0.1328125000000000000, 0.1796875000000000000, -0.0002593994140625000, -0.0078125000000000000, 0.1796875000000000000, 0.0507812500000000000, 0.0449218750000000000, -0.0507812500000000000, 0.1718750000000000000, -0.0283203125000000000, 0.1718750000000000000, -0.1250000000000000000, -0.2031250000000000000, -0.1796875000000000000, 0.0781250000000000000, -0.0253906250000000000, -0.1132812500000000000, -0.1171875000000000000, 0.1640625000000000000, 0.2031250000000000000, -0.0703125000000000000, -0.1718750000000000000, 0.0898437500000000000, -0.0351562500000000000, -0.1093750000000000000, -0.1093750000000000000, -0.0742187500000000000, 0.1796875000000000000, 0.0625000000000000000, 0.1484375000000000000, -0.1875000000000000000, 0.1093750000000000000, 0.0859375000000000000, 0.1484375000000000000, 0.0585937500000000000, 0.0585937500000000000, -0.0371093750000000000, -0.1953125000000000000, 0.1484375000000000000, -0.1406250000000000000, -0.0976562500000000000, -0.1796875000000000000, -0.1093750000000000000, -0.0068359375000000000, -0.1875000000000000000, 0.1796875000000000000, -0.1953125000000000000, 0.1875000000000000000, 0.1875000000000000000, 0.1250000000000000000, -0.2109375000000000000, -0.1171875000000000000, 0.1328125000000000000, 0.1640625000000000000, -0.2421875000000000000, 0.1328125000000000000, 0.1406250000000000000, -0.0175781250000000000, 0.0976562500000000000, 0.0664062500000000000, -0.1640625000000000000, -0.1093750000000000000, 0.0244140625000000000, -0.0488281250000000000, -0.0195312500000000000, 0.1132812500000000000, -0.2031250000000000000, 0.1250000000000000000, 0.0703125000000000000, -0.1328125000000000000, 0.0205078125000000000, 0.2187500000000000000, -0.0976562500000000000, 0.0351562500000000000, 0.0429687500000000000, -0.1562500000000000000, -0.0146484375000000000, 0.0585937500000000000, -0.0312500000000000000, 0.1132812500000000000, 0.1875000000000000000, 0.1875000000000000000, 0.0488281250000000000, 0.0703125000000000000, 0.1132812500000000000, -0.0859375000000000000, -0.1718750000000000000, 0.0781250000000000000, 0.1054687500000000000, 0.0703125000000000000, 0.2265625000000000000, -0.0742187500000000000, 0.0429687500000000000, 0.1562500000000000000, 0.0664062500000000000, -0.0449218750000000000, 0.0703125000000000000, -0.1484375000000000000, -0.1171875000000000000, -0.0351562500000000000, 0.0820312500000000000, -0.0937500000000000000, -0.1406250000000000000, 0.1406250000000000000, 0.0546875000000000000, -0.0156250000000000000, -0.0146484375000000000, 0.0625000000000000000, 0.1718750000000000000, -0.1953125000000000000, -0.1718750000000000000, 0.2265625000000000000, -0.1875000000000000000, 0.1640625000000000000, 0.1953125000000000000, 0.1640625000000000000, -0.1054687500000000000, -0.0488281250000000000, 0.0527343750000000000, 0.1718750000000000000, 0.0859375000000000000, 0.1953125000000000000, -0.2187500000000000000, 0.1171875000000000000, -0.0937500000000000000, -0.1171875000000000000, -0.0937500000000000000, 0.0351562500000000000, 0.0937500000000000000, -0.0234375000000000000, -0.0820312500000000000, -0.1328125000000000000, 0.0781250000000000000, 0.1875000000000000000, 0.2500000000000000000, -0.1796875000000000000, 0.1640625000000000000, -0.0781250000000000000, -0.1406250000000000000, -0.1484375000000000000, 0.1640625000000000000, -0.1640625000000000000, 0.0136718750000000000, 0.0527343750000000000, 0.1328125000000000000, -0.1171875000000000000, 0.1171875000000000000, 0.2031250000000000000, -0.1210937500000000000, -0.2265625000000000000, 0.0058593750000000000, -0.1640625000000000000, 0.1796875000000000000, 0.2031250000000000000, -0.1796875000000000000, 0.1718750000000000000, 0.0013427734375000000, 0.2656250000000000000, 0.1718750000000000000, 0.1484375000000000000, 0.0859375000000000000, 0.2343750000000000000, -0.1562500000000000000, 0.0449218750000000000, -0.2109375000000000000, 0.0585937500000000000, 0.2343750000000000000, 0.1250000000000000000, -0.0742187500000000000, -0.0605468750000000000, -0.1718750000000000000, -0.0371093750000000000, -0.1718750000000000000, -0.1484375000000000000, 0.1406250000000000000, -0.0937500000000000000, 0.1250000000000000000, -0.0488281250000000000, 0.1250000000000000000, 0.1875000000000000000, 0.2500000000000000000, -0.1562500000000000000, -0.1132812500000000000, 0.1562500000000000000, -0.0107421875000000000, -0.0244140625000000000, 0.2500000000000000000, -0.1406250000000000000, -0.2109375000000000000, 0.1562500000000000000, 0.1953125000000000000, -0.1328125000000000000, 0.0859375000000000000, 0.0224609375000000000, -0.2109375000000000000, 0.0507812500000000000, -0.0585937500000000000, 0.0820312500000000000, -0.1406250000000000000, -0.0068359375000000000, 0.0253906250000000000, 0.1171875000000000000, 0.0742187500000000000, -0.0141601562500000000, 0.1093750000000000000, 0.0546875000000000000, -0.1093750000000000000, 0.0205078125000000000, -0.1875000000000000000, -0.2187500000000000000, 0.1953125000000000000, 0.1796875000000000000, 0.0898437500000000000, -0.1093750000000000000, -0.1875000000000000000, 0.1875000000000000000, -0.2109375000000000000, 0.1250000000000000000, 0.2031250000000000000, -0.1718750000000000000, 0.0976562500000000000, 0.1406250000000000000, 0.1054687500000000000, 0.2031250000000000000, 0.0102539062500000000, -0.1562500000000000000, 0.0703125000000000000, 0.0507812500000000000, 0.1640625000000000000, 0.0781250000000000000, 0.1328125000000000000, 0.1054687500000000000, 0.0156250000000000000, -0.2109375000000000000, -0.2421875000000000000, 0.1250000000000000000, 0.1875000000000000000, -0.1875000000000000000, 0.1328125000000000000, -0.1015625000000000000, -0.1054687500000000000, -0.1875000000000000000, 0.1718750000000000000, -0.1562500000000000000, -0.0937500000000000000, -0.1250000000000000000, -0.1718750000000000000, -0.0449218750000000000, -0.1953125000000000000, 0.1796875000000000000, 0.1953125000000000000, 0.0001220703125000000, -0.0781250000000000000, -0.0976562500000000000, 0.1640625000000000000, 0.1953125000000000000, 0.0976562500000000000, 0.0898437500000000000, 0.0097656250000000000, 0.0292968750000000000, -0.0371093750000000000, 0.0664062500000000000, 0.1406250000000000000, 0.0664062500000000000, 0.0703125000000000000, 0.1562500000000000000, -0.1250000000000000000, 0.1250000000000000000, -0.1132812500000000000, -0.0429687500000000000, -0.2265625000000000000, -0.0976562500000000000, 0.0390625000000000000, -0.0468750000000000000, -0.0742187500000000000, 0.1562500000000000000, 0.1015625000000000000, 0.1171875000000000000, -0.1015625000000000000, -0.0507812500000000000, 0.1328125000000000000, -0.1953125000000000000, 0.1250000000000000000, 0.1640625000000000000, -0.1953125000000000000, 0.0097656250000000000, -0.0527343750000000000, -0.1640625000000000000, -0.1132812500000000000, 0.1953125000000000000, -0.0859375000000000000, 0.1328125000000000000, -0.1796875000000000000, 0.1562500000000000000, 0.0185546875000000000, 0.0312500000000000000, 0.1484375000000000000, -0.0117187500000000000, 0.0820312500000000000, -0.0742187500000000000, -0.0898437500000000000, 0.0283203125000000000, -0.1406250000000000000, -0.0898437500000000000, 0.0898437500000000000, -0.2109375000000000000, 0.1093750000000000000, 0.2343750000000000000, 0.0449218750000000000, -0.1796875000000000000, 0.2343750000000000000, 0.1562500000000000000, 0.0092773437500000000, 0.0703125000000000000, -0.1484375000000000000, -0.2265625000000000000, 0.1171875000000000000, -0.1953125000000000000, -0.1875000000000000000, 0.1406250000000000000, -0.0087890625000000000, -0.0332031250000000000, -0.1250000000000000000, 0.0527343750000000000, 0.0351562500000000000, -0.0703125000000000000, 0.0410156250000000000, -0.0742187500000000000, -0.0156250000000000000, -0.0332031250000000000, -0.1250000000000000000, 0.0546875000000000000, -0.1796875000000000000, -0.0468750000000000000, -0.1796875000000000000, -0.1718750000000000000, -0.1953125000000000000, -0.2109375000000000000, -0.0083007812500000000, 0.2031250000000000000, 0.0664062500000000000, -0.1015625000000000000, -0.1562500000000000000, -0.0302734375000000000, 0.1562500000000000000, -0.0566406250000000000, 0.2031250000000000000, 0.1484375000000000000, 0.0126953125000000000, 0.1250000000000000000, 0.0898437500000000000, -0.0468750000000000000, 0.1054687500000000000, 0.1250000000000000000, 0.2109375000000000000, 0.0146484375000000000, -0.1406250000000000000, 0.1328125000000000000, -0.0703125000000000000, 0.1718750000000000000, 0.0625000000000000000, 0.0083007812500000000, -0.2265625000000000000, 0.1054687500000000000, 0.0073242187500000000, -0.1210937500000000000, -0.1406250000000000000, -0.0030517578125000000, -0.0146484375000000000, 0.1093750000000000000, -0.1250000000000000000, -0.1796875000000000000, 0.0195312500000000000, 0.1718750000000000000, 0.1093750000000000000, 0.2031250000000000000, -0.1054687500000000000, -0.1406250000000000000, -0.2031250000000000000, -0.1875000000000000000, 0.1875000000000000000, -0.0742187500000000000, -0.0859375000000000000, 0.0244140625000000000, 0.1718750000000000000, -0.0488281250000000000, -0.1328125000000000000, 0.1015625000000000000, 0.0742187500000000000, 0.2109375000000000000, 0.2031250000000000000, -0.0056152343750000000, -0.1093750000000000000, 0.1640625000000000000, -0.1875000000000000000, 0.1953125000000000000, 0.0937500000000000000, -0.0351562500000000000, -0.1953125000000000000, -0.0302734375000000000, 0.0273437500000000000, 0.1171875000000000000, -0.1796875000000000000, -0.1171875000000000000, -0.1093750000000000000, 0.1718750000000000000, 0.1250000000000000000, 0.2109375000000000000, 0.1406250000000000000, -0.1484375000000000000, 0.1796875000000000000, -0.0859375000000000000, 0.0056152343750000000, 0.1796875000000000000, 0.0664062500000000000, 0.1953125000000000000, 0.0585937500000000000, 0.0859375000000000000, -0.0585937500000000000, 0.0566406250000000000, -0.0273437500000000000, 0.2187500000000000000, 0.1562500000000000000, -0.0488281250000000000, -0.0566406250000000000, -0.0976562500000000000, -0.0625000000000000000, 0.1328125000000000000, -0.0976562500000000000, -0.0107421875000000000, -0.0546875000000000000, -0.0742187500000000000, 0.1250000000000000000, 0.1796875000000000000, -0.1875000000000000000, -0.1093750000000000000, 0.0273437500000000000, 0.0742187500000000000, 0.1875000000000000000, 0.0820312500000000000, 0.1406250000000000000, 0.0742187500000000000, 0.0507812500000000000, 0.1640625000000000000, 0.0742187500000000000, -0.1640625000000000000, 0.0024414062500000000, 0.0117187500000000000, -0.0012817382812500000, -0.2343750000000000000, 0.0390625000000000000, 0.0195312500000000000, -0.1562500000000000000, 0.2031250000000000000, 0.0566406250000000000, -0.1718750000000000000, 0.0195312500000000000, 0.0112304687500000000, -0.1796875000000000000, -0.1484375000000000000, 0.1640625000000000000, -0.2109375000000000000, 0.1250000000000000000, -0.2109375000000000000, 0.0224609375000000000, 0.0781250000000000000, 0.0214843750000000000, 0.1406250000000000000, -0.0122070312500000000, 0.0292968750000000000, -0.1718750000000000000, 0.1718750000000000000, 0.1054687500000000000, -0.1953125000000000000, 0.1796875000000000000, 0.1171875000000000000, 0.1171875000000000000, 0.2187500000000000000, 0.1484375000000000000, -0.1718750000000000000, -0.0820312500000000000, 0.1484375000000000000, -0.0605468750000000000, -0.1953125000000000000, 0.0488281250000000000, 0.0263671875000000000, -0.1484375000000000000, 0.1406250000000000000, -0.0703125000000000000, -0.2109375000000000000, -0.0664062500000000000, 0.1562500000000000000, -0.1640625000000000000, 0.0449218750000000000, -0.2109375000000000000, 0.1132812500000000000, 0.0468750000000000000, -0.1484375000000000000, 0.0019531250000000000, 0.0051269531250000000, -0.1718750000000000000, -0.0664062500000000000, 0.1875000000000000000, -0.0312500000000000000, 0.0488281250000000000, -0.1328125000000000000, -0.0664062500000000000, -0.1875000000000000000, 0.0781250000000000000, -0.0859375000000000000, 0.1015625000000000000, -0.1718750000000000000, 0.0703125000000000000, -0.0976562500000000000, 0.1796875000000000000, 0.0083007812500000000, 0.0566406250000000000, 0.2343750000000000000, 0.1328125000000000000, -0.1132812500000000000, 0.0898437500000000000, -0.1562500000000000000, -0.1328125000000000000, 0.0859375000000000000, 0.0742187500000000000, 0.2187500000000000000, -0.1015625000000000000, -0.0068359375000000000, -0.0488281250000000000, 0.1171875000000000000, -0.1718750000000000000, -0.0898437500000000000, 0.0507812500000000000, 0.1562500000000000000, -0.0566406250000000000, -0.1562500000000000000, -0.0937500000000000000, -0.0429687500000000000, -0.1640625000000000000, 0.1562500000000000000, 0.1718750000000000000, -0.0527343750000000000, -0.1562500000000000000, 0.1054687500000000000, -0.1406250000000000000, 0.1328125000000000000, -0.0585937500000000000, -0.0292968750000000000, -0.1953125000000000000, -0.1406250000000000000, 0.2343750000000000000, -0.0283203125000000000, -0.0664062500000000000, 0.1171875000000000000, -0.0146484375000000000, -0.2109375000000000000, 0.1406250000000000000, 0.1875000000000000000, 0.0273437500000000000, 0.1718750000000000000, 0.0429687500000000000, -0.0976562500000000000, 0.0781250000000000000, -0.1484375000000000000, 0.0859375000000000000, 0.1328125000000000000, 0.0244140625000000000, 0.0976562500000000000, 0.1875000000000000000, -0.0898437500000000000, 0.0292968750000000000, 0.1093750000000000000, -0.1250000000000000000, -0.1796875000000000000, -0.0244140625000000000, 0.1328125000000000000, -0.0664062500000000000, 0.1328125000000000000, -0.2031250000000000000, -0.1718750000000000000, 0.0007934570312500000, 0.0205078125000000000, -0.1875000000000000000, 0.1718750000000000000, 0.1640625000000000000, -0.1953125000000000000, -0.1718750000000000000, 0.1328125000000000000, -0.0937500000000000000, 0.0214843750000000000, -0.0146484375000000000, -0.1562500000000000000, 0.0122070312500000000, -0.0185546875000000000, 0.1718750000000000000, 0.1640625000000000000, 0.1484375000000000000, -0.1132812500000000000, -0.0625000000000000000, -0.1562500000000000000, 0.0527343750000000000, 0.0527343750000000000, 0.1796875000000000000, -0.1171875000000000000, 0.0009765625000000000, -0.1796875000000000000, 0.2187500000000000000, -0.1562500000000000000, -0.0195312500000000000, 0.0488281250000000000, -0.0566406250000000000, 0.0156250000000000000, -0.0185546875000000000, 0.1484375000000000000, -0.1015625000000000000, 0.0703125000000000000, -0.1210937500000000000, 0.0625000000000000000, -0.1718750000000000000, -0.1562500000000000000, -0.0102539062500000000, -0.1054687500000000000, 0.0205078125000000000, -0.1875000000000000000, -0.0781250000000000000, -0.0011596679687500000, 0.1953125000000000000, 0.0820312500000000000, 0.0742187500000000000, -0.1796875000000000000, -0.1562500000000000000, -0.0468750000000000000, -0.1210937500000000000, 0.0263671875000000000, -0.2031250000000000000, 0.0585937500000000000, 0.0527343750000000000, -0.0021972656250000000, 0.0410156250000000000, 0.0468750000000000000, 0.1484375000000000000, -0.0781250000000000000, 0.1406250000000000000, -0.0332031250000000000, 0.2109375000000000000, -0.0332031250000000000, 0.1328125000000000000, -0.2031250000000000000, 0.0820312500000000000, 0.1406250000000000000, -0.0117187500000000000, -0.2031250000000000000, -0.0224609375000000000, 0.0527343750000000000, -0.2343750000000000000, 0.0742187500000000000, 0.1132812500000000000, -0.1054687500000000000, -0.1328125000000000000, -0.0976562500000000000, 0.1796875000000000000, -0.1093750000000000000, -0.0937500000000000000, 0.1875000000000000000, 0.2656250000000000000, 0.0332031250000000000, 0.0195312500000000000, 0.0976562500000000000, -0.1093750000000000000, -0.1484375000000000000, 0.0742187500000000000, -0.0585937500000000000, 0.0214843750000000000, -0.0244140625000000000, -0.1250000000000000000, -0.1015625000000000000, -0.0122070312500000000, 0.1406250000000000000, 0.2343750000000000000, -0.1406250000000000000, 0.2656250000000000000, -0.0449218750000000000, 0.1171875000000000000, -0.2031250000000000000, 0.1328125000000000000, -0.0820312500000000000, -0.1406250000000000000, -0.0371093750000000000, -0.1796875000000000000, 0.0185546875000000000, -0.1796875000000000000, 0.2109375000000000000, 0.2343750000000000000, -0.2109375000000000000, 0.2500000000000000000, -0.1093750000000000000, 0.0371093750000000000, -0.0023193359375000000, 0.1796875000000000000, 0.0976562500000000000, -0.1328125000000000000, 0.0742187500000000000, -0.1250000000000000000, -0.0214843750000000000, 0.0263671875000000000, -0.2187500000000000000, 0.1562500000000000000, 0.0126953125000000000, -0.2109375000000000000, 0.1562500000000000000, -0.2031250000000000000, 0.1406250000000000000, 0.0507812500000000000, 0.0117187500000000000, 0.1250000000000000000, 0.0283203125000000000, -0.2265625000000000000, 0.1796875000000000000, 0.0429687500000000000, 0.1171875000000000000, 0.1796875000000000000, -0.1015625000000000000, 0.1171875000000000000, -0.2109375000000000000, 0.0742187500000000000, -0.0566406250000000000, -0.1640625000000000000, 0.1093750000000000000, 0.0312500000000000000, 0.2031250000000000000, -0.1875000000000000000, 0.0003204345703125000, -0.1718750000000000000, -0.0488281250000000000, 0.0410156250000000000, 0.1328125000000000000, -0.0449218750000000000, -0.2031250000000000000, 0.1875000000000000000, -0.2031250000000000000, 0.1718750000000000000, 0.1250000000000000000, -0.0117187500000000000, -0.2109375000000000000, -0.0566406250000000000, 0.0205078125000000000, -0.0390625000000000000, -0.1875000000000000000, -0.2031250000000000000, -0.1640625000000000000, 0.1093750000000000000, -0.0002899169921875000, -0.0175781250000000000, 0.0166015625000000000, -0.1328125000000000000, -0.1875000000000000000, -0.0011596679687500000, -0.1640625000000000000, -0.0859375000000000000, 0.1796875000000000000, 0.1718750000000000000, 0.1015625000000000000, -0.0546875000000000000, -0.0664062500000000000, -0.1562500000000000000, -0.2031250000000000000, 0.0166015625000000000, -0.0625000000000000000, 0.0371093750000000000, 0.0449218750000000000, -0.1640625000000000000, -0.0263671875000000000, 0.1875000000000000000, -0.0429687500000000000, -0.1328125000000000000, -0.0546875000000000000, -0.1875000000000000000, 0.1875000000000000000, 0.0146484375000000000, 0.1875000000000000000, 0.2265625000000000000, 0.0976562500000000000, 0.2265625000000000000, -0.0976562500000000000, -0.1640625000000000000, 0.2343750000000000000, 0.1796875000000000000, -0.1406250000000000000, 0.0781250000000000000, 0.1484375000000000000, 0.0527343750000000000, 0.0781250000000000000, 0.0175781250000000000, 0.1328125000000000000, -0.1640625000000000000, -0.0146484375000000000, -0.0488281250000000000, -0.1250000000000000000, 0.1406250000000000000, 0.1171875000000000000, 0.1093750000000000000, 0.0312500000000000000, 0.1718750000000000000, 0.1328125000000000000, 0.1406250000000000000, -0.1210937500000000000, -0.1796875000000000000, 0.0664062500000000000, -0.0781250000000000000, -0.1953125000000000000, 0.2109375000000000000, 0.2031250000000000000, 0.1796875000000000000, 0.1484375000000000000, -0.0585937500000000000, 0.1796875000000000000, -0.1484375000000000000, -0.2031250000000000000, -0.0781250000000000000, 0.0468750000000000000, 0.2031250000000000000, 0.1718750000000000000, -0.0253906250000000000, -0.0083007812500000000, 0.0185546875000000000, -0.0703125000000000000, 0.1250000000000000000, -0.0117187500000000000, 0.0012817382812500000, -0.1250000000000000000, -0.0253906250000000000, -0.1718750000000000000, 0.0332031250000000000, -0.2265625000000000000, 0.1406250000000000000, -0.2109375000000000000, -0.1406250000000000000, 0.0175781250000000000, 0.1015625000000000000, -0.1562500000000000000, -0.0371093750000000000, -0.1210937500000000000, 0.0146484375000000000, -0.1562500000000000000, 0.0468750000000000000, 0.1093750000000000000, 0.0332031250000000000, -0.2265625000000000000, 0.0664062500000000000, 0.0625000000000000000, 0.0083007812500000000, 0.1953125000000000000, -0.1796875000000000000, 0.0351562500000000000, -0.1562500000000000000, -0.2265625000000000000, 0.0742187500000000000, 0.0312500000000000000, 0.1875000000000000000, 0.0742187500000000000, -0.0664062500000000000, -0.2421875000000000000, 0.1250000000000000000, -0.1406250000000000000, 0.1132812500000000000, 0.1171875000000000000, -0.1562500000000000000, -0.1718750000000000000, 0.0195312500000000000, 0.1796875000000000000, -0.2109375000000000000, 0.0820312500000000000, 0.1171875000000000000, 0.1054687500000000000, 0.1054687500000000000, -0.1015625000000000000, 0.0976562500000000000, -0.0112304687500000000, -0.2109375000000000000, -0.0820312500000000000, 0.0781250000000000000, 0.1171875000000000000, -0.0041503906250000000, 0.1015625000000000000, 0.0820312500000000000, -0.1171875000000000000, -0.1875000000000000000, 0.1562500000000000000, 0.0312500000000000000, 0.1562500000000000000, -0.1640625000000000000, 0.1328125000000000000, 0.0488281250000000000, -0.0937500000000000000, -0.0410156250000000000, 0.0468750000000000000, 0.1718750000000000000, -0.1406250000000000000, -0.1718750000000000000, 0.1015625000000000000, -0.1953125000000000000, 0.1328125000000000000, -0.1250000000000000000, 0.1562500000000000000, 0.0703125000000000000, 0.0351562500000000000, -0.0166015625000000000, 0.0195312500000000000, -0.0051269531250000000, -0.1093750000000000000, 0.0000991821289062500, -0.2187500000000000000, 0.1054687500000000000, 0.0058593750000000000, 0.1796875000000000000, -0.0488281250000000000, -0.1640625000000000000, 0.1171875000000000000, -0.1796875000000000000, -0.1132812500000000000, -0.2031250000000000000, -0.1953125000000000000, -0.1484375000000000000, 0.0214843750000000000, 0.0507812500000000000, 0.0468750000000000000, 0.1640625000000000000, 0.0859375000000000000, 0.0351562500000000000, 0.0937500000000000000, -0.1250000000000000000, 0.1640625000000000000, -0.0546875000000000000, 0.0205078125000000000, -0.0175781250000000000, 0.1875000000000000000, -0.2109375000000000000, 0.1093750000000000000, 0.0429687500000000000, 0.1093750000000000000, -0.1328125000000000000, -0.2187500000000000000, -0.1953125000000000000, -0.1718750000000000000, 0.1015625000000000000, -0.0429687500000000000, -0.0859375000000000000, 0.0976562500000000000, 0.0976562500000000000, 0.1250000000000000000, -0.2031250000000000000, 0.0390625000000000000, 0.0429687500000000000, 0.2031250000000000000, 0.1875000000000000000, -0.1250000000000000000, 0.1171875000000000000, 0.1015625000000000000, -0.0507812500000000000, -0.2265625000000000000, -0.1015625000000000000, 0.1484375000000000000, 0.1328125000000000000, -0.1406250000000000000, -0.1015625000000000000, -0.0312500000000000000, 0.0102539062500000000, 0.0488281250000000000, 0.0898437500000000000, 0.0664062500000000000, -0.1718750000000000000, 0.1015625000000000000, 0.0097656250000000000, 0.1406250000000000000, -0.1210937500000000000, -0.1718750000000000000, -0.1875000000000000000, -0.1328125000000000000, -0.2109375000000000000, 0.0214843750000000000, 0.1640625000000000000, -0.1210937500000000000, 0.0585937500000000000, 0.0937500000000000000, 0.0122070312500000000, 0.0859375000000000000, -0.0585937500000000000, 0.1171875000000000000, 0.0410156250000000000, -0.1484375000000000000, 0.0703125000000000000, -0.1132812500000000000, -0.0937500000000000000, -0.1171875000000000000, -0.1484375000000000000, 0.0332031250000000000, 0.0126953125000000000, -0.0449218750000000000, 0.1953125000000000000, -0.0898437500000000000, 0.2265625000000000000, 0.1562500000000000000, -0.1718750000000000000, -0.0214843750000000000, -0.0195312500000000000, -0.0131835937500000000, -0.1640625000000000000, 0.0566406250000000000, -0.0390625000000000000, 0.1640625000000000000, 0.0781250000000000000, -0.1328125000000000000, -0.1718750000000000000, -0.0175781250000000000, 0.0976562500000000000, -0.1328125000000000000, -0.0820312500000000000, 0.1796875000000000000, 0.1250000000000000000, 0.0234375000000000000, -0.0527343750000000000, -0.2421875000000000000, -0.2187500000000000000, -0.0820312500000000000, 0.1953125000000000000, -0.1015625000000000000, 0.0703125000000000000, -0.2031250000000000000, -0.0156250000000000000, 0.1953125000000000000, 0.1406250000000000000, 0.1953125000000000000, -0.0976562500000000000, -0.0214843750000000000, 0.1250000000000000000, 0.1250000000000000000, -0.1210937500000000000, 0.1054687500000000000, 0.1093750000000000000, -0.1054687500000000000, 0.0585937500000000000, -0.0429687500000000000, -0.0820312500000000000, 0.0030517578125000000, 0.0214843750000000000, 0.1718750000000000000, -0.0097656250000000000, 0.1250000000000000000, -0.0001907348632812500, 0.0073242187500000000, 0.0625000000000000000, -0.0820312500000000000, -0.1875000000000000000, -0.1562500000000000000, 0.0263671875000000000, 0.0263671875000000000, -0.0937500000000000000, 0.1953125000000000000, -0.1562500000000000000, 0.0058593750000000000, 0.2187500000000000000, -0.0156250000000000000, -0.2109375000000000000, 0.0468750000000000000, -0.1718750000000000000, 0.0156250000000000000, 0.2187500000000000000, -0.0449218750000000000, -0.0625000000000000000, -0.0742187500000000000, 0.0332031250000000000, 0.0625000000000000000, -0.1718750000000000000, -0.1875000000000000000, -0.1640625000000000000, 0.1562500000000000000, -0.2031250000000000000, -0.0820312500000000000, 0.1875000000000000000, 0.2109375000000000000, -0.1171875000000000000, -0.0664062500000000000, 0.1015625000000000000, 0.0107421875000000000, 0.0820312500000000000, 0.2343750000000000000, 0.1250000000000000000, 0.1015625000000000000, -0.1796875000000000000, 0.1640625000000000000, -0.0976562500000000000, -0.1328125000000000000, 0.1054687500000000000, 0.1132812500000000000, 0.1015625000000000000, 0.0742187500000000000, 0.1640625000000000000, 0.1406250000000000000, 0.1484375000000000000, 0.0937500000000000000, 0.0625000000000000000, 0.0664062500000000000, -0.1484375000000000000, 0.1406250000000000000, -0.1484375000000000000, 0.0371093750000000000, -0.1640625000000000000, 0.1328125000000000000, -0.1484375000000000000, -0.1406250000000000000, 0.0859375000000000000, -0.0292968750000000000, 0.0283203125000000000, 0.1718750000000000000, -0.1796875000000000000, 0.0898437500000000000, 0.1718750000000000000, -0.1875000000000000000, 0.2031250000000000000, 0.1093750000000000000, 0.1562500000000000000, -0.2031250000000000000, -0.1875000000000000000, 0.1640625000000000000, -0.1484375000000000000, 0.0585937500000000000, 0.0976562500000000000, -0.1484375000000000000, -0.1953125000000000000, 0.0410156250000000000, -0.1875000000000000000, -0.0041503906250000000, 0.0976562500000000000, -0.0820312500000000000, -0.1562500000000000000, 0.1015625000000000000, 0.2031250000000000000, -0.1796875000000000000, 0.1328125000000000000, -0.0546875000000000000, 0.1171875000000000000, -0.0312500000000000000, 0.0410156250000000000, 0.0820312500000000000, -0.1718750000000000000, -0.0566406250000000000, -0.2109375000000000000, 0.0195312500000000000, 0.1796875000000000000, 0.1718750000000000000, 0.1406250000000000000, -0.2109375000000000000, -0.0703125000000000000, 0.0859375000000000000, 0.1640625000000000000, 0.2109375000000000000, -0.1171875000000000000, 0.0063476562500000000, 0.1328125000000000000, -0.0283203125000000000, 0.0820312500000000000, 0.0292968750000000000, -0.0371093750000000000, -0.1484375000000000000, -0.0035400390625000000, -0.1484375000000000000, 0.1796875000000000000, -0.1953125000000000000, -0.0449218750000000000, -0.1875000000000000000, 0.1171875000000000000, -0.1054687500000000000, -0.2421875000000000000, 0.0781250000000000000, -0.0507812500000000000, -0.1640625000000000000, 0.0063476562500000000, -0.0468750000000000000, 0.1015625000000000000, -0.0390625000000000000, -0.0410156250000000000, 0.1328125000000000000, -0.1132812500000000000, 0.1562500000000000000, -0.0244140625000000000, -0.1718750000000000000, -0.1250000000000000000, -0.1640625000000000000, 0.1054687500000000000, 0.1796875000000000000, -0.2031250000000000000, -0.1210937500000000000, 0.0859375000000000000, -0.0195312500000000000, -0.0283203125000000000, -0.0061035156250000000, -0.1328125000000000000, -0.0131835937500000000, 0.0468750000000000000, 0.0898437500000000000, -0.0664062500000000000, 0.1406250000000000000, 0.0859375000000000000, 0.0097656250000000000, -0.1718750000000000000, 0.1328125000000000000, -0.2343750000000000000, -0.2187500000000000000, -0.0151367187500000000, 0.1718750000000000000, -0.1953125000000000000, -0.1054687500000000000, 0.0585937500000000000, -0.1132812500000000000, -0.0898437500000000000, 0.1484375000000000000, 0.1875000000000000000, 0.1132812500000000000, -0.1562500000000000000, 0.0070800781250000000, 0.1328125000000000000, 0.1328125000000000000, 0.1562500000000000000, -0.1406250000000000000, -0.0703125000000000000, 0.0976562500000000000, 0.0263671875000000000, -0.1875000000000000000, -0.1210937500000000000, -0.1640625000000000000, 0.0146484375000000000, -0.0410156250000000000, -0.2421875000000000000, -0.0410156250000000000, -0.1328125000000000000, 0.1171875000000000000, 0.0507812500000000000, 0.0195312500000000000, 0.0976562500000000000, 0.1875000000000000000, -0.0546875000000000000, 0.0566406250000000000, -0.2187500000000000000, 0.0449218750000000000, -0.1953125000000000000, 0.0859375000000000000, -0.1718750000000000000, 0.1406250000000000000, -0.1484375000000000000, -0.1953125000000000000, -0.0507812500000000000, -0.0351562500000000000, -0.1953125000000000000, 0.2109375000000000000, -0.0371093750000000000, -0.1796875000000000000, -0.0820312500000000000, 0.0859375000000000000, -0.2109375000000000000, 0.0007019042968750000, -0.1210937500000000000, 0.2031250000000000000, -0.1796875000000000000, 0.0859375000000000000, 0.0585937500000000000, -0.1718750000000000000, 0.1328125000000000000, 0.0898437500000000000, -0.0859375000000000000, 0.0898437500000000000, 0.0312500000000000000, -0.0195312500000000000, -0.1250000000000000000, -0.0742187500000000000, 0.0937500000000000000, -0.0020751953125000000, -0.1562500000000000000, -0.0371093750000000000, -0.1328125000000000000, 0.0703125000000000000, 0.0051269531250000000, -0.0332031250000000000, 0.0781250000000000000, -0.0273437500000000000, -0.0371093750000000000, 0.0585937500000000000, -0.1640625000000000000, 0.1132812500000000000, -0.1054687500000000000, -0.1210937500000000000, -0.0781250000000000000, -0.0013427734375000000, -0.0087890625000000000, -0.1796875000000000000, 0.0507812500000000000, -0.0371093750000000000, 0.0224609375000000000, 0.1250000000000000000, 0.0449218750000000000, -0.1015625000000000000, -0.1875000000000000000, 0.1718750000000000000, -0.2187500000000000000, 0.1562500000000000000, -0.1210937500000000000, -0.1562500000000000000, -0.0332031250000000000, -0.1328125000000000000, -0.0625000000000000000, -0.0625000000000000000, 0.0410156250000000000, -0.0742187500000000000, 0.0566406250000000000, -0.0312500000000000000, 0.1953125000000000000, -0.0976562500000000000, 0.1953125000000000000, 0.1796875000000000000, 0.0410156250000000000, -0.1953125000000000000, -0.0117187500000000000, 0.2343750000000000000, 0.1328125000000000000, 0.0312500000000000000, -0.0781250000000000000, 0.0664062500000000000, 0.1171875000000000000, 0.0976562500000000000, 0.1171875000000000000, -0.1953125000000000000, -0.0703125000000000000, -0.1250000000000000000, -0.2421875000000000000, 0.0292968750000000000, -0.0898437500000000000, 0.0410156250000000000, -0.0234375000000000000, 0.2031250000000000000, 0.0018310546875000000, 0.1875000000000000000, 0.1640625000000000000, 0.0820312500000000000, -0.1132812500000000000, 0.0263671875000000000, -0.0898437500000000000, -0.0507812500000000000, 0.0703125000000000000, 0.0898437500000000000, 0.0351562500000000000, 0.0664062500000000000, 0.1406250000000000000, 0.1093750000000000000, 0.2031250000000000000, -0.0546875000000000000, -0.1562500000000000000, -0.1875000000000000000, 0.1953125000000000000, 0.0429687500000000000, 0.0332031250000000000, 0.0820312500000000000, 0.0703125000000000000, -0.1406250000000000000, -0.1171875000000000000, -0.0185546875000000000, -0.0546875000000000000, 0.0546875000000000000, 0.1250000000000000000, 0.1250000000000000000, 0.2187500000000000000, -0.1406250000000000000, 0.1640625000000000000, -0.1562500000000000000, 0.0166015625000000000, -0.0703125000000000000, 0.0742187500000000000, -0.0859375000000000000, -0.1210937500000000000, 0.1875000000000000000, 0.0185546875000000000, 0.1640625000000000000, -0.1484375000000000000, 0.0546875000000000000, 0.2109375000000000000, 0.1953125000000000000, 0.0859375000000000000, 0.0312500000000000000, -0.1250000000000000000, -0.0468750000000000000, 0.0566406250000000000, -0.0302734375000000000, -0.0371093750000000000, 0.1484375000000000000, 0.1953125000000000000, 0.0292968750000000000, -0.2031250000000000000, 0.2187500000000000000, 0.0390625000000000000, 0.0742187500000000000, -0.1953125000000000000, 0.0742187500000000000, -0.0166015625000000000, -0.1562500000000000000, 0.1953125000000000000, 0.0820312500000000000, 0.0859375000000000000, 0.1953125000000000000, -0.0898437500000000000, 0.1562500000000000000, 0.1171875000000000000, -0.0302734375000000000, 0.0585937500000000000, 0.0664062500000000000, 0.0332031250000000000, 0.1562500000000000000, -0.1796875000000000000, 0.1093750000000000000, -0.0390625000000000000, 0.1250000000000000000, 0.1250000000000000000, -0.1953125000000000000, -0.1796875000000000000, 0.1406250000000000000, -0.0527343750000000000, 0.1093750000000000000, -0.1484375000000000000, 0.1328125000000000000, 0.1640625000000000000, -0.1640625000000000000, -0.1328125000000000000, -0.1796875000000000000, -0.1875000000000000000, 0.0781250000000000000, -0.0664062500000000000, -0.1718750000000000000, 0.0468750000000000000, -0.0937500000000000000, -0.1718750000000000000, 0.2500000000000000000, -0.0820312500000000000, 0.2343750000000000000, 0.1875000000000000000, -0.0244140625000000000, 0.1328125000000000000, -0.1406250000000000000, 0.0937500000000000000, 0.2187500000000000000, -0.0898437500000000000, 0.2031250000000000000, 0.0703125000000000000, -0.0122070312500000000, -0.1054687500000000000, -0.0527343750000000000, 0.1406250000000000000, -0.0390625000000000000, 0.0136718750000000000, -0.1171875000000000000, -0.1796875000000000000, -0.1953125000000000000, -0.0273437500000000000, -0.1093750000000000000, 0.2031250000000000000, 0.1250000000000000000, 0.0006713867187500000, -0.0976562500000000000, 0.1328125000000000000, -0.0566406250000000000, 0.0273437500000000000, 0.0107421875000000000, 0.1093750000000000000, 0.0781250000000000000, -0.1250000000000000000, 0.2343750000000000000, 0.1132812500000000000, -0.0781250000000000000, -0.0351562500000000000, -0.0083007812500000000, -0.0898437500000000000, -0.1250000000000000000, -0.1953125000000000000, 0.0429687500000000000, -0.0507812500000000000, 0.1328125000000000000, 0.1171875000000000000, 0.1250000000000000000, -0.0039062500000000000, 0.1328125000000000000, -0.2109375000000000000, 0.2109375000000000000, -0.1953125000000000000, 0.0488281250000000000, 0.0585937500000000000, 0.0742187500000000000, 0.0390625000000000000, 0.1484375000000000000, -0.1406250000000000000, -0.1406250000000000000, 0.1640625000000000000, 0.0410156250000000000, 0.1171875000000000000, 0.0224609375000000000, -0.1640625000000000000, 0.0410156250000000000, 0.1875000000000000000, -0.0664062500000000000, 0.1171875000000000000, 0.0449218750000000000, 0.0820312500000000000, 0.1718750000000000000, -0.0332031250000000000, -0.1406250000000000000, -0.0253906250000000000, -0.0166015625000000000, -0.0937500000000000000, -0.1406250000000000000, 0.1796875000000000000, -0.1250000000000000000, 0.1250000000000000000, 0.0087890625000000000, -0.1640625000000000000, 0.1875000000000000000, -0.0107421875000000000, -0.1054687500000000000, 0.1875000000000000000, 0.1718750000000000000, 0.1406250000000000000, -0.0859375000000000000, -0.1875000000000000000, 0.1953125000000000000, -0.1718750000000000000, 0.0224609375000000000, -0.1132812500000000000, 0.1250000000000000000, -0.1796875000000000000, 0.2187500000000000000, 0.1484375000000000000, -0.1953125000000000000, 0.1171875000000000000, 0.1718750000000000000, 0.0546875000000000000, 0.1328125000000000000, 0.1328125000000000000, -0.1796875000000000000, -0.1796875000000000000, -0.1718750000000000000, -0.1328125000000000000, -0.1132812500000000000, -0.1640625000000000000, -0.0625000000000000000, -0.1640625000000000000, -0.0371093750000000000, 0.1484375000000000000, -0.0625000000000000000, 0.0351562500000000000, -0.0488281250000000000, -0.1328125000000000000, -0.0898437500000000000, -0.2343750000000000000, 0.0468750000000000000, 0.1796875000000000000, 0.0078125000000000000, -0.0507812500000000000, -0.2109375000000000000, 0.0664062500000000000, -0.1953125000000000000, 0.0065917968750000000, 0.1054687500000000000, -0.0126953125000000000, 0.1015625000000000000, -0.0742187500000000000, 0.1796875000000000000, 0.1406250000000000000, 0.1015625000000000000, 0.2031250000000000000, 0.0061035156250000000, 0.1796875000000000000, 0.1796875000000000000, 0.0048828125000000000, 0.0585937500000000000, 0.1484375000000000000, -0.0937500000000000000, 0.1250000000000000000, 0.1640625000000000000, -0.1406250000000000000, -0.0175781250000000000, 0.0468750000000000000, 0.0468750000000000000, -0.2109375000000000000, 0.1953125000000000000, -0.2031250000000000000, 0.1953125000000000000, -0.1171875000000000000, -0.0703125000000000000, 0.1171875000000000000, 0.0156250000000000000, -0.1328125000000000000, 0.0703125000000000000, -0.1210937500000000000, -0.1640625000000000000, -0.0018920898437500000, 0.0126953125000000000, 0.1093750000000000000, -0.0410156250000000000, -0.1210937500000000000, 0.0195312500000000000, 0.1171875000000000000, 0.0898437500000000000, -0.1953125000000000000, 0.0625000000000000000, -0.0859375000000000000, 0.0976562500000000000, -0.1406250000000000000, 0.1875000000000000000, -0.0488281250000000000, -0.1250000000000000000, -0.1250000000000000000, 0.0937500000000000000, -0.1406250000000000000, -0.1328125000000000000, 0.1562500000000000000, 0.0214843750000000000, -0.0976562500000000000, -0.0781250000000000000, -0.1250000000000000000, -0.0937500000000000000, 0.0585937500000000000, -0.2187500000000000000, -0.0820312500000000000, -0.0234375000000000000, -0.0976562500000000000, -0.1640625000000000000, -0.0351562500000000000, -0.2187500000000000000, 0.1875000000000000000, 0.0546875000000000000, -0.2031250000000000000, -0.0781250000000000000, -0.2109375000000000000, -0.0820312500000000000, 0.1562500000000000000, 0.2109375000000000000, 0.1132812500000000000, -0.1406250000000000000, -0.0390625000000000000, 0.0019531250000000000, 0.2031250000000000000, -0.0224609375000000000, 0.1718750000000000000, -0.1562500000000000000, -0.0585937500000000000, -0.0566406250000000000, -0.1484375000000000000, 0.0185546875000000000, 0.1406250000000000000, 0.1250000000000000000, -0.0859375000000000000, 0.1953125000000000000, 0.1015625000000000000, 0.0021972656250000000, 0.0351562500000000000, 0.0166015625000000000, 0.0166015625000000000, 0.0820312500000000000, -0.1640625000000000000, 0.1406250000000000000, 0.2031250000000000000, -0.0527343750000000000, 0.0117187500000000000, 0.1953125000000000000, -0.1875000000000000000, 0.1250000000000000000, -0.1484375000000000000, -0.0017089843750000000, 0.0429687500000000000, 0.1562500000000000000, 0.0449218750000000000, 0.1171875000000000000, -0.0566406250000000000, -0.0214843750000000000, 0.1250000000000000000, 0.0449218750000000000, -0.1718750000000000000, 0.1406250000000000000, 0.0546875000000000000, 0.0051269531250000000, -0.1875000000000000000, -0.1484375000000000000, 0.1328125000000000000, -0.0585937500000000000, 0.0371093750000000000, 0.1406250000000000000, 0.1484375000000000000, 0.1953125000000000000, -0.0302734375000000000, -0.1171875000000000000, 0.0156250000000000000, 0.1562500000000000000, 0.1250000000000000000, -0.0056152343750000000, -0.0332031250000000000, -0.1796875000000000000, -0.0332031250000000000, 0.0312500000000000000, -0.1953125000000000000, 0.1796875000000000000, 0.1406250000000000000, -0.0703125000000000000, 0.2031250000000000000, -0.0898437500000000000, -0.1093750000000000000, -0.0002365112304687500, -0.2109375000000000000, -0.0976562500000000000, 0.0742187500000000000, 0.1640625000000000000, 0.0312500000000000000, 0.0058593750000000000, -0.0703125000000000000, -0.0234375000000000000, -0.1640625000000000000, -0.1796875000000000000, -0.2031250000000000000, 0.2031250000000000000, 0.1953125000000000000, -0.0664062500000000000, 0.1640625000000000000, -0.1640625000000000000, -0.2109375000000000000, -0.1132812500000000000, 0.0410156250000000000, 0.0703125000000000000, -0.0625000000000000000, -0.1484375000000000000, -0.1875000000000000000, -0.1406250000000000000, 0.1640625000000000000, 0.0820312500000000000, -0.0742187500000000000, 0.0781250000000000000, -0.1953125000000000000, -0.2031250000000000000, 0.0976562500000000000, 0.1562500000000000000, -0.0061035156250000000, -0.2265625000000000000, 0.1796875000000000000, -0.1054687500000000000, 0.1718750000000000000, 0.0585937500000000000, -0.0195312500000000000, 0.1406250000000000000, -0.1796875000000000000, 0.0566406250000000000, 0.1132812500000000000, 0.1171875000000000000, -0.1953125000000000000, -0.1406250000000000000, 0.1250000000000000000, -0.2109375000000000000, -0.1640625000000000000, -0.1875000000000000000, -0.1953125000000000000, 0.1796875000000000000, 0.0742187500000000000, -0.0664062500000000000, 0.0742187500000000000, 0.1328125000000000000, -0.1640625000000000000, 0.1406250000000000000, 0.1250000000000000000, 0.1171875000000000000, -0.0703125000000000000, 0.1640625000000000000, -0.2109375000000000000, 0.0898437500000000000, 0.0625000000000000000, 0.2031250000000000000, -0.1406250000000000000, -0.0625000000000000000, 0.0781250000000000000, 0.1484375000000000000, -0.2109375000000000000, -0.0859375000000000000, 0.0041503906250000000, 0.0390625000000000000, 0.1875000000000000000, 0.1562500000000000000, -0.0083007812500000000, 0.1093750000000000000, 0.0507812500000000000, -0.0253906250000000000, -0.1640625000000000000, 0.1875000000000000000, 0.0312500000000000000, 0.0351562500000000000, 0.0312500000000000000, 0.1015625000000000000, -0.0234375000000000000, -0.0468750000000000000, -0.1015625000000000000, -0.1718750000000000000, 0.0234375000000000000, 0.1796875000000000000, -0.2187500000000000000, 0.0781250000000000000, -0.1875000000000000000, -0.0859375000000000000, -0.0053710937500000000, 0.2343750000000000000, -0.1718750000000000000, -0.1718750000000000000, 0.0976562500000000000, 0.1406250000000000000, -0.2109375000000000000, -0.2187500000000000000, 0.1171875000000000000, 0.1796875000000000000, -0.0605468750000000000, 0.1328125000000000000, 0.1054687500000000000, 0.0566406250000000000, -0.1875000000000000000, -0.1054687500000000000, -0.2031250000000000000, -0.2187500000000000000, -0.1562500000000000000, -0.1054687500000000000, -0.1093750000000000000, 0.0097656250000000000, 0.0175781250000000000, 0.1406250000000000000, -0.1093750000000000000, 0.0185546875000000000, 0.1875000000000000000, -0.1250000000000000000, -0.0146484375000000000, -0.1796875000000000000, 0.0781250000000000000, -0.0390625000000000000, -0.1953125000000000000, 0.2031250000000000000, 0.1953125000000000000, -0.1875000000000000000, -0.1328125000000000000, -0.0898437500000000000, -0.0625000000000000000, 0.0449218750000000000, -0.0742187500000000000, -0.1484375000000000000, -0.1406250000000000000, -0.1953125000000000000, -0.1796875000000000000, 0.1640625000000000000, 0.2109375000000000000, 0.1875000000000000000, -0.1640625000000000000, -0.2109375000000000000, -0.0390625000000000000, -0.1875000000000000000, 0.1250000000000000000, 0.1640625000000000000, 0.2109375000000000000, -0.1875000000000000000, -0.1640625000000000000, 0.2343750000000000000, -0.1484375000000000000, 0.0028076171875000000, -0.1328125000000000000, 0.0625000000000000000, 0.2343750000000000000, 0.0976562500000000000, 0.0820312500000000000, -0.1484375000000000000, -0.1796875000000000000, -0.0410156250000000000, 0.0175781250000000000, 0.0195312500000000000, 0.1875000000000000000, -0.1718750000000000000, -0.1250000000000000000, -0.0820312500000000000, -0.1640625000000000000, 0.1640625000000000000, 0.0312500000000000000, 0.1015625000000000000, 0.0146484375000000000, -0.1484375000000000000, 0.1171875000000000000, -0.1132812500000000000, 0.0976562500000000000, 0.1640625000000000000, -0.0976562500000000000, -0.1406250000000000000, -0.1562500000000000000, 0.0429687500000000000, 0.1093750000000000000, 0.1328125000000000000, -0.1796875000000000000, 0.1015625000000000000, 0.0742187500000000000, -0.2187500000000000000, -0.0820312500000000000, 0.1640625000000000000, -0.2421875000000000000, 0.0292968750000000000, 0.0003051757812500000, 0.2031250000000000000, -0.2109375000000000000, 0.1796875000000000000, 0.0410156250000000000, -0.1875000000000000000, 0.1328125000000000000, -0.0390625000000000000, 0.1796875000000000000, 0.1250000000000000000, 0.1328125000000000000, -0.1718750000000000000, -0.1406250000000000000, 0.0859375000000000000, 0.1953125000000000000, -0.0898437500000000000, 0.1718750000000000000, 0.0546875000000000000, -0.1328125000000000000, -0.0429687500000000000, -0.0332031250000000000, 0.1054687500000000000, -0.1718750000000000000, 0.0449218750000000000, -0.0131835937500000000, -0.0664062500000000000, -0.1132812500000000000, -0.0126953125000000000, -0.2031250000000000000, -0.0664062500000000000, -0.0449218750000000000, -0.0068359375000000000, -0.1718750000000000000, 0.0048828125000000000, -0.1054687500000000000, 0.1171875000000000000, 0.0332031250000000000, -0.1093750000000000000, 0.0703125000000000000, 0.0859375000000000000, -0.0546875000000000000, 0.1250000000000000000, 0.1875000000000000000, -0.0302734375000000000, -0.0390625000000000000, 0.0898437500000000000, 0.1562500000000000000, 0.1484375000000000000, 0.1054687500000000000, 0.0410156250000000000, -0.1796875000000000000, 0.0292968750000000000, -0.1640625000000000000, -0.1132812500000000000, -0.0585937500000000000, -0.1406250000000000000, 0.0092773437500000000, -0.1640625000000000000, 0.2187500000000000000, 0.1328125000000000000, 0.1484375000000000000, 0.1796875000000000000, 0.0166015625000000000, -0.1562500000000000000, -0.1562500000000000000, -0.0625000000000000000, -0.0351562500000000000, -0.1796875000000000000, -0.1093750000000000000, 0.1328125000000000000, 0.0019531250000000000, 0.0664062500000000000, 0.0703125000000000000, -0.2500000000000000000, -0.1328125000000000000, 0.1250000000000000000, 0.1718750000000000000, -0.1718750000000000000, -0.0976562500000000000, -0.2421875000000000000, 0.1953125000000000000, -0.1328125000000000000, 0.1132812500000000000, -0.0976562500000000000, 0.0546875000000000000, -0.1562500000000000000, 0.0703125000000000000, -0.0781250000000000000, 0.1054687500000000000, 0.0898437500000000000, 0.1054687500000000000, -0.0390625000000000000, -0.0273437500000000000, 0.1562500000000000000, 0.1328125000000000000, 0.1953125000000000000, -0.1210937500000000000, -0.0742187500000000000, -0.0112304687500000000, -0.0703125000000000000, -0.0195312500000000000, 0.0012207031250000000, -0.1093750000000000000, 0.1796875000000000000, 0.1484375000000000000, -0.2031250000000000000, 0.0429687500000000000, -0.0566406250000000000, 0.0546875000000000000, 0.0097656250000000000, -0.0351562500000000000, 0.0527343750000000000, 0.0585937500000000000, -0.0820312500000000000, -0.1562500000000000000, -0.0488281250000000000, -0.0585937500000000000, 0.0122070312500000000, 0.0566406250000000000, 0.2109375000000000000, 0.0429687500000000000, 0.2109375000000000000, 0.0429687500000000000, 0.0390625000000000000, 0.0820312500000000000, -0.1953125000000000000, 0.0390625000000000000, -0.0371093750000000000, -0.1171875000000000000, 0.0937500000000000000, 0.2109375000000000000, -0.0390625000000000000, 0.0429687500000000000, 0.1132812500000000000, 0.1171875000000000000, 0.1015625000000000000, 0.1093750000000000000, -0.1562500000000000000, 0.1562500000000000000, -0.0107421875000000000, 0.1640625000000000000, -0.1054687500000000000, 0.0234375000000000000, 0.1406250000000000000, 0.1640625000000000000, 0.1953125000000000000, 0.0859375000000000000, 0.1250000000000000000, 0.0898437500000000000, -0.0605468750000000000, -0.0781250000000000000, 0.1328125000000000000, -0.0166015625000000000, 0.1953125000000000000, 0.0742187500000000000, 0.0234375000000000000, 0.1171875000000000000, -0.1562500000000000000, -0.0546875000000000000, 0.1875000000000000000, -0.1406250000000000000, -0.1406250000000000000, -0.0117187500000000000, 0.1562500000000000000, -0.0566406250000000000, -0.1562500000000000000, 0.1953125000000000000, -0.1210937500000000000, -0.2031250000000000000, -0.0468750000000000000, 0.1640625000000000000, 0.0664062500000000000, -0.2109375000000000000, -0.1562500000000000000, -0.0937500000000000000, 0.0263671875000000000, 0.0976562500000000000, 0.1796875000000000000, 0.2109375000000000000, 0.1132812500000000000, -0.1328125000000000000, 0.0898437500000000000, 0.0703125000000000000, 0.0742187500000000000, 0.1562500000000000000, 0.1406250000000000000, 0.1953125000000000000, -0.0048828125000000000, 0.1406250000000000000, 0.0625000000000000000, -0.1562500000000000000, -0.1796875000000000000, -0.1406250000000000000, 0.1093750000000000000, -0.0083007812500000000, -0.1875000000000000000, 0.0185546875000000000, -0.0976562500000000000, -0.0566406250000000000, -0.1562500000000000000, 0.1406250000000000000, -0.1132812500000000000, 0.0292968750000000000, 0.0937500000000000000, -0.1718750000000000000, 0.0046386718750000000, -0.1484375000000000000, -0.0859375000000000000, 0.0625000000000000000, -0.0527343750000000000, -0.1875000000000000000, 0.1406250000000000000, -0.1640625000000000000, -0.1210937500000000000, -0.1406250000000000000, -0.1953125000000000000, 0.1875000000000000000, 0.2031250000000000000, 0.0937500000000000000, 0.1132812500000000000, 0.1953125000000000000, -0.1640625000000000000, -0.2109375000000000000, 0.0410156250000000000, -0.1562500000000000000, 0.0166015625000000000, -0.1796875000000000000, 0.1171875000000000000, 0.1406250000000000000, -0.2109375000000000000, -0.1484375000000000000, -0.2187500000000000000, -0.0898437500000000000, 0.0292968750000000000, -0.2031250000000000000, 0.0063476562500000000, 0.1718750000000000000, 0.0371093750000000000, -0.0664062500000000000, 0.1953125000000000000, -0.1406250000000000000, 0.1953125000000000000, 0.1054687500000000000, -0.0664062500000000000, -0.1406250000000000000, -0.2109375000000000000, 0.0703125000000000000, 0.0976562500000000000, 0.1640625000000000000, -0.2031250000000000000, 0.2031250000000000000, -0.0468750000000000000, 0.0488281250000000000, -0.1718750000000000000, 0.0625000000000000000, 0.0253906250000000000, 0.1718750000000000000, -0.2109375000000000000, 0.0820312500000000000, -0.0507812500000000000, 0.0859375000000000000, -0.2109375000000000000, -0.2109375000000000000, 0.0742187500000000000, 0.1640625000000000000, 0.1718750000000000000, -0.0102539062500000000, -0.0283203125000000000, 0.1796875000000000000, -0.0664062500000000000, 0.1875000000000000000, -0.0976562500000000000, 0.1015625000000000000, 0.0859375000000000000, 0.0781250000000000000, 0.1875000000000000000, -0.0781250000000000000, -0.0976562500000000000, -0.1484375000000000000, 0.0273437500000000000, 0.2187500000000000000, 0.1054687500000000000, -0.0898437500000000000, 0.1875000000000000000, 0.1875000000000000000, 0.0015869140625000000, -0.1132812500000000000, -0.1406250000000000000, -0.1796875000000000000, 0.2265625000000000000, 0.2187500000000000000, -0.1484375000000000000, 0.2343750000000000000, 0.1132812500000000000, 0.2109375000000000000, -0.1562500000000000000, -0.2031250000000000000, 0.0224609375000000000, 0.1132812500000000000, 0.1562500000000000000, 0.0859375000000000000, -0.1132812500000000000, 0.0073242187500000000, 0.0664062500000000000, -0.1171875000000000000, -0.0224609375000000000, -0.0332031250000000000, -0.1484375000000000000, -0.0429687500000000000, -0.1875000000000000000, 0.0371093750000000000, -0.0898437500000000000, 0.0859375000000000000, -0.1640625000000000000, 0.1484375000000000000, -0.0820312500000000000, 0.0742187500000000000, -0.2265625000000000000, 0.0332031250000000000, 0.0585937500000000000, 0.0449218750000000000, 0.1875000000000000000, -0.1718750000000000000, -0.1406250000000000000, 0.1093750000000000000, 0.2109375000000000000, -0.1171875000000000000, -0.1562500000000000000, -0.1718750000000000000, 0.0703125000000000000, -0.1640625000000000000, -0.1132812500000000000, -0.0131835937500000000, -0.0112304687500000000, -0.0061035156250000000, -0.2109375000000000000, -0.0781250000000000000, 0.0117187500000000000, -0.1796875000000000000, -0.1796875000000000000, 0.1796875000000000000, -0.0002899169921875000, 0.0566406250000000000, 0.1875000000000000000, 0.0625000000000000000, -0.0781250000000000000, -0.1054687500000000000, -0.1718750000000000000, 0.1562500000000000000, 0.0976562500000000000, 0.1796875000000000000, 0.0625000000000000000, -0.1054687500000000000, 0.2187500000000000000, -0.0605468750000000000, -0.0468750000000000000, 0.0527343750000000000, 0.1953125000000000000, -0.2031250000000000000, 0.0859375000000000000, -0.2109375000000000000, 0.1562500000000000000, -0.0175781250000000000, -0.1875000000000000000, -0.0742187500000000000, 0.1406250000000000000, -0.1562500000000000000, -0.1250000000000000000, -0.1562500000000000000, 0.0859375000000000000, -0.0292968750000000000, 0.2109375000000000000, 0.2343750000000000000, 0.0859375000000000000, 0.0703125000000000000, 0.2109375000000000000, 0.1250000000000000000, -0.1015625000000000000, -0.1015625000000000000, 0.0507812500000000000, -0.0898437500000000000, 0.0527343750000000000, -0.1171875000000000000, 0.1796875000000000000, 0.1875000000000000000, 0.1875000000000000000, 0.2031250000000000000, -0.1562500000000000000, -0.2500000000000000000, -0.0781250000000000000, 0.0742187500000000000, 0.0283203125000000000, 0.0263671875000000000, 0.1171875000000000000, 0.1093750000000000000, 0.0283203125000000000, 0.1796875000000000000, -0.0527343750000000000, 0.1171875000000000000, -0.1406250000000000000, -0.1953125000000000000, -0.0820312500000000000, 0.0781250000000000000, 0.0351562500000000000, 0.0410156250000000000, -0.0976562500000000000, -0.2031250000000000000, -0.0410156250000000000, 0.1953125000000000000, 0.0263671875000000000, 0.0703125000000000000, -0.0253906250000000000, 0.0625000000000000000, -0.0976562500000000000, -0.0859375000000000000, -0.1328125000000000000, 0.0898437500000000000, -0.1875000000000000000, 0.0507812500000000000, 0.0371093750000000000, -0.2109375000000000000, -0.0976562500000000000, 0.1953125000000000000, 0.1718750000000000000, 0.1054687500000000000, -0.0664062500000000000, -0.2187500000000000000, -0.0507812500000000000, 0.0410156250000000000, 0.0820312500000000000, -0.0263671875000000000, -0.0214843750000000000, 0.0410156250000000000, -0.1953125000000000000, 0.1640625000000000000, -0.2031250000000000000, -0.2109375000000000000, 0.1406250000000000000, 0.1562500000000000000, -0.0625000000000000000, -0.1953125000000000000, -0.1875000000000000000, 0.1015625000000000000, -0.0151367187500000000, -0.0703125000000000000, -0.1093750000000000000, -0.1406250000000000000, 0.0703125000000000000, -0.1210937500000000000, 0.1484375000000000000, 0.1562500000000000000, -0.1210937500000000000, 0.1640625000000000000, -0.1054687500000000000, -0.0488281250000000000, -0.1953125000000000000, -0.0112304687500000000, -0.0371093750000000000, 0.1406250000000000000, 0.1562500000000000000, 0.1640625000000000000, -0.0937500000000000000, -0.1718750000000000000, -0.0156250000000000000, -0.1328125000000000000, -0.2031250000000000000, -0.1796875000000000000, -0.0234375000000000000, -0.0065917968750000000, 0.0585937500000000000, 0.1953125000000000000, -0.0585937500000000000, 0.2109375000000000000, -0.1132812500000000000, -0.0122070312500000000, 0.1562500000000000000, 0.1406250000000000000, -0.2187500000000000000, -0.0175781250000000000, 0.0625000000000000000, 0.1171875000000000000, 0.0937500000000000000, -0.2109375000000000000, 0.0371093750000000000, 0.1875000000000000000, 0.1406250000000000000, -0.0005798339843750000, 0.1953125000000000000, 0.0976562500000000000, 0.0625000000000000000, 0.1796875000000000000, -0.1953125000000000000, 0.1875000000000000000, -0.0332031250000000000, -0.1328125000000000000, -0.0332031250000000000, 0.1875000000000000000, -0.0292968750000000000, 0.1171875000000000000, -0.1796875000000000000, 0.0390625000000000000, -0.1250000000000000000, -0.2031250000000000000, -0.0214843750000000000, -0.1132812500000000000, -0.0107421875000000000, -0.1718750000000000000, -0.1132812500000000000, -0.0351562500000000000, -0.1132812500000000000, -0.0253906250000000000, 0.0292968750000000000, 0.0507812500000000000, 0.1171875000000000000, -0.0015258789062500000, -0.0011596679687500000, -0.0625000000000000000, -0.1796875000000000000, -0.2031250000000000000, 0.0488281250000000000, -0.2109375000000000000, 0.1953125000000000000, 0.1328125000000000000, 0.1132812500000000000, -0.2031250000000000000, 0.0703125000000000000, -0.0146484375000000000, -0.0703125000000000000, 0.0703125000000000000, -0.0546875000000000000, -0.1953125000000000000, 0.0253906250000000000, -0.0976562500000000000, 0.1054687500000000000, 0.0429687500000000000, 0.0214843750000000000, -0.1484375000000000000, -0.1796875000000000000, -0.2031250000000000000, 0.2031250000000000000, -0.1132812500000000000, -0.1406250000000000000, 0.0214843750000000000, 0.0429687500000000000, -0.1210937500000000000, 0.1171875000000000000, -0.0664062500000000000, -0.1796875000000000000, 0.1328125000000000000, 0.1132812500000000000, 0.0488281250000000000, -0.2109375000000000000, 0.0937500000000000000, 0.0585937500000000000, 0.0371093750000000000, 0.1484375000000000000, 0.0898437500000000000, 0.0781250000000000000, 0.0703125000000000000, -0.1015625000000000000, 0.1054687500000000000, -0.0898437500000000000, 0.1718750000000000000, -0.2343750000000000000, -0.1953125000000000000, -0.1953125000000000000, -0.1171875000000000000, -0.1484375000000000000, 0.2109375000000000000, 0.0351562500000000000, -0.1484375000000000000, 0.1406250000000000000, 0.0527343750000000000, -0.0068359375000000000, -0.0097656250000000000, -0.1484375000000000000, 0.0390625000000000000, -0.0507812500000000000, -0.0703125000000000000, -0.0122070312500000000, -0.0781250000000000000, -0.1210937500000000000, 0.1875000000000000000, -0.2031250000000000000, -0.0429687500000000000, -0.0507812500000000000, -0.0390625000000000000, -0.2187500000000000000, -0.1484375000000000000, -0.0546875000000000000, 0.1484375000000000000, -0.0175781250000000000, 0.0625000000000000000, 0.2031250000000000000, 0.1562500000000000000, -0.0273437500000000000, -0.1640625000000000000, 0.0703125000000000000, 0.1328125000000000000, -0.1796875000000000000, 0.0224609375000000000, -0.1718750000000000000, 0.1250000000000000000, -0.1406250000000000000, -0.0234375000000000000, -0.0410156250000000000, -0.1718750000000000000, -0.0146484375000000000, -0.0070800781250000000, 0.1093750000000000000, 0.0742187500000000000, 0.1484375000000000000, -0.0151367187500000000, -0.1953125000000000000, 0.1875000000000000000, 0.0703125000000000000, -0.1210937500000000000, -0.0166015625000000000, -0.1640625000000000000, 0.0273437500000000000, -0.1132812500000000000, -0.1640625000000000000, -0.1718750000000000000, 0.2109375000000000000, -0.0136718750000000000, -0.1093750000000000000, 0.0312500000000000000, 0.0781250000000000000, 0.1484375000000000000, 0.2109375000000000000, 0.0429687500000000000, 0.1796875000000000000, 0.0131835937500000000, -0.2187500000000000000, -0.1484375000000000000, 0.1132812500000000000, 0.1054687500000000000, 0.1171875000000000000, 0.2265625000000000000, -0.2343750000000000000, -0.1484375000000000000, 0.1640625000000000000, 0.0820312500000000000, 0.1171875000000000000, -0.0898437500000000000, -0.0107421875000000000, -0.1953125000000000000, 0.0820312500000000000, -0.0820312500000000000, 0.1328125000000000000, 0.0898437500000000000, 0.1171875000000000000, 0.0244140625000000000, 0.1406250000000000000, 0.1796875000000000000, 0.1875000000000000000, 0.1250000000000000000, 0.0410156250000000000, -0.2031250000000000000, 0.0566406250000000000, -0.0742187500000000000, -0.0781250000000000000, 0.1562500000000000000, -0.1718750000000000000, 0.1953125000000000000, -0.0302734375000000000, 0.0976562500000000000, -0.0234375000000000000, 0.0703125000000000000, 0.0107421875000000000, -0.0156250000000000000, 0.0002441406250000000, -0.0075683593750000000, 0.1328125000000000000, 0.1484375000000000000, 0.1562500000000000000, 0.1054687500000000000, -0.1210937500000000000, -0.1054687500000000000, -0.1328125000000000000, -0.0546875000000000000, 0.0332031250000000000, -0.1562500000000000000, -0.2265625000000000000, -0.1484375000000000000, -0.0302734375000000000, 0.0025634765625000000, 0.1718750000000000000, -0.2109375000000000000, -0.0263671875000000000, -0.0859375000000000000, 0.0131835937500000000, 0.2343750000000000000, -0.0449218750000000000, -0.1562500000000000000, 0.1796875000000000000, -0.1171875000000000000, -0.2109375000000000000, -0.0003814697265625000, 0.1484375000000000000, -0.1796875000000000000, -0.0244140625000000000, -0.1718750000000000000, 0.0527343750000000000, -0.1562500000000000000, 0.1484375000000000000, -0.1328125000000000000, 0.0703125000000000000, -0.1640625000000000000, -0.1015625000000000000, 0.0585937500000000000, 0.1484375000000000000, 0.0781250000000000000, 0.1328125000000000000, -0.1328125000000000000, 0.1875000000000000000, 0.1093750000000000000, -0.0224609375000000000, -0.1484375000000000000, 0.1640625000000000000, 0.1640625000000000000, -0.2109375000000000000, -0.1562500000000000000, -0.0371093750000000000, 0.0820312500000000000, 0.0156250000000000000, -0.1953125000000000000, -0.1171875000000000000, 0.0781250000000000000, -0.0468750000000000000, 0.2109375000000000000, -0.1796875000000000000, 0.2109375000000000000, -0.1953125000000000000, -0.0742187500000000000, 0.0937500000000000000, -0.0703125000000000000, 0.0742187500000000000, 0.2187500000000000000, 0.1796875000000000000, 0.1250000000000000000, 0.1718750000000000000, 0.0488281250000000000, 0.1875000000000000000, 0.1328125000000000000, 0.0244140625000000000, -0.0302734375000000000, -0.1640625000000000000, -0.1484375000000000000, -0.0112304687500000000, -0.1406250000000000000, 0.0429687500000000000, 0.0332031250000000000, 0.1796875000000000000, 0.0195312500000000000, 0.2109375000000000000, 0.1640625000000000000, 0.0224609375000000000, -0.0664062500000000000, 0.1328125000000000000, -0.1406250000000000000, -0.0527343750000000000, -0.0976562500000000000, -0.1953125000000000000, -0.0273437500000000000, 0.0410156250000000000, 0.0585937500000000000, -0.1953125000000000000, -0.1562500000000000000, 0.1171875000000000000, -0.1562500000000000000, 0.0585937500000000000, 0.1171875000000000000, 0.2109375000000000000, 0.0585937500000000000, 0.1953125000000000000, -0.0468750000000000000, -0.1132812500000000000, 0.2187500000000000000, 0.1250000000000000000, 0.1640625000000000000, -0.0020751953125000000, 0.0410156250000000000, -0.1484375000000000000, 0.1718750000000000000, -0.1875000000000000000, -0.0234375000000000000, 0.0253906250000000000, -0.0703125000000000000, -0.2187500000000000000, 0.0664062500000000000, -0.2187500000000000000, 0.1328125000000000000, -0.0013427734375000000, 0.0703125000000000000, 0.1796875000000000000, 0.1328125000000000000, -0.1640625000000000000, -0.0703125000000000000, 0.1484375000000000000, 0.0625000000000000000, 0.1953125000000000000, 0.0546875000000000000, -0.1328125000000000000, 0.1406250000000000000, 0.1484375000000000000, -0.1406250000000000000, 0.0292968750000000000, -0.1250000000000000000, 0.0156250000000000000, 0.1796875000000000000, -0.0117187500000000000, 0.0585937500000000000, -0.1562500000000000000, 0.1054687500000000000, -0.1796875000000000000, 0.1015625000000000000, 0.0175781250000000000, -0.1250000000000000000, 0.1250000000000000000, -0.2187500000000000000, -0.1328125000000000000, 0.1796875000000000000, -0.0859375000000000000, 0.1015625000000000000, 0.0703125000000000000, -0.0371093750000000000, -0.0253906250000000000, 0.0664062500000000000, 0.1875000000000000000, -0.2031250000000000000, 0.1484375000000000000, 0.1562500000000000000, -0.2187500000000000000, 0.1015625000000000000, 0.0742187500000000000, 0.1640625000000000000, -0.1718750000000000000, -0.2265625000000000000, 0.0332031250000000000, 0.1718750000000000000, -0.1718750000000000000, -0.1132812500000000000, 0.0703125000000000000, -0.0156250000000000000, -0.0058593750000000000, -0.0742187500000000000, 0.0585937500000000000, 0.1875000000000000000, 0.0976562500000000000, -0.1171875000000000000, 0.1093750000000000000, -0.2265625000000000000, -0.1796875000000000000, -0.1640625000000000000, 0.0898437500000000000, -0.1406250000000000000, -0.0468750000000000000, 0.1406250000000000000, -0.1562500000000000000, 0.1406250000000000000, 0.0244140625000000000, 0.0141601562500000000, 0.1406250000000000000, -0.1562500000000000000, 0.0214843750000000000, -0.1796875000000000000, -0.1406250000000000000, 0.0742187500000000000, -0.2656250000000000000, -0.0351562500000000000, 0.1054687500000000000, 0.1015625000000000000, 0.2109375000000000000, -0.1484375000000000000, -0.0976562500000000000, -0.0007629394531250000, -0.1796875000000000000, 0.0244140625000000000, -0.2343750000000000000, -0.0820312500000000000, 0.1484375000000000000, -0.1718750000000000000, -0.0151367187500000000, -0.2421875000000000000, -0.1875000000000000000, -0.0449218750000000000, 0.1054687500000000000, -0.1328125000000000000, 0.0937500000000000000, -0.1132812500000000000, -0.2265625000000000000, 0.1250000000000000000, -0.1093750000000000000, 0.0703125000000000000, -0.0937500000000000000, 0.0859375000000000000, 0.0224609375000000000, 0.1640625000000000000, -0.0527343750000000000, -0.0151367187500000000, 0.1015625000000000000, -0.1484375000000000000, 0.1250000000000000000, 0.1953125000000000000, 0.1054687500000000000, -0.0078125000000000000, 0.0859375000000000000, 0.1250000000000000000, -0.1640625000000000000, -0.1015625000000000000, -0.1484375000000000000, 0.1171875000000000000, 0.1875000000000000000, -0.1171875000000000000, -0.0224609375000000000, -0.0141601562500000000, -0.1406250000000000000, -0.1796875000000000000, 0.0546875000000000000, 0.1093750000000000000, -0.0175781250000000000, -0.1484375000000000000, 0.1250000000000000000, 0.1015625000000000000, 0.1953125000000000000, 0.1718750000000000000, 0.1640625000000000000, -0.0214843750000000000, 0.0898437500000000000, -0.0781250000000000000, -0.0008850097656250000, 0.1132812500000000000, -0.1015625000000000000, -0.1562500000000000000, -0.0507812500000000000, 0.1093750000000000000, -0.0703125000000000000, 0.1875000000000000000, 0.0024414062500000000, -0.1875000000000000000, -0.0820312500000000000, 0.1250000000000000000, 0.1406250000000000000, 0.1875000000000000000, 0.1796875000000000000, 0.0664062500000000000, -0.1328125000000000000, -0.0898437500000000000, 0.0585937500000000000, -0.1718750000000000000, -0.1406250000000000000, 0.0781250000000000000, -0.0214843750000000000, -0.1171875000000000000, 0.1132812500000000000, 0.0976562500000000000, 0.1484375000000000000, -0.0546875000000000000, -0.0048828125000000000, -0.2109375000000000000, -0.1640625000000000000, 0.1718750000000000000, 0.1054687500000000000, -0.1406250000000000000, -0.1054687500000000000, -0.0781250000000000000, 0.0703125000000000000, 0.0898437500000000000, 0.0898437500000000000, -0.2343750000000000000, 0.1796875000000000000, 0.0253906250000000000, -0.0976562500000000000, -0.0781250000000000000, -0.0136718750000000000, 0.1015625000000000000, -0.1718750000000000000, 0.1328125000000000000, 0.1171875000000000000, -0.0820312500000000000, 0.0976562500000000000, 0.2187500000000000000, -0.1093750000000000000, -0.1406250000000000000, 0.1953125000000000000, 0.1406250000000000000, -0.0605468750000000000, -0.1718750000000000000, 0.1875000000000000000, 0.1484375000000000000, 0.0781250000000000000, 0.1640625000000000000, 0.2031250000000000000, 0.1718750000000000000, 0.1093750000000000000, -0.0781250000000000000, 0.0205078125000000000, 0.0146484375000000000, -0.0937500000000000000, 0.0820312500000000000, 0.1015625000000000000, -0.1484375000000000000, -0.0625000000000000000, -0.0075683593750000000, -0.0051269531250000000, -0.0273437500000000000, -0.2031250000000000000, 0.0937500000000000000, 0.1054687500000000000, -0.1562500000000000000, -0.0003204345703125000, 0.0781250000000000000, -0.0175781250000000000, 0.1875000000000000000, 0.0214843750000000000, -0.1953125000000000000, 0.0527343750000000000, 0.0332031250000000000, 0.1953125000000000000, -0.0253906250000000000, 0.1093750000000000000, -0.0302734375000000000, 0.0664062500000000000, 0.1171875000000000000, 0.1796875000000000000, -0.0087890625000000000, 0.1953125000000000000, -0.0566406250000000000, -0.1562500000000000000, -0.1406250000000000000, -0.0781250000000000000, 0.1718750000000000000, 0.0898437500000000000, -0.0546875000000000000, 0.0175781250000000000, -0.1171875000000000000, -0.0898437500000000000, -0.0175781250000000000, -0.1250000000000000000, -0.1796875000000000000, -0.1875000000000000000, -0.2187500000000000000, 0.1562500000000000000, -0.0898437500000000000, 0.0224609375000000000, 0.1093750000000000000, -0.1054687500000000000, -0.0488281250000000000, -0.1484375000000000000, 0.0390625000000000000, -0.1640625000000000000, 0.1484375000000000000, 0.0136718750000000000, -0.0371093750000000000, 0.1562500000000000000, 0.1015625000000000000, 0.1250000000000000000, 0.0488281250000000000, 0.1132812500000000000, -0.0781250000000000000, 0.0664062500000000000, -0.0859375000000000000, -0.0664062500000000000, -0.0566406250000000000, -0.1484375000000000000, -0.0703125000000000000, -0.0664062500000000000, -0.2187500000000000000, -0.1328125000000000000, 0.1796875000000000000, 0.1796875000000000000, 0.1406250000000000000, -0.0566406250000000000, -0.0937500000000000000, -0.0703125000000000000, 0.1953125000000000000, -0.0449218750000000000, -0.2031250000000000000, -0.2109375000000000000, -0.0742187500000000000, 0.1796875000000000000, -0.1171875000000000000, 0.0664062500000000000, 0.2031250000000000000, -0.0185546875000000000, -0.2031250000000000000, 0.1132812500000000000, 0.0273437500000000000, -0.1250000000000000000, 0.0195312500000000000, -0.0488281250000000000, 0.0449218750000000000, -0.1562500000000000000, 0.0166015625000000000, 0.1562500000000000000, -0.1093750000000000000, -0.0937500000000000000, -0.0073242187500000000, -0.0312500000000000000, 0.1640625000000000000, -0.0488281250000000000, 0.1406250000000000000, 0.0205078125000000000, 0.1796875000000000000, -0.0507812500000000000, 0.0859375000000000000, -0.0292968750000000000, 0.1562500000000000000, -0.1171875000000000000, 0.0449218750000000000, -0.0214843750000000000, -0.1250000000000000000, -0.0449218750000000000, -0.1406250000000000000, 0.1953125000000000000, -0.1875000000000000000, 0.0488281250000000000, -0.2187500000000000000, -0.0546875000000000000, 0.0820312500000000000, 0.0742187500000000000, 0.0146484375000000000, -0.0585937500000000000, -0.0410156250000000000, 0.0351562500000000000, 0.1171875000000000000, 0.1718750000000000000, -0.0302734375000000000, 0.1406250000000000000, -0.0976562500000000000, 0.1250000000000000000, -0.2343750000000000000, -0.0820312500000000000, -0.0371093750000000000, -0.2031250000000000000, -0.0898437500000000000, -0.0742187500000000000, -0.1718750000000000000, 0.2031250000000000000, 0.0566406250000000000, -0.0283203125000000000, 0.0292968750000000000, -0.1328125000000000000, -0.1484375000000000000, -0.1796875000000000000, 0.1132812500000000000, 0.0781250000000000000, -0.1054687500000000000, 0.0253906250000000000, 0.1484375000000000000, 0.1796875000000000000, -0.0302734375000000000, -0.1953125000000000000, -0.0302734375000000000, -0.0585937500000000000, 0.0898437500000000000, -0.0820312500000000000, 0.0068359375000000000, 0.0625000000000000000, 0.0546875000000000000, -0.0898437500000000000, 0.1640625000000000000, -0.0151367187500000000, 0.1093750000000000000, 0.0781250000000000000, -0.2265625000000000000, 0.0664062500000000000, -0.1406250000000000000, -0.0390625000000000000, 0.0742187500000000000, 0.1953125000000000000, 0.0566406250000000000, -0.1796875000000000000, -0.1875000000000000000, 0.0146484375000000000, 0.0859375000000000000, -0.1875000000000000000, -0.1406250000000000000, 0.2343750000000000000, 0.0136718750000000000, -0.1054687500000000000, -0.0703125000000000000, -0.0664062500000000000, -0.0488281250000000000, 0.0410156250000000000, 0.1875000000000000000, -0.1406250000000000000, 0.0390625000000000000, 0.1796875000000000000, -0.0332031250000000000, 0.0141601562500000000, 0.1132812500000000000, 0.0898437500000000000, 0.2109375000000000000, 0.0859375000000000000, -0.0126953125000000000, -0.2109375000000000000, 0.1484375000000000000, 0.1171875000000000000, -0.1640625000000000000, 0.0585937500000000000, -0.0166015625000000000, 0.1953125000000000000, 0.0292968750000000000, -0.1171875000000000000, 0.0976562500000000000, 0.0527343750000000000, -0.1562500000000000000, -0.1132812500000000000, 0.0664062500000000000, -0.0263671875000000000, 0.1562500000000000000, -0.0820312500000000000, 0.0507812500000000000, 0.0097656250000000000, -0.0092773437500000000, 0.0156250000000000000, -0.0976562500000000000, 0.0053710937500000000, 0.1328125000000000000, 0.1562500000000000000, 0.0131835937500000000, 0.2265625000000000000, -0.1054687500000000000, 0.2265625000000000000, -0.1796875000000000000, -0.0468750000000000000, 0.1718750000000000000, 0.1406250000000000000, 0.0185546875000000000, -0.0781250000000000000, -0.1015625000000000000, -0.0126953125000000000, 0.1406250000000000000, -0.1718750000000000000, 0.0937500000000000000, 0.1484375000000000000, -0.1406250000000000000, -0.0937500000000000000, -0.0302734375000000000, 0.0488281250000000000, 0.0146484375000000000, -0.1718750000000000000, 0.0468750000000000000, -0.2187500000000000000, 0.1484375000000000000, 0.1484375000000000000, -0.1796875000000000000, 0.1562500000000000000, -0.0507812500000000000, 0.1328125000000000000, 0.0429687500000000000, 0.0976562500000000000, 0.1015625000000000000, -0.2265625000000000000, -0.2343750000000000000, 0.1328125000000000000, 0.1171875000000000000, -0.1328125000000000000, -0.1093750000000000000, 0.1562500000000000000, -0.0017089843750000000, -0.0566406250000000000, -0.0195312500000000000, -0.0002212524414062500, -0.1093750000000000000, 0.1796875000000000000, 0.1484375000000000000, 0.0781250000000000000, -0.0122070312500000000, -0.1718750000000000000, 0.0585937500000000000, 0.0332031250000000000, 0.0937500000000000000, -0.0097656250000000000, -0.0126953125000000000, -0.1250000000000000000, 0.1406250000000000000, 0.0016479492187500000, -0.1796875000000000000, -0.1054687500000000000, 0.1171875000000000000, -0.1953125000000000000, 0.0742187500000000000, 0.0527343750000000000, -0.1093750000000000000, -0.0703125000000000000, 0.1484375000000000000, -0.1328125000000000000, -0.0859375000000000000, -0.2187500000000000000, 0.1640625000000000000, -0.0820312500000000000, -0.2109375000000000000, -0.1093750000000000000, 0.1015625000000000000, -0.1562500000000000000, -0.1210937500000000000, 0.0703125000000000000, 0.1640625000000000000, -0.0566406250000000000, 0.0083007812500000000, 0.1796875000000000000, -0.0175781250000000000, -0.1015625000000000000, 0.0146484375000000000, -0.2031250000000000000, 0.0468750000000000000, -0.1562500000000000000, 0.0039062500000000000, 0.0351562500000000000, 0.0937500000000000000, 0.0859375000000000000, -0.1054687500000000000, 0.1171875000000000000, 0.0585937500000000000, 0.1328125000000000000, 0.1015625000000000000, 0.1015625000000000000, 0.0273437500000000000, 0.1015625000000000000, 0.1953125000000000000, 0.1640625000000000000, 0.1484375000000000000, 0.0585937500000000000, -0.0859375000000000000, -0.1875000000000000000, 0.0205078125000000000, -0.0292968750000000000, -0.1484375000000000000, -0.1718750000000000000, -0.1875000000000000000, 0.1250000000000000000, -0.1093750000000000000, -0.1796875000000000000, 0.1640625000000000000, -0.0087890625000000000, -0.0390625000000000000, 0.0030517578125000000, -0.1484375000000000000, -0.1015625000000000000, 0.0156250000000000000, 0.1406250000000000000, 0.1250000000000000000, 0.0546875000000000000, 0.1015625000000000000, -0.0371093750000000000, -0.2343750000000000000, -0.1093750000000000000, -0.0175781250000000000, 0.0664062500000000000, 0.0976562500000000000, -0.0234375000000000000, -0.2265625000000000000, 0.1796875000000000000, -0.1953125000000000000, 0.0185546875000000000, -0.0507812500000000000, -0.0185546875000000000, -0.0605468750000000000, -0.1796875000000000000, 0.0390625000000000000, -0.2031250000000000000, 0.1796875000000000000, -0.1640625000000000000, -0.1406250000000000000, 0.0263671875000000000, 0.0224609375000000000, -0.1953125000000000000, -0.0070800781250000000, 0.1640625000000000000, 0.0781250000000000000, 0.1718750000000000000, 0.0585937500000000000, 0.0112304687500000000, 0.1250000000000000000, 0.0390625000000000000, 0.1953125000000000000, -0.1406250000000000000, -0.1796875000000000000, -0.0976562500000000000, 0.0585937500000000000, -0.0664062500000000000, -0.0214843750000000000, 0.1484375000000000000, -0.1054687500000000000, -0.2109375000000000000, 0.0224609375000000000, 0.1718750000000000000, -0.0195312500000000000, 0.2031250000000000000, -0.2031250000000000000, 0.1875000000000000000, 0.0234375000000000000, -0.1328125000000000000, -0.0742187500000000000, -0.1718750000000000000, -0.0742187500000000000, 0.0332031250000000000, -0.0087890625000000000, -0.0312500000000000000, -0.0507812500000000000, 0.1171875000000000000, 0.0073242187500000000, 0.1406250000000000000, -0.2031250000000000000, 0.1640625000000000000, 0.0371093750000000000, -0.0003814697265625000, 0.1054687500000000000, 0.0068359375000000000, -0.1562500000000000000, 0.0703125000000000000, -0.1562500000000000000, -0.0092773437500000000, 0.0507812500000000000, 0.0030517578125000000, -0.0859375000000000000, -0.1875000000000000000, 0.0742187500000000000, -0.1250000000000000000, 0.1484375000000000000, -0.0605468750000000000, 0.0006103515625000000, -0.0976562500000000000, 0.1796875000000000000, -0.0107421875000000000, -0.0390625000000000000, -0.0605468750000000000, 0.0122070312500000000, -0.2031250000000000000, -0.1328125000000000000, -0.0292968750000000000, -0.1210937500000000000, 0.0136718750000000000, -0.1718750000000000000, 0.0056152343750000000, 0.0937500000000000000, -0.0625000000000000000, -0.0292968750000000000, -0.1796875000000000000, 0.1171875000000000000, -0.0703125000000000000, 0.0175781250000000000, 0.0131835937500000000, -0.0390625000000000000, -0.1640625000000000000, 0.1562500000000000000, 0.0029296875000000000, -0.0781250000000000000, 0.0585937500000000000, -0.0175781250000000000, 0.0937500000000000000, -0.1015625000000000000, -0.0195312500000000000, 0.1640625000000000000, 0.0585937500000000000, -0.0976562500000000000, -0.1640625000000000000, -0.2109375000000000000, 0.1640625000000000000, 0.0003356933593750000, 0.1796875000000000000, -0.0585937500000000000, 0.0312500000000000000, 0.0273437500000000000, -0.0488281250000000000, 0.0937500000000000000, -0.0253906250000000000, -0.2343750000000000000, 0.0742187500000000000, -0.1328125000000000000, -0.1640625000000000000, 0.0390625000000000000, -0.0605468750000000000, -0.0546875000000000000, -0.2109375000000000000, -0.1250000000000000000, 0.1171875000000000000, -0.1328125000000000000, -0.0429687500000000000, 0.0527343750000000000, -0.0070800781250000000, -0.2187500000000000000, 0.1484375000000000000, -0.0390625000000000000, -0.2265625000000000000, 0.0625000000000000000, -0.0664062500000000000, -0.0078125000000000000, -0.0449218750000000000, 0.0410156250000000000, 0.1875000000000000000, -0.0332031250000000000, 0.0102539062500000000, -0.0026855468750000000, 0.1640625000000000000, 0.0136718750000000000, -0.0468750000000000000, -0.0585937500000000000, 0.2031250000000000000, -0.0410156250000000000, 0.0036621093750000000, 0.1484375000000000000, -0.1406250000000000000, 0.0527343750000000000, 0.0703125000000000000, 0.1640625000000000000, 0.0390625000000000000, 0.1484375000000000000, -0.0820312500000000000, -0.1953125000000000000, 0.1250000000000000000, 0.0937500000000000000, -0.0031738281250000000, -0.1562500000000000000, 0.1953125000000000000, -0.1171875000000000000, 0.0937500000000000000, 0.0332031250000000000, 0.0742187500000000000, 0.1406250000000000000, 0.1562500000000000000, 0.0527343750000000000, -0.0351562500000000000, -0.2187500000000000000, -0.1484375000000000000, -0.1250000000000000000, -0.0859375000000000000, 0.0429687500000000000, -0.0065917968750000000, -0.0585937500000000000, -0.1484375000000000000, -0.1406250000000000000, -0.2265625000000000000, -0.1562500000000000000, -0.1054687500000000000, 0.0664062500000000000, 0.0017700195312500000, -0.0820312500000000000, 0.0112304687500000000, 0.1953125000000000000, -0.0898437500000000000, -0.0166015625000000000, -0.0664062500000000000, -0.1718750000000000000, 0.0000400543212890625, -0.0166015625000000000, 0.1875000000000000000, -0.0976562500000000000, 0.1953125000000000000, 0.1015625000000000000, -0.0175781250000000000, 0.0507812500000000000, 0.0253906250000000000, -0.1132812500000000000, -0.0820312500000000000, -0.2343750000000000000, -0.1132812500000000000, 0.1718750000000000000, 0.0008239746093750000, 0.0976562500000000000, 0.1484375000000000000, -0.1328125000000000000, 0.0092773437500000000, -0.1171875000000000000, -0.0546875000000000000, 0.1484375000000000000, 0.1875000000000000000, -0.0092773437500000000, 0.0429687500000000000, -0.1796875000000000000, 0.1953125000000000000, 0.1640625000000000000, -0.1328125000000000000, 0.0312500000000000000, -0.0742187500000000000, -0.0937500000000000000, 0.0146484375000000000, -0.1718750000000000000, 0.1640625000000000000, -0.1796875000000000000, 0.0703125000000000000, -0.1484375000000000000, 0.0625000000000000000, -0.2031250000000000000, 0.0351562500000000000, 0.0122070312500000000, 0.1132812500000000000, -0.0332031250000000000, -0.1953125000000000000, -0.2187500000000000000, 0.1796875000000000000, 0.1093750000000000000, 0.1328125000000000000, -0.0820312500000000000, 0.2031250000000000000, -0.1015625000000000000, -0.1640625000000000000, 0.0083007812500000000, -0.1054687500000000000, 0.1484375000000000000, 0.1250000000000000000, 0.0195312500000000000, -0.0468750000000000000, -0.0312500000000000000, 0.0102539062500000000, 0.1406250000000000000, 0.2109375000000000000, -0.0185546875000000000, -0.1640625000000000000, -0.1210937500000000000, 0.1718750000000000000, -0.0043945312500000000, -0.1875000000000000000, 0.0937500000000000000, 0.0141601562500000000, -0.1953125000000000000, 0.1640625000000000000, 0.0820312500000000000, 0.0742187500000000000, -0.1875000000000000000, -0.1054687500000000000, 0.0976562500000000000, 0.1796875000000000000, 0.0507812500000000000, -0.0937500000000000000, -0.0429687500000000000, 0.0781250000000000000, 0.0195312500000000000, 0.1015625000000000000, -0.1093750000000000000, -0.1562500000000000000, 0.1093750000000000000, -0.0302734375000000000, -0.0351562500000000000, 0.1328125000000000000, 0.0566406250000000000, 0.0859375000000000000, -0.0283203125000000000, -0.2109375000000000000, -0.0410156250000000000, 0.0742187500000000000, 0.0107421875000000000, 0.0585937500000000000, 0.1484375000000000000, 0.0126953125000000000, -0.0020751953125000000, 0.0429687500000000000, 0.1093750000000000000, -0.0820312500000000000, 0.0185546875000000000, 0.1015625000000000000, -0.1171875000000000000, 0.1406250000000000000, -0.1640625000000000000, 0.1718750000000000000, -0.0253906250000000000, -0.1328125000000000000, -0.0156250000000000000, 0.1406250000000000000, -0.1718750000000000000, 0.1406250000000000000, -0.0898437500000000000, 0.1562500000000000000, 0.1875000000000000000, -0.0195312500000000000, -0.1171875000000000000, -0.0273437500000000000, 0.1250000000000000000, 0.0703125000000000000, 0.0703125000000000000, 0.0664062500000000000, 0.0449218750000000000, 0.1054687500000000000, -0.1953125000000000000, -0.2265625000000000000, 0.0937500000000000000, -0.0390625000000000000}};

#endif
