//Numpy array shape [64, 64]
//Min -0.250000000000
//Max 0.250000000000
//Number of zeros 0

#ifndef W9_H_
#define W9_H_

[[intel::fpga_register]] static constexpr w9_t w9 = {{0.0585937500000000000, 0.2031250000000000000, 0.1015625000000000000, -0.1562500000000000000, 0.2343750000000000000, -0.1328125000000000000, -0.1484375000000000000, -0.1796875000000000000, -0.0034179687500000000, -0.1953125000000000000, 0.2109375000000000000, 0.1718750000000000000, 0.2187500000000000000, -0.1562500000000000000, 0.1796875000000000000, 0.1562500000000000000, -0.1406250000000000000, -0.0546875000000000000, 0.0566406250000000000, 0.1093750000000000000, -0.1328125000000000000, -0.1484375000000000000, -0.1953125000000000000, -0.2421875000000000000, -0.1484375000000000000, -0.0185546875000000000, -0.0332031250000000000, 0.1718750000000000000, -0.1718750000000000000, -0.1875000000000000000, 0.1718750000000000000, 0.0742187500000000000, -0.1875000000000000000, 0.0703125000000000000, 0.0214843750000000000, -0.1796875000000000000, -0.1796875000000000000, 0.2265625000000000000, 0.0292968750000000000, 0.0859375000000000000, 0.0166015625000000000, 0.2265625000000000000, 0.0566406250000000000, 0.0527343750000000000, -0.0976562500000000000, -0.1875000000000000000, -0.1562500000000000000, -0.1562500000000000000, -0.0976562500000000000, -0.1718750000000000000, -0.0976562500000000000, 0.0056152343750000000, 0.1796875000000000000, -0.1640625000000000000, -0.1328125000000000000, 0.0214843750000000000, 0.1250000000000000000, 0.0449218750000000000, -0.1640625000000000000, -0.1562500000000000000, -0.2031250000000000000, -0.1562500000000000000, 0.0312500000000000000, 0.1953125000000000000, 0.0312500000000000000, -0.1093750000000000000, -0.2031250000000000000, 0.2265625000000000000, 0.1328125000000000000, -0.1484375000000000000, 0.1054687500000000000, 0.0073242187500000000, 0.1054687500000000000, 0.0136718750000000000, -0.0410156250000000000, 0.0859375000000000000, 0.0244140625000000000, -0.1171875000000000000, -0.0449218750000000000, 0.1875000000000000000, -0.1328125000000000000, -0.1015625000000000000, 0.1171875000000000000, 0.1093750000000000000, -0.1093750000000000000, 0.0585937500000000000, -0.1875000000000000000, -0.0859375000000000000, 0.0039062500000000000, -0.0263671875000000000, 0.0156250000000000000, 0.0546875000000000000, 0.2343750000000000000, -0.0312500000000000000, -0.2109375000000000000, 0.1484375000000000000, -0.0004577636718750000, 0.0097656250000000000, 0.0546875000000000000, -0.0048828125000000000, 0.2031250000000000000, -0.2187500000000000000, -0.0625000000000000000, -0.0007019042968750000, -0.0742187500000000000, -0.2031250000000000000, 0.0898437500000000000, 0.1171875000000000000, 0.1640625000000000000, -0.2031250000000000000, -0.1875000000000000000, -0.0742187500000000000, -0.0056152343750000000, -0.1562500000000000000, 0.0131835937500000000, 0.2109375000000000000, 0.2031250000000000000, 0.0781250000000000000, 0.0131835937500000000, 0.0429687500000000000, 0.0859375000000000000, -0.1210937500000000000, 0.0898437500000000000, -0.2187500000000000000, -0.1484375000000000000, -0.1484375000000000000, 0.1640625000000000000, 0.1484375000000000000, 0.0410156250000000000, 0.0112304687500000000, -0.0292968750000000000, 0.0585937500000000000, -0.0937500000000000000, -0.2187500000000000000, 0.1640625000000000000, -0.1210937500000000000, 0.0527343750000000000, -0.0507812500000000000, -0.0244140625000000000, -0.0205078125000000000, -0.0131835937500000000, -0.0263671875000000000, -0.2109375000000000000, -0.1093750000000000000, 0.0507812500000000000, 0.0141601562500000000, 0.1406250000000000000, -0.0224609375000000000, 0.1953125000000000000, -0.1406250000000000000, -0.0151367187500000000, -0.1796875000000000000, 0.2187500000000000000, 0.0332031250000000000, 0.0937500000000000000, 0.0507812500000000000, 0.2187500000000000000, -0.1875000000000000000, -0.0507812500000000000, 0.1953125000000000000, -0.1562500000000000000, -0.0742187500000000000, -0.0488281250000000000, -0.0283203125000000000, 0.0859375000000000000, 0.1953125000000000000, -0.1406250000000000000, 0.0146484375000000000, 0.2031250000000000000, 0.2109375000000000000, -0.0332031250000000000, 0.1953125000000000000, -0.0175781250000000000, 0.0146484375000000000, 0.1093750000000000000, 0.0390625000000000000, -0.1640625000000000000, 0.1640625000000000000, 0.0488281250000000000, -0.0703125000000000000, 0.0292968750000000000, 0.0410156250000000000, 0.1953125000000000000, 0.1562500000000000000, 0.0585937500000000000, -0.2109375000000000000, -0.0605468750000000000, 0.0449218750000000000, -0.0566406250000000000, -0.0859375000000000000, -0.1093750000000000000, -0.0937500000000000000, -0.1406250000000000000, -0.1796875000000000000, -0.1171875000000000000, -0.0742187500000000000, -0.0976562500000000000, 0.0585937500000000000, -0.0546875000000000000, 0.0781250000000000000, 0.1718750000000000000, -0.1054687500000000000, -0.0781250000000000000, 0.1640625000000000000, -0.1640625000000000000, -0.0527343750000000000, 0.1054687500000000000, -0.1406250000000000000, -0.1406250000000000000, -0.2187500000000000000, -0.0566406250000000000, 0.1171875000000000000, 0.0937500000000000000, -0.0781250000000000000, -0.0039062500000000000, 0.0566406250000000000, 0.1718750000000000000, 0.1054687500000000000, -0.0410156250000000000, 0.0273437500000000000, 0.1015625000000000000, 0.0029296875000000000, -0.0781250000000000000, 0.0566406250000000000, -0.0151367187500000000, 0.0468750000000000000, 0.0859375000000000000, -0.0585937500000000000, 0.0018310546875000000, 0.1562500000000000000, 0.1054687500000000000, 0.0048828125000000000, -0.0937500000000000000, -0.2031250000000000000, 0.0820312500000000000, 0.2265625000000000000, 0.1562500000000000000, -0.0859375000000000000, 0.1171875000000000000, -0.0976562500000000000, 0.1328125000000000000, 0.0781250000000000000, -0.1093750000000000000, -0.2031250000000000000, -0.1015625000000000000, 0.1796875000000000000, -0.1484375000000000000, -0.0126953125000000000, 0.2343750000000000000, -0.1406250000000000000, 0.0146484375000000000, -0.0937500000000000000, -0.1132812500000000000, -0.0742187500000000000, -0.0898437500000000000, 0.1953125000000000000, 0.0006408691406250000, -0.0605468750000000000, -0.0703125000000000000, -0.1406250000000000000, 0.1406250000000000000, -0.0664062500000000000, -0.2031250000000000000, 0.0898437500000000000, 0.1718750000000000000, -0.0820312500000000000, -0.1718750000000000000, 0.1171875000000000000, 0.0859375000000000000, -0.0449218750000000000, 0.1562500000000000000, 0.1562500000000000000, 0.0263671875000000000, 0.1562500000000000000, -0.1796875000000000000, -0.0585937500000000000, -0.0898437500000000000, 0.1484375000000000000, 0.1718750000000000000, -0.0781250000000000000, 0.0018310546875000000, 0.1328125000000000000, 0.0625000000000000000, -0.1054687500000000000, 0.1093750000000000000, 0.0351562500000000000, 0.1562500000000000000, 0.1484375000000000000, -0.0976562500000000000, -0.0585937500000000000, 0.0214843750000000000, 0.0410156250000000000, 0.0937500000000000000, -0.0742187500000000000, 0.0546875000000000000, 0.0058593750000000000, 0.0390625000000000000, 0.1796875000000000000, -0.0332031250000000000, 0.1328125000000000000, -0.0053710937500000000, -0.0244140625000000000, -0.0058593750000000000, 0.0742187500000000000, -0.2109375000000000000, 0.0078125000000000000, 0.0566406250000000000, 0.0859375000000000000, -0.1328125000000000000, 0.0781250000000000000, -0.0937500000000000000, -0.1953125000000000000, -0.0449218750000000000, 0.0449218750000000000, 0.1171875000000000000, 0.1640625000000000000, 0.0859375000000000000, -0.2031250000000000000, 0.1054687500000000000, -0.1953125000000000000, -0.0898437500000000000, 0.0585937500000000000, -0.2031250000000000000, 0.1171875000000000000, -0.0781250000000000000, -0.0820312500000000000, 0.1718750000000000000, -0.2031250000000000000, -0.0371093750000000000, 0.0703125000000000000, -0.1718750000000000000, -0.1328125000000000000, -0.0859375000000000000, -0.0937500000000000000, -0.1406250000000000000, 0.2109375000000000000, 0.1796875000000000000, -0.0742187500000000000, 0.0742187500000000000, 0.0546875000000000000, 0.1093750000000000000, 0.1093750000000000000, 0.1796875000000000000, -0.0937500000000000000, -0.1132812500000000000, -0.2109375000000000000, 0.0527343750000000000, 0.1250000000000000000, -0.1484375000000000000, 0.1132812500000000000, 0.0156250000000000000, -0.1406250000000000000, -0.0605468750000000000, -0.1015625000000000000, -0.0005798339843750000, 0.0527343750000000000, 0.0976562500000000000, 0.0488281250000000000, -0.0122070312500000000, -0.1562500000000000000, -0.0292968750000000000, -0.0141601562500000000, -0.2109375000000000000, 0.0703125000000000000, 0.1562500000000000000, 0.0507812500000000000, -0.0146484375000000000, -0.2109375000000000000, 0.1796875000000000000, 0.0410156250000000000, 0.1640625000000000000, 0.0175781250000000000, -0.0527343750000000000, 0.0488281250000000000, 0.0488281250000000000, 0.0625000000000000000, -0.1132812500000000000, -0.1328125000000000000, 0.0859375000000000000, 0.0312500000000000000, 0.1054687500000000000, 0.1406250000000000000, -0.1796875000000000000, -0.1953125000000000000, -0.1796875000000000000, -0.0546875000000000000, -0.0703125000000000000, 0.0351562500000000000, -0.0585937500000000000, -0.2031250000000000000, 0.1718750000000000000, 0.0292968750000000000, 0.1718750000000000000, 0.2109375000000000000, 0.0625000000000000000, 0.1250000000000000000, 0.1328125000000000000, -0.1171875000000000000, -0.0126953125000000000, 0.2187500000000000000, 0.0507812500000000000, 0.0937500000000000000, -0.1953125000000000000, -0.1210937500000000000, 0.1328125000000000000, -0.1250000000000000000, 0.1171875000000000000, 0.1406250000000000000, -0.1250000000000000000, 0.0312500000000000000, -0.1210937500000000000, 0.1328125000000000000, 0.1562500000000000000, 0.1250000000000000000, 0.1171875000000000000, 0.2265625000000000000, 0.0585937500000000000, -0.1796875000000000000, -0.0166015625000000000, 0.0898437500000000000, -0.1093750000000000000, -0.0703125000000000000, 0.0117187500000000000, -0.2109375000000000000, -0.1406250000000000000, -0.1210937500000000000, -0.1718750000000000000, 0.1250000000000000000, 0.1796875000000000000, 0.1875000000000000000, -0.0527343750000000000, -0.0488281250000000000, 0.1054687500000000000, 0.1054687500000000000, 0.1328125000000000000, -0.2109375000000000000, 0.2031250000000000000, -0.2109375000000000000, -0.1796875000000000000, 0.1796875000000000000, 0.1953125000000000000, -0.0507812500000000000, -0.1718750000000000000, 0.1640625000000000000, -0.0781250000000000000, -0.0021972656250000000, 0.0527343750000000000, 0.1875000000000000000, 0.0146484375000000000, -0.2187500000000000000, 0.1171875000000000000, -0.1054687500000000000, 0.1015625000000000000, 0.0937500000000000000, -0.2109375000000000000, -0.0937500000000000000, -0.2109375000000000000, -0.0273437500000000000, -0.1406250000000000000, 0.2187500000000000000, 0.1328125000000000000, -0.1796875000000000000, 0.1328125000000000000, -0.2187500000000000000, -0.2265625000000000000, -0.0605468750000000000, -0.2265625000000000000, -0.0781250000000000000, 0.0156250000000000000, -0.1093750000000000000, -0.1562500000000000000, 0.0102539062500000000, -0.1132812500000000000, -0.1406250000000000000, -0.1875000000000000000, 0.1250000000000000000, -0.0332031250000000000, 0.0703125000000000000, 0.1171875000000000000, -0.0976562500000000000, -0.1054687500000000000, 0.0664062500000000000, -0.1796875000000000000, -0.1093750000000000000, -0.0820312500000000000, 0.1953125000000000000, 0.0283203125000000000, -0.1328125000000000000, -0.0351562500000000000, 0.0527343750000000000, -0.1132812500000000000, 0.1250000000000000000, -0.0253906250000000000, 0.0043945312500000000, 0.0546875000000000000, 0.1562500000000000000, 0.0937500000000000000, 0.2031250000000000000, -0.0898437500000000000, -0.0371093750000000000, 0.1093750000000000000, 0.1640625000000000000, 0.1796875000000000000, 0.0976562500000000000, 0.1484375000000000000, 0.0820312500000000000, -0.0061035156250000000, 0.1718750000000000000, -0.0351562500000000000, -0.1718750000000000000, -0.1484375000000000000, -0.1406250000000000000, -0.0032958984375000000, -0.2109375000000000000, 0.1953125000000000000, -0.0527343750000000000, -0.0664062500000000000, -0.1640625000000000000, 0.0527343750000000000, 0.1171875000000000000, 0.0527343750000000000, 0.1171875000000000000, 0.2343750000000000000, 0.1796875000000000000, 0.1406250000000000000, -0.1562500000000000000, 0.0625000000000000000, 0.1328125000000000000, -0.2187500000000000000, 0.2031250000000000000, -0.0048828125000000000, 0.0073242187500000000, 0.0283203125000000000, -0.1640625000000000000, -0.0664062500000000000, -0.1328125000000000000, -0.0937500000000000000, -0.1250000000000000000, -0.2109375000000000000, -0.1953125000000000000, 0.0107421875000000000, 0.0703125000000000000, 0.0820312500000000000, 0.1562500000000000000, 0.1328125000000000000, -0.2031250000000000000, -0.1953125000000000000, -0.0585937500000000000, -0.1406250000000000000, -0.0585937500000000000, -0.0390625000000000000, 0.0976562500000000000, -0.1250000000000000000, 0.0859375000000000000, 0.1093750000000000000, 0.0625000000000000000, 0.0703125000000000000, -0.1015625000000000000, 0.1484375000000000000, 0.1328125000000000000, 0.1718750000000000000, -0.2031250000000000000, 0.0410156250000000000, -0.0126953125000000000, 0.1875000000000000000, -0.2187500000000000000, 0.1250000000000000000, -0.1210937500000000000, 0.1328125000000000000, 0.1953125000000000000, -0.0898437500000000000, -0.0390625000000000000, -0.1953125000000000000, 0.1953125000000000000, 0.1718750000000000000, 0.1406250000000000000, 0.0898437500000000000, 0.1640625000000000000, 0.0273437500000000000, 0.0371093750000000000, 0.0859375000000000000, -0.1171875000000000000, -0.0273437500000000000, 0.0097656250000000000, -0.2265625000000000000, -0.0664062500000000000, 0.0292968750000000000, 0.0107421875000000000, -0.2265625000000000000, -0.0898437500000000000, 0.1562500000000000000, -0.0527343750000000000, -0.0781250000000000000, 0.1328125000000000000, -0.2500000000000000000, -0.1054687500000000000, 0.2343750000000000000, 0.1171875000000000000, 0.1250000000000000000, -0.1210937500000000000, -0.0742187500000000000, -0.1328125000000000000, -0.0332031250000000000, -0.1953125000000000000, -0.1796875000000000000, -0.1015625000000000000, -0.0703125000000000000, 0.0449218750000000000, 0.0073242187500000000, -0.2187500000000000000, 0.1640625000000000000, 0.1093750000000000000, 0.1796875000000000000, 0.1640625000000000000, -0.1171875000000000000, -0.1796875000000000000, 0.1640625000000000000, 0.0273437500000000000, 0.0036621093750000000, 0.1640625000000000000, -0.1718750000000000000, 0.0937500000000000000, 0.2031250000000000000, 0.0585937500000000000, 0.1406250000000000000, -0.1953125000000000000, 0.1250000000000000000, -0.0175781250000000000, -0.1406250000000000000, -0.1328125000000000000, 0.1562500000000000000, -0.0566406250000000000, 0.0032958984375000000, -0.1484375000000000000, -0.1250000000000000000, 0.1718750000000000000, 0.0937500000000000000, 0.1054687500000000000, -0.1093750000000000000, 0.1250000000000000000, 0.1875000000000000000, -0.1210937500000000000, -0.2187500000000000000, 0.0937500000000000000, -0.0742187500000000000, -0.0703125000000000000, -0.0048828125000000000, 0.0175781250000000000, -0.1210937500000000000, -0.1171875000000000000, -0.2109375000000000000, 0.1953125000000000000, 0.0263671875000000000, 0.0429687500000000000, 0.0781250000000000000, 0.1718750000000000000, -0.1328125000000000000, -0.0585937500000000000, -0.1718750000000000000, -0.0058593750000000000, 0.1406250000000000000, 0.0410156250000000000, 0.1953125000000000000, -0.0859375000000000000, 0.1640625000000000000, 0.0703125000000000000, 0.0937500000000000000, -0.0664062500000000000, 0.0976562500000000000, -0.0742187500000000000, -0.1953125000000000000, 0.0141601562500000000, 0.1640625000000000000, -0.0263671875000000000, 0.1015625000000000000, -0.0292968750000000000, 0.0046386718750000000, -0.1953125000000000000, 0.0625000000000000000, 0.0976562500000000000, 0.0820312500000000000, -0.1406250000000000000, 0.0937500000000000000, -0.1718750000000000000, -0.2187500000000000000, -0.0351562500000000000, -0.0371093750000000000, -0.1054687500000000000, 0.2031250000000000000, -0.0449218750000000000, -0.2031250000000000000, 0.0976562500000000000, 0.1953125000000000000, 0.1718750000000000000, -0.0859375000000000000, 0.0664062500000000000, 0.1406250000000000000, -0.1015625000000000000, 0.0273437500000000000, -0.2187500000000000000, -0.1718750000000000000, 0.1718750000000000000, 0.1640625000000000000, 0.0107421875000000000, 0.0292968750000000000, 0.2187500000000000000, -0.0371093750000000000, 0.0468750000000000000, 0.2187500000000000000, 0.0820312500000000000, -0.0781250000000000000, -0.1171875000000000000, -0.1406250000000000000, -0.0214843750000000000, 0.0429687500000000000, -0.1562500000000000000, 0.1250000000000000000, -0.1562500000000000000, -0.1054687500000000000, 0.0859375000000000000, -0.0703125000000000000, 0.0781250000000000000, 0.0664062500000000000, 0.1328125000000000000, 0.1796875000000000000, -0.0859375000000000000, 0.0781250000000000000, 0.1562500000000000000, 0.0449218750000000000, -0.0664062500000000000, 0.2031250000000000000, 0.1171875000000000000, -0.0820312500000000000, -0.1054687500000000000, -0.1132812500000000000, 0.0351562500000000000, 0.2031250000000000000, 0.1250000000000000000, 0.1054687500000000000, 0.0253906250000000000, 0.1562500000000000000, 0.0664062500000000000, 0.1796875000000000000, 0.1796875000000000000, 0.1953125000000000000, 0.2187500000000000000, -0.2031250000000000000, -0.2031250000000000000, 0.0566406250000000000, -0.1796875000000000000, -0.0703125000000000000, -0.1562500000000000000, -0.1054687500000000000, 0.1562500000000000000, -0.0028076171875000000, 0.1484375000000000000, -0.1562500000000000000, -0.2109375000000000000, 0.0527343750000000000, -0.0146484375000000000, -0.0976562500000000000, -0.1093750000000000000, -0.1953125000000000000, -0.1796875000000000000, -0.0351562500000000000, 0.0185546875000000000, 0.0083007812500000000, 0.0781250000000000000, -0.1093750000000000000, -0.1718750000000000000, -0.1796875000000000000, 0.1875000000000000000, 0.0141601562500000000, 0.1015625000000000000, 0.1015625000000000000, 0.1640625000000000000, -0.1484375000000000000, 0.2109375000000000000, 0.1484375000000000000, 0.2031250000000000000, 0.2187500000000000000, -0.2031250000000000000, 0.0859375000000000000, -0.0898437500000000000, -0.0263671875000000000, -0.1875000000000000000, 0.2500000000000000000, -0.1484375000000000000, 0.0429687500000000000, 0.0004425048828125000, -0.0449218750000000000, -0.1406250000000000000, -0.0468750000000000000, -0.0083007812500000000, 0.0625000000000000000, -0.0302734375000000000, 0.2265625000000000000, 0.2343750000000000000, 0.1718750000000000000, 0.2109375000000000000, -0.0214843750000000000, -0.1054687500000000000, -0.0292968750000000000, 0.2187500000000000000, -0.0937500000000000000, -0.0030517578125000000, 0.0449218750000000000, -0.1562500000000000000, -0.1796875000000000000, -0.0976562500000000000, -0.1328125000000000000, -0.1875000000000000000, 0.1132812500000000000, -0.2265625000000000000, 0.0273437500000000000, 0.1328125000000000000, -0.0703125000000000000, 0.1640625000000000000, 0.1640625000000000000, -0.0136718750000000000, 0.0703125000000000000, -0.0742187500000000000, 0.1796875000000000000, -0.1132812500000000000, 0.0429687500000000000, 0.0026855468750000000, 0.0664062500000000000, -0.1875000000000000000, -0.2187500000000000000, 0.0546875000000000000, 0.0898437500000000000, 0.1640625000000000000, 0.0585937500000000000, -0.1562500000000000000, -0.1210937500000000000, 0.0527343750000000000, 0.0859375000000000000, -0.0107421875000000000, 0.1875000000000000000, 0.0898437500000000000, -0.0703125000000000000, -0.0005493164062500000, -0.1132812500000000000, 0.1796875000000000000, 0.0016479492187500000, -0.1484375000000000000, -0.0273437500000000000, -0.0546875000000000000, -0.1640625000000000000, -0.1796875000000000000, -0.1562500000000000000, 0.1875000000000000000, 0.1406250000000000000, -0.0092773437500000000, 0.0703125000000000000, 0.1796875000000000000, -0.2187500000000000000, -0.1406250000000000000, 0.0035400390625000000, -0.1171875000000000000, 0.1562500000000000000, 0.0703125000000000000, -0.0937500000000000000, 0.0703125000000000000, 0.1562500000000000000, -0.2031250000000000000, 0.1171875000000000000, 0.0351562500000000000, 0.0131835937500000000, -0.0175781250000000000, -0.0302734375000000000, -0.1484375000000000000, 0.1406250000000000000, -0.0371093750000000000, 0.1250000000000000000, 0.1328125000000000000, 0.1250000000000000000, -0.0742187500000000000, 0.1718750000000000000, 0.1875000000000000000, 0.0859375000000000000, -0.1953125000000000000, -0.2031250000000000000, -0.2343750000000000000, -0.2109375000000000000, -0.1875000000000000000, -0.1718750000000000000, -0.0166015625000000000, 0.0585937500000000000, 0.0566406250000000000, 0.0937500000000000000, -0.1015625000000000000, 0.1640625000000000000, 0.1171875000000000000, -0.0449218750000000000, 0.0292968750000000000, 0.0234375000000000000, -0.0507812500000000000, -0.1484375000000000000, 0.1875000000000000000, -0.1054687500000000000, -0.0703125000000000000, 0.0976562500000000000, -0.0253906250000000000, 0.1093750000000000000, 0.0859375000000000000, 0.0070800781250000000, -0.0976562500000000000, -0.1093750000000000000, -0.0546875000000000000, 0.0859375000000000000, -0.1015625000000000000, -0.1328125000000000000, 0.1953125000000000000, -0.0070800781250000000, 0.1250000000000000000, 0.1171875000000000000, 0.0859375000000000000, 0.1640625000000000000, -0.0781250000000000000, -0.0566406250000000000, -0.1875000000000000000, 0.0156250000000000000, -0.1953125000000000000, -0.1015625000000000000, -0.2109375000000000000, -0.1718750000000000000, -0.1015625000000000000, -0.1562500000000000000, 0.1640625000000000000, 0.1015625000000000000, -0.0976562500000000000, 0.1718750000000000000, 0.1406250000000000000, -0.0410156250000000000, 0.1796875000000000000, -0.1796875000000000000, -0.1328125000000000000, 0.2343750000000000000, 0.0976562500000000000, 0.1484375000000000000, -0.1562500000000000000, 0.0092773437500000000, 0.1796875000000000000, -0.1328125000000000000, 0.1484375000000000000, -0.1250000000000000000, -0.1210937500000000000, -0.0781250000000000000, 0.1562500000000000000, 0.1875000000000000000, -0.1054687500000000000, 0.2109375000000000000, -0.1328125000000000000, 0.0527343750000000000, 0.1796875000000000000, 0.1484375000000000000, 0.0185546875000000000, -0.0859375000000000000, -0.2109375000000000000, -0.0001373291015625000, -0.0429687500000000000, -0.0703125000000000000, 0.0107421875000000000, 0.0488281250000000000, -0.0070800781250000000, -0.1796875000000000000, 0.1953125000000000000, 0.0034179687500000000, 0.1054687500000000000, 0.2500000000000000000, -0.0625000000000000000, 0.1640625000000000000, -0.0468750000000000000, -0.0008544921875000000, 0.1250000000000000000, -0.1875000000000000000, -0.1171875000000000000, 0.2109375000000000000, -0.2187500000000000000, 0.0703125000000000000, -0.1640625000000000000, 0.0410156250000000000, 0.1328125000000000000, -0.1406250000000000000, -0.1484375000000000000, 0.1640625000000000000, -0.0092773437500000000, -0.1875000000000000000, 0.0781250000000000000, -0.2109375000000000000, -0.1484375000000000000, -0.1875000000000000000, 0.0234375000000000000, -0.1953125000000000000, -0.1015625000000000000, 0.0036621093750000000, -0.0664062500000000000, 0.2265625000000000000, 0.1562500000000000000, -0.0898437500000000000, -0.1406250000000000000, 0.0664062500000000000, -0.1718750000000000000, -0.0781250000000000000, -0.1093750000000000000, 0.0410156250000000000, -0.1562500000000000000, 0.0937500000000000000, 0.0820312500000000000, -0.1718750000000000000, 0.0449218750000000000, -0.0166015625000000000, 0.0527343750000000000, -0.0664062500000000000, -0.1406250000000000000, -0.1328125000000000000, 0.1796875000000000000, -0.1406250000000000000, -0.0351562500000000000, 0.2031250000000000000, 0.1718750000000000000, 0.1953125000000000000, -0.1953125000000000000, -0.1562500000000000000, 0.0263671875000000000, -0.1328125000000000000, 0.2031250000000000000, 0.1796875000000000000, 0.1796875000000000000, -0.0976562500000000000, -0.0507812500000000000, -0.1796875000000000000, 0.0859375000000000000, -0.2187500000000000000, -0.1562500000000000000, 0.1171875000000000000, 0.1562500000000000000, -0.0063476562500000000, 0.0351562500000000000, -0.0234375000000000000, 0.0097656250000000000, 0.1015625000000000000, -0.0390625000000000000, 0.1250000000000000000, 0.1953125000000000000, -0.1328125000000000000, -0.0664062500000000000, -0.0781250000000000000, -0.1054687500000000000, 0.0898437500000000000, -0.2109375000000000000, -0.1562500000000000000, -0.1718750000000000000, -0.0468750000000000000, -0.0332031250000000000, -0.1015625000000000000, -0.1484375000000000000, 0.0781250000000000000, -0.1171875000000000000, -0.0312500000000000000, 0.0175781250000000000, 0.0410156250000000000, 0.0625000000000000000, 0.0102539062500000000, 0.0703125000000000000, 0.1015625000000000000, 0.1406250000000000000, -0.0371093750000000000, -0.1718750000000000000, 0.0332031250000000000, -0.0166015625000000000, 0.0898437500000000000, 0.1406250000000000000, -0.1562500000000000000, -0.2031250000000000000, -0.1484375000000000000, -0.1875000000000000000, 0.0429687500000000000, 0.0781250000000000000, 0.0898437500000000000, 0.1250000000000000000, -0.1796875000000000000, -0.1875000000000000000, 0.0898437500000000000, 0.1796875000000000000, -0.1171875000000000000, -0.1718750000000000000, -0.0390625000000000000, 0.0205078125000000000, 0.0859375000000000000, 0.2343750000000000000, 0.0097656250000000000, -0.0898437500000000000, -0.1054687500000000000, -0.1640625000000000000, 0.2031250000000000000, -0.0032958984375000000, -0.1875000000000000000, -0.1796875000000000000, 0.0527343750000000000, -0.1796875000000000000, -0.0937500000000000000, 0.1484375000000000000, 0.2109375000000000000, -0.1875000000000000000, -0.0332031250000000000, -0.0625000000000000000, -0.0122070312500000000, -0.1718750000000000000, 0.0214843750000000000, -0.1328125000000000000, -0.2031250000000000000, 0.2031250000000000000, -0.1953125000000000000, 0.1054687500000000000, 0.1875000000000000000, -0.0166015625000000000, 0.1640625000000000000, 0.1796875000000000000, -0.1562500000000000000, 0.0859375000000000000, 0.0625000000000000000, -0.0664062500000000000, 0.0820312500000000000, 0.0039062500000000000, -0.1640625000000000000, -0.2031250000000000000, -0.1132812500000000000, -0.1250000000000000000, 0.1328125000000000000, 0.1875000000000000000, -0.1054687500000000000, 0.0664062500000000000, 0.1328125000000000000, -0.1953125000000000000, 0.0937500000000000000, -0.1328125000000000000, 0.1484375000000000000, 0.1640625000000000000, 0.1562500000000000000, 0.0585937500000000000, -0.1406250000000000000, -0.1484375000000000000, 0.1718750000000000000, 0.1093750000000000000, -0.0507812500000000000, 0.1250000000000000000, 0.0859375000000000000, 0.0898437500000000000, -0.1484375000000000000, -0.2187500000000000000, 0.0332031250000000000, -0.1875000000000000000, 0.0012817382812500000, -0.0781250000000000000, -0.0781250000000000000, 0.0185546875000000000, 0.0507812500000000000, -0.1015625000000000000, 0.0449218750000000000, -0.1484375000000000000, -0.1796875000000000000, 0.1328125000000000000, 0.0585937500000000000, -0.1484375000000000000, 0.1406250000000000000, -0.0205078125000000000, 0.1484375000000000000, 0.1875000000000000000, 0.0820312500000000000, 0.0013427734375000000, -0.0585937500000000000, 0.0664062500000000000, 0.1875000000000000000, 0.0015869140625000000, 0.1718750000000000000, 0.0312500000000000000, -0.0253906250000000000, 0.2031250000000000000, 0.0781250000000000000, 0.1406250000000000000, 0.0664062500000000000, -0.1484375000000000000, -0.1015625000000000000, -0.2031250000000000000, 0.0742187500000000000, -0.0070800781250000000, -0.0131835937500000000, -0.1210937500000000000, -0.1953125000000000000, -0.0263671875000000000, 0.1875000000000000000, 0.1406250000000000000, 0.1015625000000000000, 0.0507812500000000000, -0.1640625000000000000, -0.0429687500000000000, 0.1718750000000000000, 0.0312500000000000000, 0.1328125000000000000, -0.1328125000000000000, -0.0166015625000000000, 0.0166015625000000000, 0.0449218750000000000, -0.0073242187500000000, 0.1796875000000000000, -0.0820312500000000000, -0.1875000000000000000, -0.0302734375000000000, -0.0664062500000000000, 0.0898437500000000000, -0.2031250000000000000, 0.0742187500000000000, 0.0703125000000000000, 0.1250000000000000000, 0.0820312500000000000, -0.2343750000000000000, -0.0195312500000000000, 0.1796875000000000000, -0.1953125000000000000, -0.0742187500000000000, -0.0087890625000000000, -0.0126953125000000000, 0.1484375000000000000, -0.0781250000000000000, 0.0468750000000000000, -0.1562500000000000000, 0.0859375000000000000, 0.1132812500000000000, 0.1328125000000000000, -0.1875000000000000000, 0.0092773437500000000, -0.0585937500000000000, -0.1054687500000000000, 0.0410156250000000000, -0.1210937500000000000, -0.0488281250000000000, 0.1406250000000000000, 0.1640625000000000000, 0.1640625000000000000, 0.1250000000000000000, 0.0976562500000000000, -0.2109375000000000000, 0.1250000000000000000, 0.1484375000000000000, -0.1406250000000000000, -0.2109375000000000000, -0.0371093750000000000, 0.2031250000000000000, -0.1132812500000000000, 0.0351562500000000000, 0.1562500000000000000, 0.0937500000000000000, 0.0566406250000000000, 0.1328125000000000000, 0.1640625000000000000, -0.0253906250000000000, 0.2187500000000000000, 0.1171875000000000000, 0.0117187500000000000, -0.1953125000000000000, 0.0859375000000000000, -0.0083007812500000000, -0.1875000000000000000, -0.1718750000000000000, 0.0820312500000000000, 0.0703125000000000000, 0.1250000000000000000, 0.1953125000000000000, -0.0664062500000000000, -0.1093750000000000000, -0.0051269531250000000, -0.1328125000000000000, 0.1796875000000000000, 0.1562500000000000000, 0.1640625000000000000, 0.1171875000000000000, -0.0937500000000000000, -0.0141601562500000000, 0.0820312500000000000, -0.1875000000000000000, -0.0781250000000000000, -0.2343750000000000000, -0.1718750000000000000, 0.1093750000000000000, 0.0175781250000000000, 0.1250000000000000000, 0.1054687500000000000, 0.1796875000000000000, -0.1796875000000000000, 0.1328125000000000000, -0.1875000000000000000, 0.0585937500000000000, -0.1171875000000000000, -0.0742187500000000000, 0.1562500000000000000, -0.2031250000000000000, -0.1250000000000000000, -0.0312500000000000000, -0.1484375000000000000, -0.0117187500000000000, 0.0488281250000000000, 0.0009155273437500000, -0.1953125000000000000, -0.0371093750000000000, -0.0664062500000000000, -0.1796875000000000000, -0.1640625000000000000, 0.1250000000000000000, 0.1953125000000000000, 0.1484375000000000000, 0.2109375000000000000, -0.0859375000000000000, -0.1718750000000000000, -0.0371093750000000000, -0.1953125000000000000, -0.1796875000000000000, -0.2031250000000000000, 0.1640625000000000000, 0.0449218750000000000, -0.2031250000000000000, -0.1328125000000000000, -0.0937500000000000000, -0.1875000000000000000, 0.0976562500000000000, 0.1875000000000000000, 0.1406250000000000000, -0.1210937500000000000, -0.1718750000000000000, 0.1953125000000000000, -0.1796875000000000000, -0.0017089843750000000, -0.0703125000000000000, -0.1953125000000000000, -0.0742187500000000000, 0.1562500000000000000, 0.2031250000000000000, -0.1875000000000000000, -0.1562500000000000000, 0.0781250000000000000, 0.1093750000000000000, 0.0585937500000000000, -0.0859375000000000000, -0.1875000000000000000, 0.0507812500000000000, -0.0507812500000000000, 0.1406250000000000000, -0.1484375000000000000, 0.0585937500000000000, 0.1250000000000000000, 0.1328125000000000000, -0.0664062500000000000, 0.0625000000000000000, 0.0937500000000000000, -0.0898437500000000000, 0.0292968750000000000, 0.1796875000000000000, 0.0175781250000000000, -0.0742187500000000000, -0.2109375000000000000, -0.2187500000000000000, 0.0449218750000000000, 0.0625000000000000000, 0.0292968750000000000, 0.0205078125000000000, -0.1250000000000000000, -0.2109375000000000000, 0.0468750000000000000, 0.1328125000000000000, 0.0625000000000000000, -0.0010986328125000000, 0.1953125000000000000, 0.1132812500000000000, -0.0371093750000000000, 0.0898437500000000000, 0.1718750000000000000, 0.1328125000000000000, 0.2031250000000000000, -0.2187500000000000000, 0.0224609375000000000, -0.0859375000000000000, 0.0214843750000000000, -0.1406250000000000000, 0.0166015625000000000, 0.0566406250000000000, -0.0781250000000000000, -0.0625000000000000000, 0.0141601562500000000, 0.0566406250000000000, 0.2031250000000000000, -0.0488281250000000000, 0.1171875000000000000, 0.0010375976562500000, -0.1796875000000000000, 0.1406250000000000000, 0.1328125000000000000, -0.0566406250000000000, 0.0371093750000000000, -0.0820312500000000000, -0.1718750000000000000, -0.0107421875000000000, 0.0820312500000000000, 0.0141601562500000000, -0.0976562500000000000, -0.0625000000000000000, 0.0585937500000000000, 0.0429687500000000000, 0.0585937500000000000, -0.1796875000000000000, 0.0429687500000000000, 0.1718750000000000000, -0.1640625000000000000, -0.1054687500000000000, 0.0244140625000000000, -0.1406250000000000000, -0.1054687500000000000, 0.0664062500000000000, -0.0273437500000000000, 0.0703125000000000000, -0.0937500000000000000, -0.0117187500000000000, -0.1015625000000000000, 0.1562500000000000000, 0.0312500000000000000, 0.1484375000000000000, -0.0058593750000000000, -0.2187500000000000000, 0.2265625000000000000, 0.0898437500000000000, 0.0820312500000000000, -0.0820312500000000000, -0.0566406250000000000, -0.1328125000000000000, -0.1562500000000000000, -0.0224609375000000000, 0.1406250000000000000, 0.1953125000000000000, 0.1250000000000000000, 0.1328125000000000000, 0.1250000000000000000, -0.0507812500000000000, 0.2187500000000000000, 0.1054687500000000000, 0.1640625000000000000, 0.0488281250000000000, -0.0371093750000000000, -0.0703125000000000000, 0.0527343750000000000, 0.1562500000000000000, -0.0703125000000000000, 0.0585937500000000000, -0.0131835937500000000, 0.1562500000000000000, -0.0976562500000000000, -0.1640625000000000000, 0.0224609375000000000, 0.1132812500000000000, 0.1875000000000000000, 0.1132812500000000000, -0.1953125000000000000, 0.1484375000000000000, -0.1093750000000000000, 0.0781250000000000000, 0.1562500000000000000, -0.0166015625000000000, -0.1796875000000000000, 0.1875000000000000000, -0.1718750000000000000, 0.2109375000000000000, -0.1171875000000000000, 0.0781250000000000000, 0.0410156250000000000, 0.2109375000000000000, 0.0625000000000000000, -0.0156250000000000000, 0.2031250000000000000, 0.0566406250000000000, 0.0859375000000000000, 0.1015625000000000000, 0.1250000000000000000, 0.0585937500000000000, 0.2031250000000000000, 0.1250000000000000000, -0.0224609375000000000, -0.1796875000000000000, 0.2265625000000000000, -0.0898437500000000000, 0.0937500000000000000, 0.0488281250000000000, 0.0253906250000000000, -0.1132812500000000000, -0.0546875000000000000, 0.2031250000000000000, 0.1171875000000000000, 0.0126953125000000000, -0.0390625000000000000, -0.1406250000000000000, 0.0312500000000000000, -0.2109375000000000000, -0.1484375000000000000, 0.2500000000000000000, 0.0244140625000000000, 0.0625000000000000000, -0.1640625000000000000, 0.0859375000000000000, -0.2187500000000000000, -0.1328125000000000000, 0.1054687500000000000, -0.1328125000000000000, 0.2343750000000000000, 0.1250000000000000000, -0.0937500000000000000, -0.0625000000000000000, -0.0166015625000000000, -0.0041503906250000000, 0.2109375000000000000, -0.0156250000000000000, 0.0937500000000000000, 0.1953125000000000000, 0.0371093750000000000, 0.0468750000000000000, 0.0820312500000000000, 0.1054687500000000000, 0.0488281250000000000, 0.0703125000000000000, -0.0703125000000000000, -0.1640625000000000000, -0.1562500000000000000, -0.0859375000000000000, 0.1250000000000000000, 0.0117187500000000000, -0.1562500000000000000, 0.1640625000000000000, 0.0703125000000000000, -0.0292968750000000000, -0.1640625000000000000, -0.1718750000000000000, 0.0625000000000000000, 0.0030517578125000000, -0.0898437500000000000, -0.1406250000000000000, -0.0527343750000000000, 0.1640625000000000000, -0.0283203125000000000, 0.1953125000000000000, -0.1015625000000000000, 0.0937500000000000000, 0.1562500000000000000, 0.1328125000000000000, 0.0625000000000000000, -0.1875000000000000000, -0.1640625000000000000, 0.0488281250000000000, -0.2109375000000000000, -0.0859375000000000000, -0.1484375000000000000, -0.0742187500000000000, -0.0068359375000000000, 0.1562500000000000000, 0.0976562500000000000, -0.1132812500000000000, -0.0605468750000000000, 0.0410156250000000000, 0.1718750000000000000, -0.0053710937500000000, -0.0781250000000000000, -0.0156250000000000000, -0.1875000000000000000, 0.1406250000000000000, 0.2031250000000000000, -0.0166015625000000000, -0.0244140625000000000, -0.1054687500000000000, -0.0781250000000000000, 0.1640625000000000000, -0.0605468750000000000, 0.1953125000000000000, -0.2109375000000000000, 0.0312500000000000000, 0.1054687500000000000, -0.1953125000000000000, 0.1015625000000000000, 0.2031250000000000000, 0.1328125000000000000, 0.0390625000000000000, -0.0273437500000000000, 0.1406250000000000000, -0.1796875000000000000, -0.0234375000000000000, 0.1328125000000000000, 0.0703125000000000000, -0.1875000000000000000, 0.0937500000000000000, 0.1640625000000000000, -0.0070800781250000000, 0.2109375000000000000, -0.0410156250000000000, -0.0781250000000000000, 0.0449218750000000000, -0.0390625000000000000, -0.0224609375000000000, -0.1406250000000000000, 0.1406250000000000000, 0.1875000000000000000, 0.1718750000000000000, 0.1250000000000000000, 0.1250000000000000000, 0.0546875000000000000, -0.0625000000000000000, -0.1484375000000000000, 0.1132812500000000000, -0.2109375000000000000, -0.1640625000000000000, -0.0449218750000000000, 0.1796875000000000000, 0.1484375000000000000, 0.0898437500000000000, 0.1171875000000000000, 0.0859375000000000000, -0.1640625000000000000, -0.1171875000000000000, -0.0820312500000000000, -0.0036621093750000000, 0.0078125000000000000, 0.0449218750000000000, -0.1210937500000000000, -0.1015625000000000000, -0.0390625000000000000, -0.1484375000000000000, -0.0664062500000000000, 0.0937500000000000000, -0.0449218750000000000, -0.0035400390625000000, -0.1640625000000000000, 0.0351562500000000000, 0.0781250000000000000, -0.2109375000000000000, 0.0449218750000000000, -0.0781250000000000000, -0.0527343750000000000, -0.2109375000000000000, -0.0546875000000000000, -0.1640625000000000000, -0.1015625000000000000, -0.1796875000000000000, -0.0449218750000000000, -0.1718750000000000000, 0.0351562500000000000, 0.1171875000000000000, 0.1796875000000000000, 0.0898437500000000000, 0.1406250000000000000, 0.0781250000000000000, -0.2187500000000000000, -0.1406250000000000000, -0.1250000000000000000, 0.2031250000000000000, 0.0185546875000000000, -0.0566406250000000000, -0.1250000000000000000, -0.0273437500000000000, -0.0566406250000000000, 0.1640625000000000000, -0.1718750000000000000, 0.0742187500000000000, 0.0166015625000000000, -0.0859375000000000000, 0.1250000000000000000, 0.0781250000000000000, 0.1875000000000000000, 0.1640625000000000000, 0.0156250000000000000, -0.1875000000000000000, 0.1406250000000000000, 0.1406250000000000000, 0.1171875000000000000, -0.0937500000000000000, 0.1406250000000000000, -0.0976562500000000000, 0.0546875000000000000, 0.1484375000000000000, 0.1250000000000000000, 0.1640625000000000000, 0.1250000000000000000, -0.1328125000000000000, -0.1953125000000000000, -0.0302734375000000000, 0.1171875000000000000, 0.1406250000000000000, -0.2031250000000000000, 0.0234375000000000000, 0.0527343750000000000, -0.1093750000000000000, 0.1406250000000000000, 0.1484375000000000000, 0.0898437500000000000, 0.0068359375000000000, -0.2031250000000000000, -0.1796875000000000000, 0.0312500000000000000, 0.0410156250000000000, 0.0390625000000000000, -0.1328125000000000000, 0.0976562500000000000, -0.0410156250000000000, -0.1718750000000000000, 0.1484375000000000000, 0.0292968750000000000, -0.0664062500000000000, -0.1250000000000000000, 0.0625000000000000000, 0.1250000000000000000, -0.0312500000000000000, -0.1093750000000000000, -0.0976562500000000000, -0.0332031250000000000, 0.0742187500000000000, 0.0283203125000000000, -0.0214843750000000000, -0.0937500000000000000, -0.0263671875000000000, -0.2187500000000000000, 0.2109375000000000000, -0.1093750000000000000, 0.0488281250000000000, 0.1796875000000000000, 0.1875000000000000000, 0.2031250000000000000, -0.1640625000000000000, -0.1210937500000000000, -0.0449218750000000000, 0.0023193359375000000, 0.1250000000000000000, -0.1054687500000000000, 0.1875000000000000000, -0.0468750000000000000, 0.2031250000000000000, -0.0781250000000000000, -0.1054687500000000000, -0.0205078125000000000, 0.0185546875000000000, 0.0371093750000000000, 0.1171875000000000000, -0.1328125000000000000, 0.0039062500000000000, 0.0664062500000000000, -0.2265625000000000000, 0.1328125000000000000, 0.0976562500000000000, 0.0664062500000000000, -0.1210937500000000000, -0.0566406250000000000, -0.0527343750000000000, 0.0449218750000000000, 0.1796875000000000000, 0.2109375000000000000, 0.0166015625000000000, -0.0898437500000000000, 0.0166015625000000000, -0.1093750000000000000, 0.0937500000000000000, 0.2109375000000000000, 0.1640625000000000000, -0.1640625000000000000, -0.1171875000000000000, 0.0004577636718750000, -0.1718750000000000000, -0.1562500000000000000, -0.0742187500000000000, -0.0195312500000000000, -0.1562500000000000000, 0.1875000000000000000, -0.0092773437500000000, 0.1250000000000000000, -0.1171875000000000000, -0.0703125000000000000, -0.1093750000000000000, 0.1015625000000000000, 0.1171875000000000000, -0.0605468750000000000, -0.1484375000000000000, -0.1562500000000000000, -0.1562500000000000000, 0.1250000000000000000, -0.0898437500000000000, -0.0976562500000000000, -0.1796875000000000000, 0.1796875000000000000, 0.1328125000000000000, -0.2031250000000000000, 0.1796875000000000000, -0.1132812500000000000, 0.0742187500000000000, 0.2031250000000000000, -0.1015625000000000000, -0.1132812500000000000, -0.1406250000000000000, 0.0234375000000000000, 0.1875000000000000000, -0.1718750000000000000, 0.1406250000000000000, -0.0263671875000000000, 0.0898437500000000000, -0.1250000000000000000, -0.0410156250000000000, 0.0131835937500000000, -0.0781250000000000000, 0.1250000000000000000, -0.2187500000000000000, -0.2109375000000000000, -0.0898437500000000000, -0.0976562500000000000, -0.1796875000000000000, 0.1250000000000000000, -0.0937500000000000000, 0.1171875000000000000, -0.1953125000000000000, 0.1796875000000000000, 0.1718750000000000000, 0.2031250000000000000, -0.0449218750000000000, 0.0292968750000000000, 0.0703125000000000000, 0.0429687500000000000, 0.1562500000000000000, 0.2187500000000000000, -0.0332031250000000000, 0.1093750000000000000, 0.1250000000000000000, -0.2109375000000000000, -0.0546875000000000000, 0.1953125000000000000, -0.0087890625000000000, -0.0546875000000000000, -0.1406250000000000000, 0.1132812500000000000, -0.0703125000000000000, 0.0087890625000000000, -0.1953125000000000000, 0.0122070312500000000, 0.0937500000000000000, 0.1562500000000000000, -0.0781250000000000000, -0.0234375000000000000, 0.0625000000000000000, -0.0703125000000000000, 0.0073242187500000000, 0.0195312500000000000, -0.2031250000000000000, -0.2109375000000000000, -0.0468750000000000000, 0.1171875000000000000, -0.2031250000000000000, 0.1640625000000000000, -0.0034179687500000000, 0.1953125000000000000, 0.0742187500000000000, 0.0898437500000000000, -0.1210937500000000000, -0.1093750000000000000, 0.0585937500000000000, 0.1132812500000000000, 0.0195312500000000000, -0.0224609375000000000, 0.2031250000000000000, 0.1640625000000000000, 0.1875000000000000000, -0.1562500000000000000, 0.1640625000000000000, 0.1171875000000000000, 0.0224609375000000000, 0.0742187500000000000, -0.0585937500000000000, 0.1875000000000000000, -0.1250000000000000000, 0.1328125000000000000, -0.0283203125000000000, -0.1875000000000000000, -0.0073242187500000000, -0.0605468750000000000, 0.1406250000000000000, -0.1953125000000000000, 0.0566406250000000000, -0.0234375000000000000, 0.2343750000000000000, 0.1796875000000000000, -0.1328125000000000000, -0.0585937500000000000, 0.0898437500000000000, 0.1562500000000000000, 0.1250000000000000000, -0.0351562500000000000, -0.1054687500000000000, -0.0742187500000000000, 0.1718750000000000000, -0.1484375000000000000, 0.0035400390625000000, -0.1718750000000000000, -0.0546875000000000000, -0.1953125000000000000, 0.1015625000000000000, -0.1562500000000000000, 0.0102539062500000000, 0.1328125000000000000, 0.2109375000000000000, -0.1718750000000000000, 0.1250000000000000000, -0.1640625000000000000, 0.0566406250000000000, 0.1250000000000000000, -0.1328125000000000000, -0.0410156250000000000, -0.0468750000000000000, -0.1640625000000000000, -0.0253906250000000000, 0.0273437500000000000, 0.0126953125000000000, -0.1562500000000000000, -0.0036621093750000000, 0.0332031250000000000, -0.0742187500000000000, -0.0263671875000000000, -0.0664062500000000000, 0.0859375000000000000, -0.2109375000000000000, 0.1406250000000000000, -0.1484375000000000000, 0.0046386718750000000, -0.0097656250000000000, 0.0976562500000000000, -0.0625000000000000000, 0.0703125000000000000, -0.0781250000000000000, -0.1484375000000000000, 0.1015625000000000000, 0.1171875000000000000, -0.2109375000000000000, 0.1484375000000000000, -0.0859375000000000000, 0.0781250000000000000, 0.1484375000000000000, 0.1250000000000000000, -0.0898437500000000000, 0.1640625000000000000, -0.1562500000000000000, -0.1718750000000000000, 0.0742187500000000000, -0.1210937500000000000, 0.0585937500000000000, 0.0937500000000000000, -0.1015625000000000000, 0.0859375000000000000, 0.1875000000000000000, 0.1406250000000000000, -0.0006408691406250000, 0.1171875000000000000, -0.0898437500000000000, 0.1562500000000000000, 0.0146484375000000000, 0.1015625000000000000, 0.1718750000000000000, -0.0097656250000000000, -0.0742187500000000000, -0.0141601562500000000, -0.1875000000000000000, -0.0703125000000000000, 0.1093750000000000000, -0.0859375000000000000, 0.1484375000000000000, 0.1640625000000000000, -0.0056152343750000000, -0.0703125000000000000, 0.0244140625000000000, 0.1718750000000000000, -0.1953125000000000000, 0.1250000000000000000, -0.0664062500000000000, 0.1093750000000000000, 0.1718750000000000000, -0.2031250000000000000, -0.0283203125000000000, 0.0234375000000000000, -0.1875000000000000000, 0.0507812500000000000, 0.1875000000000000000, -0.1093750000000000000, 0.1562500000000000000, 0.2343750000000000000, 0.0410156250000000000, 0.0014038085937500000, 0.0488281250000000000, 0.1562500000000000000, 0.1250000000000000000, -0.1484375000000000000, 0.2031250000000000000, 0.1250000000000000000, 0.2109375000000000000, 0.0468750000000000000, 0.0898437500000000000, 0.1484375000000000000, 0.1562500000000000000, 0.1796875000000000000, -0.0605468750000000000, -0.0664062500000000000, -0.0332031250000000000, 0.0781250000000000000, 0.0898437500000000000, -0.1093750000000000000, 0.2187500000000000000, 0.0429687500000000000, 0.1562500000000000000, -0.0283203125000000000, 0.0781250000000000000, -0.0703125000000000000, 0.0742187500000000000, -0.1953125000000000000, 0.1484375000000000000, 0.1132812500000000000, -0.1406250000000000000, -0.1718750000000000000, -0.0585937500000000000, 0.2109375000000000000, 0.1875000000000000000, 0.0625000000000000000, -0.1796875000000000000, 0.1640625000000000000, -0.0820312500000000000, -0.1953125000000000000, 0.0371093750000000000, -0.1250000000000000000, 0.1562500000000000000, -0.0283203125000000000, -0.1640625000000000000, -0.1328125000000000000, -0.1953125000000000000, -0.1953125000000000000, 0.1562500000000000000, -0.1562500000000000000, -0.0859375000000000000, -0.2187500000000000000, -0.0371093750000000000, 0.0224609375000000000, -0.2265625000000000000, 0.1875000000000000000, -0.1015625000000000000, 0.1132812500000000000, -0.1015625000000000000, -0.1718750000000000000, -0.0112304687500000000, 0.0429687500000000000, 0.1250000000000000000, 0.1250000000000000000, 0.0703125000000000000, -0.0214843750000000000, 0.2109375000000000000, -0.1406250000000000000, 0.1484375000000000000, -0.1875000000000000000, -0.2187500000000000000, -0.1171875000000000000, 0.0898437500000000000, 0.1328125000000000000, -0.0410156250000000000, -0.0078125000000000000, -0.0820312500000000000, -0.0937500000000000000, -0.0214843750000000000, 0.1640625000000000000, 0.1054687500000000000, -0.1640625000000000000, -0.1484375000000000000, 0.1093750000000000000, 0.1406250000000000000, -0.0859375000000000000, -0.0898437500000000000, 0.2265625000000000000, -0.1718750000000000000, -0.1406250000000000000, 0.0195312500000000000, -0.2031250000000000000, 0.1054687500000000000, -0.1328125000000000000, 0.1015625000000000000, 0.1015625000000000000, 0.0781250000000000000, -0.1093750000000000000, 0.0030517578125000000, 0.0898437500000000000, -0.1796875000000000000, 0.0390625000000000000, 0.2343750000000000000, -0.1093750000000000000, 0.0820312500000000000, 0.0043945312500000000, -0.1406250000000000000, 0.1562500000000000000, 0.1171875000000000000, 0.1250000000000000000, -0.1171875000000000000, 0.0703125000000000000, 0.0312500000000000000, 0.1015625000000000000, 0.0742187500000000000, 0.1640625000000000000, 0.0283203125000000000, 0.0136718750000000000, -0.0527343750000000000, -0.0566406250000000000, -0.1796875000000000000, -0.0781250000000000000, 0.0742187500000000000, 0.0371093750000000000, -0.0390625000000000000, -0.0390625000000000000, 0.0156250000000000000, 0.0976562500000000000, -0.1328125000000000000, -0.0205078125000000000, -0.2031250000000000000, 0.1640625000000000000, 0.0371093750000000000, 0.0332031250000000000, 0.0625000000000000000, 0.0429687500000000000, 0.1093750000000000000, 0.0625000000000000000, 0.0585937500000000000, -0.1484375000000000000, -0.1640625000000000000, -0.1953125000000000000, 0.1796875000000000000, 0.1406250000000000000, 0.0051269531250000000, -0.1054687500000000000, 0.0859375000000000000, -0.1718750000000000000, 0.1250000000000000000, -0.0742187500000000000, -0.2187500000000000000, -0.2031250000000000000, -0.0332031250000000000, 0.2031250000000000000, -0.0820312500000000000, -0.1718750000000000000, -0.1953125000000000000, 0.1250000000000000000, 0.0546875000000000000, -0.1562500000000000000, 0.0410156250000000000, -0.1640625000000000000, -0.0742187500000000000, -0.0214843750000000000, -0.0292968750000000000, 0.0410156250000000000, -0.0429687500000000000, 0.0859375000000000000, -0.0302734375000000000, -0.1406250000000000000, 0.0566406250000000000, -0.1640625000000000000, -0.0073242187500000000, -0.1796875000000000000, -0.1875000000000000000, 0.1328125000000000000, -0.0449218750000000000, -0.1093750000000000000, -0.1562500000000000000, -0.0283203125000000000, -0.1093750000000000000, -0.1953125000000000000, -0.0664062500000000000, -0.0234375000000000000, 0.1718750000000000000, 0.0224609375000000000, -0.2031250000000000000, -0.0820312500000000000, 0.1054687500000000000, 0.0126953125000000000, 0.2109375000000000000, 0.1796875000000000000, 0.0410156250000000000, -0.2109375000000000000, 0.1171875000000000000, 0.0937500000000000000, -0.0263671875000000000, 0.1640625000000000000, 0.1054687500000000000, 0.0781250000000000000, -0.1171875000000000000, -0.1484375000000000000, -0.1875000000000000000, 0.0859375000000000000, -0.1562500000000000000, -0.2265625000000000000, 0.1250000000000000000, -0.2109375000000000000, 0.1171875000000000000, -0.1640625000000000000, -0.1718750000000000000, -0.0034179687500000000, -0.0449218750000000000, 0.0410156250000000000, -0.2343750000000000000, 0.1054687500000000000, -0.1015625000000000000, 0.1015625000000000000, -0.1484375000000000000, 0.0156250000000000000, 0.0131835937500000000, -0.1250000000000000000, -0.0507812500000000000, 0.0390625000000000000, 0.0664062500000000000, 0.0156250000000000000, -0.0703125000000000000, 0.0742187500000000000, -0.0605468750000000000, 0.0263671875000000000, 0.1015625000000000000, -0.0007629394531250000, 0.1640625000000000000, 0.0527343750000000000, 0.2187500000000000000, -0.0166015625000000000, 0.0820312500000000000, 0.1328125000000000000, -0.0488281250000000000, -0.0026855468750000000, -0.2109375000000000000, -0.0083007812500000000, -0.0351562500000000000, -0.1718750000000000000, 0.1054687500000000000, 0.0625000000000000000, -0.0351562500000000000, -0.1875000000000000000, -0.1562500000000000000, 0.0859375000000000000, 0.0488281250000000000, 0.1875000000000000000, -0.0051269531250000000, 0.1484375000000000000, 0.1015625000000000000, 0.0664062500000000000, -0.0063476562500000000, 0.1250000000000000000, -0.1953125000000000000, 0.1328125000000000000, 0.1562500000000000000, -0.0898437500000000000, -0.0781250000000000000, 0.1093750000000000000, -0.0351562500000000000, -0.1796875000000000000, -0.0429687500000000000, -0.1132812500000000000, 0.1796875000000000000, -0.1953125000000000000, -0.0283203125000000000, 0.1171875000000000000, -0.2187500000000000000, 0.0205078125000000000, 0.1718750000000000000, 0.1015625000000000000, -0.1250000000000000000, -0.1484375000000000000, 0.1015625000000000000, 0.1406250000000000000, -0.1718750000000000000, -0.2109375000000000000, 0.0312500000000000000, -0.0781250000000000000, 0.1015625000000000000, -0.2031250000000000000, 0.1171875000000000000, -0.0332031250000000000, -0.0898437500000000000, 0.0390625000000000000, -0.0273437500000000000, -0.1875000000000000000, 0.0390625000000000000, 0.1054687500000000000, 0.1640625000000000000, 0.0195312500000000000, 0.0004272460937500000, -0.0041503906250000000, 0.0224609375000000000, 0.2031250000000000000, -0.1562500000000000000, -0.2187500000000000000, -0.0449218750000000000, 0.0859375000000000000, 0.0742187500000000000, -0.1132812500000000000, -0.1328125000000000000, 0.2109375000000000000, 0.1953125000000000000, 0.1562500000000000000, 0.0117187500000000000, -0.1250000000000000000, 0.0292968750000000000, 0.0937500000000000000, 0.0703125000000000000, 0.0488281250000000000, 0.0253906250000000000, 0.1328125000000000000, -0.1054687500000000000, 0.0664062500000000000, -0.1484375000000000000, 0.1054687500000000000, -0.0546875000000000000, -0.1718750000000000000, -0.0605468750000000000, 0.0527343750000000000, -0.0036621093750000000, 0.0224609375000000000, 0.1484375000000000000, -0.1210937500000000000, 0.0820312500000000000, -0.0092773437500000000, 0.1796875000000000000, 0.0742187500000000000, 0.0015869140625000000, -0.1093750000000000000, -0.0107421875000000000, 0.1171875000000000000, -0.0097656250000000000, -0.0546875000000000000, 0.1875000000000000000, 0.2109375000000000000, 0.0283203125000000000, -0.1953125000000000000, -0.0112304687500000000, 0.1875000000000000000, -0.1562500000000000000, 0.0546875000000000000, -0.0087890625000000000, 0.2031250000000000000, -0.0976562500000000000, -0.0141601562500000000, 0.0244140625000000000, 0.1406250000000000000, 0.1484375000000000000, 0.0078125000000000000, -0.0507812500000000000, 0.0410156250000000000, 0.1796875000000000000, 0.0507812500000000000, 0.1640625000000000000, 0.0937500000000000000, 0.0107421875000000000, -0.0046386718750000000, -0.0070800781250000000, -0.1875000000000000000, 0.0820312500000000000, -0.1562500000000000000, 0.1484375000000000000, -0.1484375000000000000, 0.1171875000000000000, -0.0937500000000000000, 0.0566406250000000000, -0.2109375000000000000, -0.1718750000000000000, 0.0410156250000000000, -0.0625000000000000000, 0.0166015625000000000, -0.2187500000000000000, 0.2109375000000000000, -0.2187500000000000000, -0.1406250000000000000, 0.1875000000000000000, -0.1132812500000000000, 0.0030517578125000000, -0.0332031250000000000, 0.1406250000000000000, -0.1875000000000000000, 0.0507812500000000000, 0.1484375000000000000, 0.0664062500000000000, 0.0937500000000000000, -0.0820312500000000000, -0.0263671875000000000, -0.0566406250000000000, 0.0048828125000000000, -0.1210937500000000000, -0.1953125000000000000, -0.0976562500000000000, 0.0664062500000000000, -0.1796875000000000000, 0.0507812500000000000, 0.0781250000000000000, -0.0859375000000000000, 0.1093750000000000000, -0.1640625000000000000, 0.0046386718750000000, 0.2031250000000000000, 0.0048828125000000000, 0.0527343750000000000, -0.0023193359375000000, 0.0859375000000000000, 0.1328125000000000000, -0.0014648437500000000, 0.0205078125000000000, 0.0468750000000000000, 0.1093750000000000000, 0.1171875000000000000, 0.1562500000000000000, 0.1328125000000000000, -0.1406250000000000000, 0.1718750000000000000, 0.2265625000000000000, -0.1718750000000000000, -0.0527343750000000000, -0.0302734375000000000, 0.1796875000000000000, 0.1054687500000000000, 0.0937500000000000000, -0.1093750000000000000, -0.1953125000000000000, 0.0507812500000000000, 0.1132812500000000000, 0.1171875000000000000, 0.0263671875000000000, 0.2031250000000000000, 0.1132812500000000000, 0.1953125000000000000, -0.1796875000000000000, 0.0468750000000000000, -0.0898437500000000000, -0.1718750000000000000, -0.1562500000000000000, -0.0703125000000000000, -0.1210937500000000000, -0.0566406250000000000, 0.1875000000000000000, -0.0898437500000000000, 0.1718750000000000000, -0.1015625000000000000, -0.0371093750000000000, -0.2265625000000000000, 0.2343750000000000000, 0.0087890625000000000, 0.0025634765625000000, 0.1171875000000000000, -0.1328125000000000000, 0.1718750000000000000, 0.0410156250000000000, -0.1718750000000000000, -0.1015625000000000000, -0.2109375000000000000, -0.0351562500000000000, 0.1484375000000000000, -0.2109375000000000000, -0.2109375000000000000, -0.1328125000000000000, 0.0283203125000000000, -0.2109375000000000000, 0.1093750000000000000, -0.0102539062500000000, -0.1093750000000000000, 0.0097656250000000000, -0.0625000000000000000, -0.1562500000000000000, 0.1875000000000000000, -0.1484375000000000000, -0.0566406250000000000, 0.0898437500000000000, -0.1406250000000000000, 0.1484375000000000000, -0.1132812500000000000, 0.0664062500000000000, -0.0781250000000000000, 0.1718750000000000000, -0.0390625000000000000, -0.0136718750000000000, -0.1718750000000000000, 0.0263671875000000000, 0.1406250000000000000, -0.1015625000000000000, -0.0566406250000000000, 0.2187500000000000000, 0.1562500000000000000, -0.1250000000000000000, 0.2031250000000000000, 0.0488281250000000000, 0.1562500000000000000, -0.1796875000000000000, 0.0566406250000000000, -0.1406250000000000000, 0.0351562500000000000, -0.0224609375000000000, 0.1718750000000000000, -0.0742187500000000000, -0.0185546875000000000, -0.1796875000000000000, 0.0253906250000000000, 0.0061035156250000000, 0.0185546875000000000, -0.1640625000000000000, -0.0546875000000000000, 0.1796875000000000000, -0.2109375000000000000, -0.1328125000000000000, -0.1328125000000000000, -0.2031250000000000000, -0.0976562500000000000, 0.0061035156250000000, -0.0605468750000000000, -0.1250000000000000000, -0.1171875000000000000, -0.1640625000000000000, -0.1796875000000000000, -0.0065917968750000000, 0.1250000000000000000, 0.1718750000000000000, 0.0937500000000000000, -0.1406250000000000000, -0.2109375000000000000, -0.0742187500000000000, -0.1328125000000000000, 0.1015625000000000000, -0.0507812500000000000, 0.1953125000000000000, -0.1953125000000000000, 0.1132812500000000000, 0.1562500000000000000, 0.0468750000000000000, 0.0976562500000000000, 0.1562500000000000000, -0.0332031250000000000, -0.1406250000000000000, 0.0283203125000000000, 0.0781250000000000000, -0.1562500000000000000, -0.1796875000000000000, 0.1093750000000000000, 0.1171875000000000000, -0.0205078125000000000, -0.2109375000000000000, 0.0781250000000000000, 0.1406250000000000000, 0.1015625000000000000, -0.1953125000000000000, -0.2031250000000000000, -0.0527343750000000000, -0.0185546875000000000, 0.1796875000000000000, 0.1796875000000000000, 0.0371093750000000000, -0.1718750000000000000, -0.0507812500000000000, -0.1328125000000000000, 0.1562500000000000000, 0.2031250000000000000, 0.1406250000000000000, -0.1562500000000000000, 0.0664062500000000000, -0.0859375000000000000, 0.1875000000000000000, -0.0010986328125000000, 0.0073242187500000000, 0.0742187500000000000, -0.0332031250000000000, -0.2109375000000000000, 0.0185546875000000000, -0.1250000000000000000, 0.0312500000000000000, -0.1406250000000000000, -0.0302734375000000000, -0.1640625000000000000, 0.0136718750000000000, -0.1328125000000000000, -0.0048828125000000000, 0.0195312500000000000, -0.2109375000000000000, -0.1953125000000000000, 0.1406250000000000000, -0.0507812500000000000, -0.1132812500000000000, 0.1484375000000000000, 0.0566406250000000000, 0.1953125000000000000, -0.0429687500000000000, 0.0185546875000000000, 0.0859375000000000000, -0.2031250000000000000, 0.1171875000000000000, -0.0625000000000000000, -0.0859375000000000000, 0.0036621093750000000, 0.0410156250000000000, 0.0585937500000000000, -0.2031250000000000000, -0.0781250000000000000, 0.0859375000000000000, -0.0051269531250000000, 0.1484375000000000000, 0.0781250000000000000, -0.0820312500000000000, 0.1250000000000000000, 0.1171875000000000000, -0.1406250000000000000, 0.0146484375000000000, -0.1015625000000000000, 0.1718750000000000000, -0.2109375000000000000, 0.1328125000000000000, -0.1875000000000000000, -0.1796875000000000000, 0.0263671875000000000, -0.2187500000000000000, -0.1562500000000000000, -0.0546875000000000000, 0.1562500000000000000, 0.0781250000000000000, -0.1250000000000000000, -0.0012207031250000000, 0.0976562500000000000, 0.0585937500000000000, 0.1132812500000000000, -0.1328125000000000000, 0.0625000000000000000, -0.2109375000000000000, -0.2187500000000000000, -0.0859375000000000000, -0.1210937500000000000, 0.1562500000000000000, -0.0976562500000000000, 0.1953125000000000000, -0.0664062500000000000, -0.1953125000000000000, -0.1796875000000000000, -0.1171875000000000000, -0.2187500000000000000, 0.1484375000000000000, 0.0092773437500000000, -0.1250000000000000000, -0.0312500000000000000, -0.1562500000000000000, 0.0664062500000000000, -0.1484375000000000000, 0.0976562500000000000, 0.1718750000000000000, 0.1328125000000000000, -0.0097656250000000000, -0.0507812500000000000, 0.1796875000000000000, -0.1328125000000000000, 0.0566406250000000000, -0.1796875000000000000, 0.0021972656250000000, 0.1250000000000000000, 0.0976562500000000000, -0.0468750000000000000, -0.1250000000000000000, 0.1953125000000000000, -0.1328125000000000000, 0.1562500000000000000, 0.0371093750000000000, -0.0859375000000000000, -0.0937500000000000000, 0.1796875000000000000, 0.0976562500000000000, -0.0026855468750000000, 0.0068359375000000000, -0.0390625000000000000, 0.0781250000000000000, -0.0703125000000000000, -0.2109375000000000000, -0.0605468750000000000, 0.0742187500000000000, 0.1562500000000000000, -0.0898437500000000000, 0.0351562500000000000, -0.1406250000000000000, -0.0976562500000000000, -0.0898437500000000000, -0.1953125000000000000, -0.1796875000000000000, -0.0742187500000000000, -0.0146484375000000000, 0.0585937500000000000, 0.0097656250000000000, 0.1640625000000000000, 0.0820312500000000000, 0.1796875000000000000, 0.1875000000000000000, 0.0937500000000000000, -0.0214843750000000000, 0.0820312500000000000, 0.1875000000000000000, -0.1718750000000000000, -0.2109375000000000000, 0.2031250000000000000, -0.0166015625000000000, -0.1640625000000000000, 0.0122070312500000000, 0.1250000000000000000, -0.1054687500000000000, 0.0429687500000000000, -0.0937500000000000000, -0.0043945312500000000, 0.1796875000000000000, -0.1796875000000000000, -0.1250000000000000000, -0.0468750000000000000, -0.0566406250000000000, -0.0976562500000000000, 0.1875000000000000000, 0.1015625000000000000, -0.0976562500000000000, 0.2109375000000000000, -0.2109375000000000000, 0.0097656250000000000, -0.0449218750000000000, -0.1640625000000000000, -0.2187500000000000000, 0.2109375000000000000, -0.1875000000000000000, -0.1796875000000000000, -0.1132812500000000000, -0.1875000000000000000, 0.1250000000000000000, -0.0332031250000000000, 0.0820312500000000000, 0.2109375000000000000, 0.0234375000000000000, 0.1562500000000000000, 0.0371093750000000000, 0.2031250000000000000, -0.1953125000000000000, -0.1718750000000000000, -0.0820312500000000000, -0.0605468750000000000, 0.0021972656250000000, -0.1796875000000000000, -0.1406250000000000000, 0.1562500000000000000, -0.1640625000000000000, -0.1132812500000000000, -0.1562500000000000000, -0.0742187500000000000, -0.1953125000000000000, -0.1953125000000000000, -0.1718750000000000000, -0.0703125000000000000, -0.1054687500000000000, -0.0390625000000000000, -0.1406250000000000000, -0.2031250000000000000, 0.1406250000000000000, -0.0070800781250000000, 0.0449218750000000000, 0.1796875000000000000, 0.0468750000000000000, 0.1132812500000000000, -0.1250000000000000000, 0.0371093750000000000, 0.1328125000000000000, -0.1562500000000000000, 0.0004577636718750000, -0.1484375000000000000, 0.0859375000000000000, -0.0332031250000000000, 0.0898437500000000000, -0.0507812500000000000, 0.0000514984130859375, -0.0898437500000000000, 0.0253906250000000000, -0.1953125000000000000, 0.1875000000000000000, -0.0185546875000000000, 0.0156250000000000000, 0.1484375000000000000, 0.2031250000000000000, 0.1875000000000000000, 0.0488281250000000000, -0.0185546875000000000, 0.1171875000000000000, -0.1796875000000000000, 0.1484375000000000000, -0.1953125000000000000, 0.1953125000000000000, 0.1562500000000000000, 0.0937500000000000000, 0.1484375000000000000, -0.0546875000000000000, -0.0053710937500000000, 0.0546875000000000000, -0.0292968750000000000, -0.1328125000000000000, -0.0546875000000000000, -0.1640625000000000000, 0.0429687500000000000, 0.1484375000000000000, 0.1250000000000000000, 0.0625000000000000000, -0.0126953125000000000, 0.1171875000000000000, 0.1328125000000000000, -0.0937500000000000000, 0.1640625000000000000, -0.0976562500000000000, 0.1718750000000000000, -0.1171875000000000000, -0.1953125000000000000, 0.2109375000000000000, 0.1093750000000000000, -0.1875000000000000000, -0.0781250000000000000, -0.0234375000000000000, -0.0390625000000000000, -0.0742187500000000000, 0.2187500000000000000, -0.2109375000000000000, 0.1640625000000000000, -0.1328125000000000000, 0.0332031250000000000, -0.0032958984375000000, 0.2109375000000000000, -0.0859375000000000000, -0.1718750000000000000, -0.0063476562500000000, -0.0507812500000000000, 0.0664062500000000000, -0.1875000000000000000, 0.1015625000000000000, -0.0546875000000000000, 0.1093750000000000000, -0.0820312500000000000, 0.1484375000000000000, -0.1015625000000000000, -0.1406250000000000000, 0.1640625000000000000, -0.0625000000000000000, 0.1484375000000000000, 0.1718750000000000000, 0.0371093750000000000, 0.0332031250000000000, -0.0083007812500000000, 0.1093750000000000000, -0.2109375000000000000, 0.2031250000000000000, -0.1796875000000000000, -0.1562500000000000000, 0.0488281250000000000, -0.0585937500000000000, -0.1328125000000000000, 0.0312500000000000000, -0.1015625000000000000, 0.2109375000000000000, 0.0703125000000000000, 0.1132812500000000000, -0.0976562500000000000, -0.0146484375000000000, 0.1796875000000000000, -0.0976562500000000000, 0.1484375000000000000, 0.1250000000000000000, 0.1484375000000000000, 0.1796875000000000000, 0.1250000000000000000, 0.1406250000000000000, -0.0820312500000000000, 0.1328125000000000000, -0.0566406250000000000, -0.1015625000000000000, -0.1640625000000000000, 0.1406250000000000000, 0.0429687500000000000, -0.1406250000000000000, 0.0566406250000000000, -0.1484375000000000000, -0.1875000000000000000, -0.0976562500000000000, 0.1640625000000000000, 0.0585937500000000000, 0.1718750000000000000, -0.2031250000000000000, 0.2265625000000000000, 0.0263671875000000000, 0.1171875000000000000, 0.1250000000000000000, -0.0070800781250000000, 0.0820312500000000000, 0.1406250000000000000, -0.1875000000000000000, 0.0937500000000000000, -0.0976562500000000000, -0.2031250000000000000, -0.0043945312500000000, -0.1484375000000000000, 0.0820312500000000000, 0.0820312500000000000, 0.1406250000000000000, 0.1562500000000000000, 0.2031250000000000000, -0.0195312500000000000, -0.1054687500000000000, -0.1953125000000000000, 0.0507812500000000000, 0.1015625000000000000, -0.0820312500000000000, -0.1132812500000000000, -0.0244140625000000000, 0.1328125000000000000, 0.0429687500000000000, -0.1640625000000000000, -0.1171875000000000000, 0.0976562500000000000, 0.1250000000000000000, -0.0468750000000000000, 0.0166015625000000000, 0.1406250000000000000, 0.2031250000000000000, 0.2343750000000000000, -0.0625000000000000000, 0.0703125000000000000, 0.1640625000000000000, -0.2031250000000000000, -0.1484375000000000000, -0.1171875000000000000, 0.0283203125000000000, 0.1796875000000000000, 0.0468750000000000000, 0.2031250000000000000, -0.1484375000000000000, -0.1406250000000000000, 0.1406250000000000000, -0.0371093750000000000, -0.1093750000000000000, -0.2109375000000000000, 0.0625000000000000000, -0.1171875000000000000, -0.0390625000000000000, 0.1328125000000000000, -0.0175781250000000000, 0.1132812500000000000, -0.1640625000000000000, -0.0263671875000000000, -0.0566406250000000000, -0.0332031250000000000, -0.0585937500000000000, -0.0507812500000000000, 0.0859375000000000000, 0.0898437500000000000, -0.0976562500000000000, -0.0112304687500000000, 0.0351562500000000000, 0.0056152343750000000, 0.1093750000000000000, 0.0664062500000000000, -0.2187500000000000000, -0.1640625000000000000, -0.0263671875000000000, 0.1640625000000000000, 0.1796875000000000000, 0.0429687500000000000, 0.0937500000000000000, -0.2109375000000000000, 0.0742187500000000000, -0.0585937500000000000, 0.1054687500000000000, 0.1796875000000000000, -0.0859375000000000000, -0.0429687500000000000, 0.1132812500000000000, -0.1718750000000000000, -0.1953125000000000000, -0.2187500000000000000, 0.2031250000000000000, 0.1250000000000000000, -0.1210937500000000000, 0.0371093750000000000, 0.1132812500000000000, 0.1562500000000000000, 0.0625000000000000000, -0.1796875000000000000, 0.0566406250000000000, -0.0053710937500000000, 0.0097656250000000000, 0.0898437500000000000, -0.1406250000000000000, -0.1484375000000000000, 0.1640625000000000000, -0.2109375000000000000, -0.2031250000000000000, -0.0566406250000000000, -0.1640625000000000000, 0.1171875000000000000, -0.1250000000000000000, 0.1054687500000000000, 0.0332031250000000000, 0.1953125000000000000, 0.1484375000000000000, -0.1796875000000000000, 0.1406250000000000000, -0.1328125000000000000, -0.2109375000000000000, 0.1406250000000000000, 0.1875000000000000000, -0.0126953125000000000, -0.0244140625000000000, -0.1250000000000000000, -0.1093750000000000000, 0.0703125000000000000, 0.0371093750000000000, -0.1640625000000000000, 0.1250000000000000000, 0.1484375000000000000, 0.1250000000000000000, 0.1484375000000000000, 0.0937500000000000000, 0.1015625000000000000, 0.0585937500000000000, 0.0625000000000000000, -0.0527343750000000000, 0.1250000000000000000, -0.0214843750000000000, -0.0065917968750000000, 0.0976562500000000000, -0.0112304687500000000, -0.1093750000000000000, -0.0390625000000000000, -0.1562500000000000000, 0.0032958984375000000, -0.0253906250000000000, 0.1875000000000000000, 0.0781250000000000000, -0.1171875000000000000, -0.1640625000000000000, -0.1875000000000000000, 0.1718750000000000000, 0.1406250000000000000, -0.0468750000000000000, 0.1640625000000000000, 0.0312500000000000000, -0.0122070312500000000, 0.1054687500000000000, -0.0781250000000000000, 0.1718750000000000000, 0.1562500000000000000, -0.0546875000000000000, 0.0976562500000000000, 0.1093750000000000000, -0.0390625000000000000, -0.1484375000000000000, -0.0429687500000000000, -0.0117187500000000000, -0.1484375000000000000, -0.0976562500000000000, 0.0820312500000000000, -0.1406250000000000000, 0.1562500000000000000, 0.0078125000000000000, 0.1484375000000000000, -0.1562500000000000000, -0.0429687500000000000, -0.1484375000000000000, -0.1953125000000000000, 0.1250000000000000000, -0.0117187500000000000, 0.0820312500000000000, -0.1328125000000000000, -0.0097656250000000000, 0.1054687500000000000, -0.1796875000000000000, -0.0937500000000000000, -0.1796875000000000000, 0.1640625000000000000, 0.1015625000000000000, 0.1171875000000000000, -0.1210937500000000000, -0.0312500000000000000, -0.1171875000000000000, -0.0976562500000000000, 0.1250000000000000000, -0.1875000000000000000, 0.0742187500000000000, -0.1718750000000000000, -0.1718750000000000000, -0.0351562500000000000, 0.0898437500000000000, -0.1171875000000000000, 0.0507812500000000000, -0.1093750000000000000, 0.0976562500000000000, 0.1640625000000000000, 0.1562500000000000000, -0.1328125000000000000, 0.1328125000000000000, 0.1875000000000000000, -0.1640625000000000000, -0.0937500000000000000, 0.1484375000000000000, 0.1953125000000000000, 0.0585937500000000000, -0.0302734375000000000, -0.0136718750000000000, 0.1718750000000000000, 0.2265625000000000000, 0.1171875000000000000, -0.0625000000000000000, -0.1054687500000000000, -0.0175781250000000000, -0.1054687500000000000, -0.1015625000000000000, -0.0185546875000000000, 0.0097656250000000000, 0.0566406250000000000, -0.0664062500000000000, -0.0371093750000000000, -0.0937500000000000000, -0.1875000000000000000, -0.1640625000000000000, -0.1328125000000000000, 0.0292968750000000000, 0.1875000000000000000, -0.0224609375000000000, 0.0937500000000000000, 0.0976562500000000000, 0.0332031250000000000, 0.1796875000000000000, 0.1171875000000000000, 0.2109375000000000000, 0.1093750000000000000, -0.0546875000000000000, 0.1640625000000000000, -0.1875000000000000000, 0.0312500000000000000, 0.0703125000000000000, 0.1562500000000000000, 0.0035400390625000000, 0.0820312500000000000, -0.1718750000000000000, 0.1250000000000000000, 0.0244140625000000000, 0.1562500000000000000, 0.1640625000000000000, -0.0449218750000000000, 0.1171875000000000000, -0.1796875000000000000, 0.0097656250000000000, -0.0449218750000000000, -0.1015625000000000000, -0.1054687500000000000, 0.0898437500000000000, -0.2187500000000000000, -0.0976562500000000000, 0.2031250000000000000, -0.2109375000000000000, -0.0703125000000000000, 0.1953125000000000000, -0.1171875000000000000, 0.0898437500000000000, -0.0859375000000000000, 0.1093750000000000000, -0.0859375000000000000, -0.1953125000000000000, -0.1875000000000000000, 0.0781250000000000000, 0.0371093750000000000, -0.1210937500000000000, -0.1328125000000000000, 0.1953125000000000000, 0.0234375000000000000, -0.0083007812500000000, 0.0625000000000000000, 0.1953125000000000000, 0.1718750000000000000, 0.0214843750000000000, -0.0175781250000000000, -0.0664062500000000000, 0.1562500000000000000, -0.1328125000000000000, 0.0051269531250000000, 0.0292968750000000000, 0.0781250000000000000, -0.1953125000000000000, 0.0468750000000000000, 0.2031250000000000000, 0.1953125000000000000, -0.2031250000000000000, -0.2109375000000000000, -0.0283203125000000000, 0.0859375000000000000, -0.0566406250000000000, 0.0937500000000000000, 0.0546875000000000000, -0.0781250000000000000, -0.1875000000000000000, 0.0625000000000000000, -0.1132812500000000000, 0.1406250000000000000, -0.2109375000000000000, 0.0625000000000000000, -0.2109375000000000000, 0.0087890625000000000, -0.1796875000000000000, 0.0898437500000000000, -0.1328125000000000000, -0.1406250000000000000, 0.1484375000000000000, 0.1406250000000000000, -0.0312500000000000000, -0.1640625000000000000, 0.1484375000000000000, 0.2031250000000000000, -0.1054687500000000000, -0.0625000000000000000, -0.0742187500000000000, -0.0263671875000000000, -0.0244140625000000000, -0.1562500000000000000, 0.1484375000000000000, 0.1406250000000000000, 0.1250000000000000000, -0.0566406250000000000, 0.1484375000000000000, 0.1640625000000000000, -0.0025634765625000000, 0.1718750000000000000, 0.1718750000000000000, -0.0102539062500000000, -0.1406250000000000000, 0.1875000000000000000, 0.0025634765625000000, -0.2187500000000000000, -0.0937500000000000000, -0.0898437500000000000, -0.0185546875000000000, -0.0175781250000000000, -0.0390625000000000000, -0.1875000000000000000, 0.1640625000000000000, 0.0126953125000000000, -0.2031250000000000000, 0.1171875000000000000, 0.0292968750000000000, 0.1171875000000000000, -0.0410156250000000000, -0.1250000000000000000, -0.1132812500000000000, 0.1484375000000000000, 0.1406250000000000000, -0.2109375000000000000, 0.0625000000000000000, 0.1953125000000000000, -0.1210937500000000000, 0.0898437500000000000, -0.0244140625000000000, 0.1406250000000000000, -0.1562500000000000000, -0.2187500000000000000, 0.1562500000000000000, -0.1953125000000000000, -0.1953125000000000000, -0.2109375000000000000, 0.1796875000000000000, 0.0625000000000000000, 0.0664062500000000000, -0.0507812500000000000, 0.1406250000000000000, 0.0898437500000000000, -0.1484375000000000000, -0.2109375000000000000, -0.0898437500000000000, 0.0664062500000000000, 0.0083007812500000000, 0.2109375000000000000, 0.1015625000000000000, -0.1015625000000000000, 0.1718750000000000000, -0.0292968750000000000, -0.0976562500000000000, -0.0820312500000000000, -0.1796875000000000000, -0.0244140625000000000, -0.0449218750000000000, -0.1562500000000000000, -0.2109375000000000000, -0.1484375000000000000, 0.1093750000000000000, 0.2343750000000000000, 0.1171875000000000000, -0.1250000000000000000, 0.0937500000000000000, -0.0937500000000000000, -0.0390625000000000000, 0.1171875000000000000, -0.1875000000000000000, 0.1796875000000000000, 0.1406250000000000000, -0.0283203125000000000, -0.1054687500000000000, -0.1562500000000000000, 0.1796875000000000000, 0.1640625000000000000, 0.1796875000000000000, -0.0253906250000000000, 0.0859375000000000000, 0.1328125000000000000, -0.0351562500000000000, -0.1171875000000000000, -0.1093750000000000000, 0.0030517578125000000, 0.1562500000000000000, 0.2031250000000000000, 0.0527343750000000000, 0.0468750000000000000, -0.0073242187500000000, -0.0898437500000000000, 0.0449218750000000000, -0.1562500000000000000, -0.0820312500000000000, -0.1875000000000000000, -0.0332031250000000000, -0.0976562500000000000, -0.1406250000000000000, 0.1796875000000000000, -0.2031250000000000000, 0.1250000000000000000, 0.1132812500000000000, -0.0410156250000000000, -0.0449218750000000000, -0.0131835937500000000, -0.1875000000000000000, -0.2421875000000000000, 0.1640625000000000000, 0.0625000000000000000, -0.0976562500000000000, 0.0468750000000000000, -0.1953125000000000000, 0.1484375000000000000, 0.0025634765625000000, -0.2031250000000000000, 0.1328125000000000000, 0.1093750000000000000, -0.0605468750000000000, 0.1250000000000000000, -0.0527343750000000000, 0.0820312500000000000, 0.0122070312500000000, 0.1328125000000000000, -0.0166015625000000000, 0.1718750000000000000, -0.1171875000000000000, -0.0703125000000000000, -0.0703125000000000000, -0.1406250000000000000, -0.1132812500000000000, -0.0859375000000000000, -0.1328125000000000000, -0.0937500000000000000, 0.0449218750000000000, 0.0976562500000000000, 0.0122070312500000000, -0.1132812500000000000, 0.0664062500000000000, -0.0263671875000000000, -0.0742187500000000000, -0.1640625000000000000, 0.0039062500000000000, 0.1132812500000000000, 0.0468750000000000000, 0.0585937500000000000, 0.0937500000000000000, -0.1640625000000000000, -0.0820312500000000000, -0.0664062500000000000, -0.0136718750000000000, 0.0449218750000000000, -0.1015625000000000000, 0.0976562500000000000, 0.1015625000000000000, -0.1640625000000000000, -0.1796875000000000000, -0.2109375000000000000, -0.1406250000000000000, 0.0585937500000000000, 0.1640625000000000000, 0.0820312500000000000, -0.1640625000000000000, -0.0468750000000000000, -0.1718750000000000000, -0.1875000000000000000, 0.0214843750000000000, 0.0214843750000000000, -0.1328125000000000000, -0.1406250000000000000, -0.0263671875000000000, -0.0041503906250000000, 0.1484375000000000000, -0.0273437500000000000, 0.0449218750000000000, 0.0625000000000000000, -0.1328125000000000000, -0.2031250000000000000, 0.0742187500000000000, 0.1953125000000000000, -0.2109375000000000000, 0.2265625000000000000, 0.1875000000000000000, -0.0585937500000000000, 0.0976562500000000000, 0.1640625000000000000, -0.1562500000000000000, -0.1328125000000000000, 0.0029296875000000000, 0.1562500000000000000, 0.0283203125000000000, 0.1875000000000000000, -0.0937500000000000000, 0.0820312500000000000, 0.1875000000000000000, 0.0292968750000000000, -0.1328125000000000000, 0.0664062500000000000, 0.1640625000000000000, -0.1796875000000000000, -0.1406250000000000000, 0.1796875000000000000, -0.1718750000000000000, -0.0527343750000000000, -0.1484375000000000000, 0.0332031250000000000, 0.1484375000000000000, 0.0820312500000000000, -0.0429687500000000000, 0.1328125000000000000, -0.0051269531250000000, 0.1796875000000000000, -0.1562500000000000000, 0.1406250000000000000, -0.1054687500000000000, -0.0820312500000000000, -0.1054687500000000000, 0.0546875000000000000, 0.0112304687500000000, -0.1953125000000000000, 0.0390625000000000000, 0.0742187500000000000, 0.1054687500000000000, 0.0566406250000000000, 0.1718750000000000000, -0.2031250000000000000, 0.0195312500000000000, -0.0820312500000000000, -0.1171875000000000000, -0.1406250000000000000, 0.0625000000000000000, 0.0898437500000000000, -0.0332031250000000000, 0.1132812500000000000, 0.1093750000000000000, -0.1953125000000000000, -0.1875000000000000000, -0.0781250000000000000, -0.0820312500000000000, 0.0507812500000000000, 0.1640625000000000000, 0.1132812500000000000, 0.0898437500000000000, -0.0449218750000000000, -0.1484375000000000000, 0.0566406250000000000, -0.1796875000000000000, 0.1953125000000000000, -0.0146484375000000000, -0.1718750000000000000, -0.1718750000000000000, -0.1132812500000000000, 0.0703125000000000000, -0.0781250000000000000, 0.1171875000000000000, -0.2031250000000000000, 0.1953125000000000000, -0.0820312500000000000, -0.0937500000000000000, -0.1640625000000000000, -0.0126953125000000000, -0.1054687500000000000, -0.0781250000000000000, -0.1953125000000000000, 0.0146484375000000000, 0.1562500000000000000, 0.1015625000000000000, -0.0292968750000000000, -0.1171875000000000000, 0.0976562500000000000, 0.1640625000000000000, 0.1953125000000000000, -0.1562500000000000000, -0.1132812500000000000, 0.0253906250000000000, 0.1328125000000000000, 0.1875000000000000000, -0.2187500000000000000, -0.0468750000000000000, -0.1718750000000000000, 0.0566406250000000000, -0.0041503906250000000, -0.1406250000000000000, 0.0742187500000000000, 0.0742187500000000000, 0.0820312500000000000, -0.0742187500000000000, -0.2031250000000000000, -0.2265625000000000000, -0.0605468750000000000, -0.0625000000000000000, -0.1054687500000000000, 0.0937500000000000000, 0.1132812500000000000, 0.0703125000000000000, 0.0410156250000000000, -0.0703125000000000000, -0.1484375000000000000, -0.1132812500000000000, 0.1875000000000000000, -0.0449218750000000000, -0.1953125000000000000, 0.0546875000000000000, -0.0488281250000000000, 0.0898437500000000000, -0.1953125000000000000, -0.0859375000000000000, -0.1718750000000000000, 0.0156250000000000000, -0.1796875000000000000, -0.1953125000000000000, 0.1718750000000000000, 0.0468750000000000000, -0.1875000000000000000, -0.0781250000000000000, 0.1718750000000000000, 0.1953125000000000000, -0.1484375000000000000, 0.0664062500000000000, -0.1562500000000000000, -0.2187500000000000000, 0.0898437500000000000, -0.1718750000000000000, 0.1796875000000000000, -0.1953125000000000000, -0.0449218750000000000, 0.0051269531250000000, -0.0214843750000000000, -0.1328125000000000000, 0.0859375000000000000, 0.1640625000000000000, 0.0664062500000000000, -0.1562500000000000000, 0.2031250000000000000, 0.1562500000000000000, -0.1250000000000000000, 0.0742187500000000000, 0.2031250000000000000, 0.1406250000000000000, -0.0664062500000000000, 0.0244140625000000000, 0.0332031250000000000, -0.1875000000000000000, -0.0703125000000000000, 0.0527343750000000000, -0.0898437500000000000, -0.0859375000000000000, -0.2031250000000000000, 0.0351562500000000000, 0.1171875000000000000, 0.0263671875000000000, -0.1640625000000000000, -0.0332031250000000000, 0.1796875000000000000, 0.0859375000000000000, -0.0214843750000000000, -0.1953125000000000000, -0.0546875000000000000, 0.2031250000000000000, -0.1210937500000000000, -0.0898437500000000000, -0.0781250000000000000, -0.0410156250000000000, 0.0141601562500000000, 0.1640625000000000000, 0.0273437500000000000, 0.1562500000000000000, -0.1015625000000000000, 0.0937500000000000000, -0.0371093750000000000, -0.0820312500000000000, 0.0048828125000000000, -0.0898437500000000000, -0.1640625000000000000, -0.0449218750000000000, -0.0468750000000000000, 0.1328125000000000000, -0.0312500000000000000, 0.0283203125000000000, -0.0546875000000000000, 0.0742187500000000000, -0.0351562500000000000, -0.0507812500000000000, 0.0625000000000000000, 0.0263671875000000000, -0.0244140625000000000, 0.0156250000000000000, 0.1015625000000000000, -0.1953125000000000000, 0.1054687500000000000, 0.0703125000000000000, 0.0781250000000000000, -0.0703125000000000000, -0.0742187500000000000, -0.1406250000000000000, -0.1093750000000000000, -0.0566406250000000000, -0.0048828125000000000, 0.0292968750000000000, -0.1250000000000000000, 0.1406250000000000000, 0.0742187500000000000, -0.0859375000000000000, -0.0859375000000000000, 0.0898437500000000000, -0.2109375000000000000, -0.0332031250000000000, 0.0546875000000000000, 0.1171875000000000000, 0.0546875000000000000, -0.0781250000000000000, -0.1328125000000000000, -0.2187500000000000000, -0.1953125000000000000, -0.1796875000000000000, 0.1132812500000000000, -0.1796875000000000000, -0.1953125000000000000, 0.1875000000000000000, -0.1875000000000000000, 0.1093750000000000000, 0.0742187500000000000, -0.1875000000000000000, -0.2031250000000000000, 0.2109375000000000000, -0.1484375000000000000, -0.0023193359375000000, -0.1132812500000000000, 0.1015625000000000000, 0.1640625000000000000, -0.0185546875000000000, 0.0566406250000000000, -0.1406250000000000000, 0.0703125000000000000, 0.0625000000000000000, -0.1484375000000000000, 0.0820312500000000000, 0.2265625000000000000, -0.0283203125000000000, 0.0585937500000000000, 0.2031250000000000000, 0.1718750000000000000, -0.0075683593750000000, -0.0820312500000000000, -0.0390625000000000000, -0.1210937500000000000, 0.1875000000000000000, 0.0205078125000000000, -0.0019531250000000000, 0.1484375000000000000, 0.0742187500000000000, -0.0273437500000000000, 0.1640625000000000000, 0.1796875000000000000, -0.1718750000000000000, -0.0781250000000000000, 0.2343750000000000000, 0.1406250000000000000, -0.0546875000000000000, -0.1875000000000000000, -0.0781250000000000000, 0.1718750000000000000, -0.1054687500000000000, -0.2109375000000000000, -0.0742187500000000000, -0.0664062500000000000, 0.0273437500000000000, -0.0546875000000000000, -0.1132812500000000000, 0.1718750000000000000, 0.2031250000000000000, -0.0410156250000000000, -0.1484375000000000000, 0.0351562500000000000, -0.1875000000000000000, 0.0332031250000000000, 0.0488281250000000000, 0.0664062500000000000, -0.0898437500000000000, -0.2031250000000000000, -0.0781250000000000000, -0.1796875000000000000, 0.1953125000000000000, 0.0410156250000000000, -0.1093750000000000000, 0.1875000000000000000, 0.1054687500000000000, -0.1796875000000000000, 0.2031250000000000000, -0.1328125000000000000, -0.0488281250000000000, 0.0976562500000000000, 0.0112304687500000000, 0.2109375000000000000, 0.0146484375000000000, -0.0937500000000000000, 0.1171875000000000000, 0.0371093750000000000, -0.0937500000000000000, -0.0273437500000000000, -0.0122070312500000000, -0.0781250000000000000, -0.1718750000000000000, 0.0005187988281250000, -0.0263671875000000000, -0.1132812500000000000, 0.0253906250000000000, 0.0566406250000000000, 0.0585937500000000000, -0.0449218750000000000, 0.1796875000000000000, 0.0244140625000000000, -0.1406250000000000000, 0.1562500000000000000, 0.0742187500000000000, 0.0859375000000000000, -0.1484375000000000000, -0.1328125000000000000, -0.2109375000000000000, 0.1953125000000000000, -0.1210937500000000000, 0.2031250000000000000, 0.0585937500000000000, -0.1484375000000000000, -0.1484375000000000000, -0.0742187500000000000, 0.1093750000000000000, -0.0625000000000000000, 0.1015625000000000000, 0.0126953125000000000, 0.0585937500000000000, 0.0898437500000000000, 0.0859375000000000000, 0.1406250000000000000, 0.1328125000000000000, 0.0195312500000000000, 0.0976562500000000000, -0.2031250000000000000, 0.1250000000000000000, -0.0020751953125000000, 0.1484375000000000000, 0.0664062500000000000, -0.0156250000000000000, -0.0263671875000000000, 0.0566406250000000000, 0.1562500000000000000, 0.0859375000000000000, -0.0781250000000000000, 0.0205078125000000000, -0.0664062500000000000, -0.0976562500000000000, 0.0976562500000000000, 0.1953125000000000000, 0.0410156250000000000, -0.0000572204589843750, 0.0703125000000000000, -0.1406250000000000000, -0.0937500000000000000, -0.1875000000000000000, -0.1875000000000000000, 0.2031250000000000000, 0.1015625000000000000, -0.1328125000000000000, -0.2109375000000000000, -0.1171875000000000000, 0.0898437500000000000, 0.0166015625000000000, -0.0234375000000000000, 0.0195312500000000000, 0.0976562500000000000, 0.0664062500000000000, -0.1093750000000000000, -0.0468750000000000000, 0.0898437500000000000, -0.0703125000000000000, 0.2031250000000000000, -0.0263671875000000000, -0.0092773437500000000, 0.0410156250000000000, 0.0122070312500000000, 0.1406250000000000000, 0.0141601562500000000, 0.1054687500000000000, -0.1484375000000000000, 0.0136718750000000000, 0.0034179687500000000, -0.1875000000000000000, 0.1796875000000000000, 0.0263671875000000000, -0.1250000000000000000, 0.0292968750000000000, -0.0527343750000000000, 0.0976562500000000000, 0.1250000000000000000, -0.2109375000000000000, -0.2187500000000000000, -0.0820312500000000000, -0.2109375000000000000, 0.0078125000000000000, -0.1171875000000000000, 0.1093750000000000000, 0.1875000000000000000, 0.1406250000000000000, 0.0898437500000000000, 0.2031250000000000000, 0.0703125000000000000, -0.2109375000000000000, -0.1484375000000000000, 0.1796875000000000000, 0.2265625000000000000, -0.1132812500000000000, 0.0859375000000000000, -0.1718750000000000000, 0.1093750000000000000, -0.0664062500000000000, 0.1406250000000000000, 0.2031250000000000000, 0.2187500000000000000, 0.1640625000000000000, -0.1796875000000000000, -0.0898437500000000000, -0.1210937500000000000, 0.0410156250000000000, -0.0664062500000000000, 0.0351562500000000000, 0.0390625000000000000, -0.0166015625000000000, -0.1875000000000000000, 0.0146484375000000000, 0.0625000000000000000, -0.0546875000000000000, 0.0937500000000000000, 0.1406250000000000000, -0.0410156250000000000, -0.1250000000000000000, 0.1953125000000000000, -0.1171875000000000000, 0.0546875000000000000, -0.0020751953125000000, 0.0117187500000000000, -0.1562500000000000000, 0.1250000000000000000, 0.0898437500000000000, -0.0302734375000000000, -0.1796875000000000000, 0.0664062500000000000, -0.0292968750000000000, -0.0263671875000000000, 0.2187500000000000000, 0.2343750000000000000, -0.1015625000000000000, 0.0820312500000000000, -0.2031250000000000000, -0.1796875000000000000, -0.1484375000000000000, -0.1328125000000000000, -0.1875000000000000000, -0.0976562500000000000, 0.0263671875000000000, -0.0527343750000000000, 0.0097656250000000000, -0.1054687500000000000, -0.0468750000000000000, 0.2031250000000000000, 0.0312500000000000000, -0.0703125000000000000, 0.1718750000000000000, 0.1328125000000000000, -0.0898437500000000000, -0.0937500000000000000, -0.0527343750000000000, -0.1875000000000000000, 0.1250000000000000000, 0.0859375000000000000, 0.0332031250000000000, -0.0507812500000000000, 0.0234375000000000000, 0.1328125000000000000, 0.0585937500000000000, -0.0410156250000000000, 0.2109375000000000000, -0.1171875000000000000, 0.1484375000000000000, -0.2109375000000000000, -0.1406250000000000000, -0.1875000000000000000, 0.0292968750000000000, 0.0625000000000000000, 0.1054687500000000000, 0.0449218750000000000, -0.0146484375000000000, 0.1953125000000000000, 0.0664062500000000000, -0.2031250000000000000, -0.1484375000000000000, -0.1210937500000000000, 0.1640625000000000000, 0.0283203125000000000, 0.1132812500000000000, -0.1796875000000000000, -0.0136718750000000000, -0.1484375000000000000, 0.0742187500000000000, -0.0527343750000000000, 0.1054687500000000000, 0.1875000000000000000, -0.0820312500000000000, 0.0781250000000000000, 0.1328125000000000000, -0.1250000000000000000, 0.0859375000000000000, -0.1953125000000000000, 0.0820312500000000000, -0.1015625000000000000, 0.0820312500000000000, 0.0585937500000000000, -0.0332031250000000000, 0.0585937500000000000, -0.1484375000000000000, -0.1562500000000000000, -0.1054687500000000000, -0.1328125000000000000, -0.1796875000000000000, -0.1093750000000000000, 0.1250000000000000000, -0.1406250000000000000, -0.0205078125000000000, 0.1953125000000000000, 0.1406250000000000000, 0.0195312500000000000, -0.2109375000000000000, 0.0664062500000000000, 0.1171875000000000000, 0.0820312500000000000, 0.0195312500000000000, -0.2421875000000000000, -0.0781250000000000000, 0.1718750000000000000, 0.0156250000000000000, 0.1093750000000000000, -0.1484375000000000000, -0.1328125000000000000, -0.1054687500000000000, 0.0703125000000000000, 0.0012207031250000000, 0.1250000000000000000, -0.0605468750000000000, -0.2109375000000000000, 0.0507812500000000000, 0.0065917968750000000, 0.1132812500000000000, 0.1953125000000000000, -0.1562500000000000000, -0.1406250000000000000, -0.1132812500000000000, -0.0664062500000000000, 0.1054687500000000000, 0.0742187500000000000, 0.1250000000000000000, -0.1718750000000000000, -0.0302734375000000000, -0.0224609375000000000, -0.1093750000000000000, 0.0001220703125000000, 0.0781250000000000000, 0.0390625000000000000, 0.1171875000000000000, 0.0468750000000000000, -0.1171875000000000000, 0.1640625000000000000, 0.1054687500000000000, -0.1796875000000000000, 0.0781250000000000000, 0.1875000000000000000, -0.1484375000000000000, 0.0390625000000000000, -0.0703125000000000000, 0.1328125000000000000, 0.0410156250000000000, 0.0820312500000000000, -0.0488281250000000000, -0.1640625000000000000, 0.1171875000000000000, 0.1054687500000000000, -0.1953125000000000000, -0.1562500000000000000, -0.1328125000000000000, -0.0205078125000000000, 0.1875000000000000000, 0.0224609375000000000, -0.1406250000000000000, 0.1718750000000000000, -0.1328125000000000000, -0.1132812500000000000, -0.0820312500000000000, -0.1054687500000000000, 0.1132812500000000000, 0.1875000000000000000, -0.1015625000000000000, 0.2031250000000000000, -0.1250000000000000000, 0.0976562500000000000, -0.0703125000000000000, -0.1328125000000000000, -0.1796875000000000000, -0.1953125000000000000, -0.2109375000000000000, 0.1484375000000000000, -0.1171875000000000000, -0.0976562500000000000, 0.0185546875000000000, 0.0371093750000000000, -0.2109375000000000000, -0.2031250000000000000, -0.1718750000000000000, -0.1562500000000000000, -0.0781250000000000000, 0.0625000000000000000, 0.0859375000000000000, -0.0664062500000000000, 0.0097656250000000000, 0.1875000000000000000, -0.0585937500000000000, -0.2187500000000000000, -0.0371093750000000000, -0.1171875000000000000, -0.0664062500000000000, -0.0937500000000000000, 0.0585937500000000000, -0.2031250000000000000, 0.0781250000000000000, -0.0312500000000000000, -0.0820312500000000000, 0.0976562500000000000, 0.2031250000000000000, 0.1250000000000000000, 0.0859375000000000000, -0.0859375000000000000, -0.2187500000000000000, -0.0351562500000000000, -0.0214843750000000000, -0.1132812500000000000, -0.0468750000000000000, 0.1953125000000000000, 0.0234375000000000000, -0.0126953125000000000, 0.1875000000000000000, 0.0898437500000000000, 0.1640625000000000000, 0.1796875000000000000, -0.1406250000000000000, 0.1640625000000000000, 0.1875000000000000000, 0.0056152343750000000, -0.1054687500000000000, 0.0546875000000000000, 0.1562500000000000000, 0.1171875000000000000, -0.1406250000000000000, -0.0703125000000000000, 0.1562500000000000000, -0.0224609375000000000, -0.0664062500000000000, 0.0166015625000000000, -0.1796875000000000000, 0.1250000000000000000, -0.2109375000000000000, -0.0410156250000000000, -0.0976562500000000000, 0.0859375000000000000, -0.1953125000000000000, 0.1171875000000000000, -0.0703125000000000000, 0.1093750000000000000, 0.1132812500000000000}};

#endif
