//Numpy array shape [4, 48]
//Min -0.333802193403
//Max 0.337500333786
//Number of zeros 0

#ifndef W4_H_
#define W4_H_

[[intel::fpga_register]] static constexpr w4_t w4 = {{0.041415, -0.073243, -0.166213, 0.308442, -0.143116, 0.189879, 0.021823, 0.068631, 0.093614, 0.016096, -0.253900, -0.064288, -0.189772, 0.044524, 0.025349, -0.321937, -0.125277, 0.166808, 0.089190, -0.241775, -0.152365, -0.236151, -0.084722, -0.039279, -0.016677, 0.248700, 0.283155, 0.113568, -0.093071, -0.314376, -0.093462, 0.050441, 0.078706, 0.069744, 0.254425, 0.022575, -0.280597, -0.278155, 0.055460, -0.208000, 0.158983, 0.261340, 0.219943, 0.334385, 0.290787, -0.028573, 0.159364, -0.144760, -0.174913, -0.257207, -0.105478, -0.140736, -0.056525, -0.297534, -0.221446, -0.064296, 0.276207, 0.231312, -0.233412, -0.033588, 0.184552, -0.096551, -0.229581, -0.139605, 0.045645, -0.064904, -0.112873, -0.308961, -0.224603, 0.104734, 0.184619, -0.034642, -0.228019, 0.269891, 0.335308, 0.135648, -0.112309, 0.321261, -0.041422, -0.074757, 0.033359, -0.170376, -0.268206, -0.012503, -0.217847, 0.149822, -0.291757, 0.148531, -0.215792, 0.143407, 0.202424, -0.305550, -0.333802, -0.137776, 0.180148, 0.215613, 0.030083, -0.059731, 0.071978, 0.272254, 0.141092, 0.253355, 0.078722, -0.126552, -0.187439, 0.007844, -0.213617, -0.208755, 0.291234, -0.191422, -0.012457, -0.003230, 0.275677, -0.063906, 0.082367, -0.283097, 0.256648, 0.253758, -0.185233, -0.199044, -0.146211, -0.122808, -0.015423, 0.188130, -0.204140, -0.096235, 0.072001, 0.239222, -0.227841, -0.321016, 0.283522, -0.054067, -0.017970, 0.162905, -0.102867, -0.305066, 0.040666, 0.166371, 0.137913, 0.197652, -0.328069, -0.236698, 0.141768, 0.312969, -0.127547, -0.027932, 0.095898, -0.282757, -0.141484, -0.141892, 0.185986, 0.006706, 0.002753, 0.199098, -0.112790, 0.085298, -0.246050, -0.152784, -0.279698, -0.188401, -0.108972, -0.110309, 0.032306, 0.145063, 0.129998, -0.280987, 0.043133, 0.216459, 0.259305, -0.178440, -0.025700, -0.114216, 0.337500, -0.065514, -0.122008, 0.233181, 0.316658, -0.024959, 0.321794, -0.020342, 0.116594, 0.274979, -0.268961, -0.200821, 0.252265, -0.179417, -0.305158, -0.099775, 0.130482, 0.263673, 0.162548, 0.239046}};

#endif
