//Numpy array shape [16, 48]
//Min -0.305152386427
//Max 0.306098550558
//Number of zeros 0

#ifndef W5_H_
#define W5_H_

[[intel::fpga_register]] static constexpr w5_t w5 = {{0.164688, -0.167915, 0.011674, -0.074647, -0.025631, -0.157702, -0.042917, 0.004989, 0.029806, 0.217643, -0.246956, -0.210618, 0.194891, -0.101044, -0.292470, -0.293476, -0.286969, 0.209700, 0.203024, -0.027291, 0.174732, 0.245840, -0.287904, -0.069958, -0.149025, -0.037518, 0.045386, -0.287339, 0.034361, -0.200819, 0.160724, -0.103927, -0.132881, 0.303837, 0.131913, 0.096473, -0.050615, 0.163204, -0.077125, 0.182012, 0.125372, 0.198685, -0.065346, 0.186796, 0.084362, 0.095097, -0.027682, 0.298340, -0.110779, 0.009973, 0.112285, 0.157147, -0.240633, 0.022918, -0.007049, 0.205106, -0.220821, -0.273643, 0.130008, 0.295722, -0.186206, -0.117358, -0.049343, 0.045423, -0.061579, 0.185949, 0.044577, 0.214294, -0.169881, 0.206731, 0.294773, 0.296500, 0.258309, -0.049002, -0.011936, 0.216520, 0.047021, -0.124200, -0.246724, -0.206586, 0.200920, -0.161704, 0.266161, 0.205375, 0.250937, 0.281185, -0.204225, -0.197746, -0.167196, 0.288326, 0.234641, 0.198169, -0.081065, 0.166395, -0.105562, 0.102077, -0.295298, 0.063985, -0.034038, 0.019779, 0.272982, 0.271818, -0.092689, -0.278273, 0.207329, 0.160254, -0.303311, -0.215493, 0.045238, 0.145569, 0.058519, 0.110472, 0.072545, 0.174474, 0.238321, -0.067472, -0.133663, -0.033237, 0.145103, 0.061131, -0.203431, 0.070141, -0.125294, 0.115754, 0.305824, 0.230350, 0.165521, 0.287744, -0.112585, -0.254143, -0.136734, -0.020530, 0.057256, 0.050114, -0.260632, -0.059342, 0.007621, 0.149415, -0.261227, 0.034882, -0.182565, -0.268867, 0.032506, -0.077976, -0.226099, 0.213990, -0.144467, 0.162334, 0.063362, -0.272264, 0.074592, 0.057110, 0.298647, -0.047695, 0.293866, -0.193424, -0.041043, -0.102975, -0.289867, -0.197753, 0.013159, 0.046451, -0.161832, -0.214674, -0.279703, 0.126694, -0.131946, -0.251419, -0.080462, 0.081531, -0.006775, 0.120513, -0.082540, -0.214154, 0.272588, 0.271325, 0.288681, -0.200330, -0.207593, 0.298237, -0.022802, 0.204878, -0.059220, -0.181458, 0.100935, 0.231590, 0.151289, 0.305416, -0.078894, -0.234111, -0.118010, -0.229769, 0.057783, 0.087333, -0.265720, 0.163460, -0.088955, -0.135851, 0.050725, 0.254731, -0.231213, -0.154991, -0.079525, 0.141757, -0.080034, 0.151760, 0.020795, -0.193401, 0.209814, -0.059739, 0.197046, -0.302333, 0.015667, 0.242387, 0.101021, -0.223280, 0.222026, -0.065588, 0.287501, -0.135265, 0.152499, -0.070673, 0.265946, -0.028575, 0.098951, -0.161960, -0.281259, 0.204145, -0.113606, -0.077679, 0.290114, -0.244477, -0.159400, 0.134875, -0.030693, -0.043391, -0.153988, -0.038796, -0.293768, -0.078574, 0.286265, 0.264142, 0.194208, -0.094506, 0.304675, -0.002689, -0.033138, 0.016583, -0.062045, 0.183788, 0.291261, 0.045194, -0.260065, 0.009837, -0.093364, 0.171626, 0.249889, 0.082161, -0.035277, 0.135792, 0.290150, -0.178038, 0.264904, 0.068121, 0.237016, -0.036717, 0.280656, 0.068199, -0.025269, -0.109983, -0.128499, 0.045890, -0.050046, -0.019127, -0.122804, -0.156533, 0.207389, 0.077621, -0.221366, -0.300135, -0.219912, -0.067413, -0.024668, 0.211574, 0.178012, -0.070032, 0.216025, 0.105770, -0.050376, 0.053983, 0.004496, -0.221115, -0.184418, 0.294498, 0.083364, 0.170348, 0.181724, -0.259719, 0.254457, -0.202213, 0.212725, -0.206129, 0.124641, 0.282446, 0.262185, -0.222971, -0.133896, -0.084037, -0.156868, -0.259865, -0.009699, 0.047635, 0.092310, 0.088977, 0.025727, 0.086159, -0.016567, 0.146706, 0.021289, -0.133692, 0.104183, 0.243430, 0.185226, 0.212891, 0.113010, -0.274985, -0.099551, -0.270716, 0.206743, -0.270266, -0.050035, 0.236290, 0.276212, -0.234572, 0.125859, 0.163589, 0.254120, -0.231559, 0.150790, 0.139843, -0.198652, 0.140044, 0.091667, -0.018523, -0.163343, -0.252502, 0.104124, 0.004481, 0.094751, 0.021336, 0.030106, 0.074450, 0.060514, 0.185874, 0.231784, -0.157768, 0.006780, -0.004019, -0.188815, 0.152410, -0.305152, -0.250295, -0.090938, 0.262451, -0.185484, -0.144219, -0.265627, 0.199035, 0.056716, 0.159697, 0.222934, 0.058252, -0.281723, 0.140342, 0.147431, 0.197127, 0.046284, -0.249733, -0.125729, 0.259109, -0.197012, 0.033398, -0.227263, 0.276776, 0.018031, -0.004053, -0.164372, -0.045199, 0.043918, 0.014509, -0.203245, 0.128441, 0.030919, 0.104650, 0.158825, -0.284825, 0.203803, -0.004708, -0.086249, -0.282388, -0.279833, -0.120857, 0.281659, -0.206062, 0.050455, 0.233551, -0.132653, -0.169546, 0.056894, 0.077449, 0.230025, -0.050971, 0.274199, 0.083707, -0.061499, 0.050520, 0.283235, 0.254539, 0.132732, 0.288691, 0.066106, 0.252280, -0.103358, -0.209315, 0.008312, -0.065352, -0.026575, 0.001120, -0.146219, -0.053449, 0.073928, -0.279995, 0.192310, -0.135014, 0.060773, -0.252830, -0.263434, 0.219532, 0.185772, 0.132409, -0.036303, 0.074387, -0.099680, 0.278164, -0.297868, -0.263547, 0.274088, 0.190641, 0.207247, 0.156400, 0.089679, 0.231129, 0.255993, 0.149815, -0.198475, 0.065761, 0.097773, -0.073439, -0.056003, 0.104554, 0.106062, 0.263900, 0.240418, -0.126315, -0.265599, -0.233034, 0.299554, -0.148444, 0.122140, 0.259620, -0.070459, -0.212510, -0.072883, 0.227653, 0.182188, 0.270474, 0.029158, -0.055017, 0.131261, 0.290519, -0.118890, 0.112071, 0.148924, 0.185602, 0.003378, -0.027923, -0.201664, 0.107250, 0.041132, 0.071237, -0.042625, -0.239016, 0.246348, 0.276227, 0.015206, -0.191288, 0.038746, 0.120042, 0.225904, 0.084824, -0.174535, 0.165280, 0.094036, 0.160562, -0.176470, 0.265296, 0.173349, -0.182253, -0.084666, -0.113032, 0.048577, 0.161356, -0.194293, 0.122704, 0.039268, 0.106725, -0.234543, 0.209258, -0.284768, -0.035982, -0.064667, -0.071036, -0.234794, -0.235084, -0.028141, -0.081768, -0.044715, -0.048869, -0.114536, 0.115964, -0.121950, 0.238288, 0.238326, -0.001237, -0.205267, -0.227288, 0.305492, 0.096473, -0.040012, -0.276379, -0.248749, -0.254114, 0.059874, 0.181513, -0.138384, -0.260040, 0.228185, -0.298791, 0.227258, 0.020481, 0.166741, -0.019534, -0.252752, 0.241125, 0.067085, 0.005549, 0.168057, -0.274517, -0.048950, 0.122092, 0.147087, -0.032926, 0.199871, 0.090319, -0.173718, 0.036595, 0.170250, -0.254211, 0.305057, -0.255138, 0.190574, 0.072061, 0.268990, -0.126959, 0.048648, -0.222183, -0.229560, 0.025800, -0.044144, -0.261138, 0.119681, 0.127233, -0.182035, 0.157313, -0.030405, -0.288181, 0.153095, -0.180432, 0.176374, 0.277529, -0.244510, 0.078104, -0.097659, -0.247083, 0.046920, 0.039016, -0.234921, -0.180350, -0.016196, -0.145512, 0.093244, -0.184580, -0.147614, 0.184574, -0.068162, 0.154052, 0.288056, 0.037499, 0.001494, -0.109513, 0.267733, 0.182808, -0.116769, -0.129517, 0.110457, -0.284159, 0.154862, 0.019186, 0.071555, -0.227343, 0.008364, 0.268490, -0.030338, -0.009532, 0.006571, -0.102266, 0.108096, 0.050042, -0.196679, -0.050489, -0.102844, -0.255119, 0.073397, -0.285721, -0.130276, -0.147223, 0.031281, -0.018949, -0.160898, 0.132578, -0.218141, -0.007055, -0.082281, -0.264545, -0.123294, 0.136104, 0.120375, -0.162351, -0.214345, 0.105466, -0.012896, -0.265475, 0.009306, 0.209031, -0.063962, -0.169992, 0.154318, -0.105956, 0.091353, -0.195774, 0.034971, -0.112525, 0.040656, -0.029912, -0.196224, 0.141526, 0.296809, 0.168457, -0.210060, -0.130954, -0.103513, -0.066021, 0.154027, 0.263466, 0.063570, 0.185867, -0.235618, -0.027920, 0.099392, -0.059070, -0.249201, 0.015544, -0.165319, 0.306099, -0.133324, -0.073825, 0.014608, 0.210243, 0.304848, 0.113890, 0.064479, -0.117529, 0.253849, 0.056676, 0.305103, 0.152914, 0.282983, -0.204186, -0.159421, -0.247086, -0.096526, 0.262457, -0.263864, 0.164739, -0.220905, 0.224311, 0.103192, 0.091425, 0.134185, -0.127414, 0.260178, 0.260670, -0.144918, -0.249682, -0.263314, -0.271211, -0.112856, -0.194128, -0.126589, 0.120866, -0.036373, -0.235052, 0.127051, -0.109272, 0.187949, -0.007566, -0.005748, 0.199548, 0.111354, 0.040371, 0.262316, -0.207751, -0.068630, -0.193187, 0.017084, -0.096805, 0.087656, -0.020930, -0.137480, -0.189507, 0.086690, 0.081509, 0.011098, -0.161407, 0.202090, -0.007810, -0.254140, -0.141633, 0.302189, -0.085827, -0.224080, -0.096401, -0.181191, -0.153601, 0.149687, 0.113591, 0.097195, 0.216733, 0.131405, 0.096079, 0.277641, -0.185352, 0.016527, 0.044103, -0.211409, -0.117752, -0.264501, -0.104848}};

#endif
