//Numpy array shape [16, 5]
//Min -0.485566377640
//Max 0.526137769222
//Number of zeros 0

#ifndef W6_H_
#define W6_H_

[[intel::fpga_register]] static constexpr w6_t w6 = {{-0.292459, -0.402160, 0.454032, 0.040026, 0.082856, 0.374164, -0.074542, -0.117950, -0.010047, 0.471495, 0.395810, 0.172611, 0.117323, 0.028068, 0.135360, 0.392808, 0.202385, 0.472052, -0.167806, 0.275316, -0.282281, -0.090684, -0.424023, 0.329336, 0.210727, 0.283237, -0.006720, -0.272640, -0.371155, 0.306220, 0.247429, -0.182014, 0.414115, -0.131202, -0.366982, 0.343796, 0.118305, 0.252794, 0.496250, -0.345314, 0.323181, -0.272294, 0.202534, 0.456285, -0.335023, -0.028496, -0.205530, 0.150627, -0.473138, 0.278141, -0.485566, -0.244073, 0.132262, 0.443426, 0.371077, 0.172123, 0.120305, -0.383796, 0.015157, 0.225842, 0.292714, 0.338481, -0.105382, 0.526138, 0.057955, -0.430102, -0.383793, 0.391666, 0.058645, -0.335595, -0.067135, 0.334125, 0.294235, 0.452929, -0.072032, -0.392258, -0.141465, -0.329429, -0.115952, 0.145182}};

#endif
