//Numpy array shape [16, 48]
//Min -0.458019793034
//Max 0.525428950787
//Number of zeros 0

#ifndef WR4_H_
#define WR4_H_

[[intel::fpga_register]] static constexpr wr4_t wr4 = {{0.078806, 0.121475, -0.008180, -0.087355, 0.240946, 0.037692, -0.003693, -0.169761, -0.092841, 0.217824, -0.162173, -0.049696, 0.053005, -0.024571, -0.069476, -0.149168, -0.024453, 0.075194, 0.059878, 0.128643, -0.036186, -0.047155, 0.213234, -0.025140, 0.068525, -0.458020, 0.061443, -0.159870, -0.097660, 0.014529, 0.010649, 0.123345, -0.003143, -0.200068, -0.190005, -0.031952, -0.129064, -0.015795, 0.144133, 0.098257, 0.224085, 0.049824, -0.194023, -0.272096, 0.114782, -0.090823, 0.260342, -0.179230, 0.239046, 0.256782, -0.005085, 0.103998, 0.341156, 0.151252, -0.088798, -0.144681, -0.223768, -0.146039, 0.093863, -0.239315, -0.046132, 0.150873, 0.262911, 0.107030, -0.197456, 0.018347, 0.047336, -0.264525, 0.022362, -0.023437, -0.090232, 0.119435, 0.181277, -0.169163, 0.013915, 0.047928, 0.152984, 0.020539, 0.032668, 0.086455, -0.155444, -0.086399, -0.163123, 0.023870, -0.235313, 0.217269, 0.181373, -0.004162, 0.046019, 0.134787, 0.192111, 0.012870, -0.109014, 0.049435, 0.195087, 0.030643, 0.032307, 0.096668, 0.046616, -0.304067, -0.081175, 0.057943, 0.048367, 0.245378, -0.142591, 0.127642, -0.108547, 0.013935, -0.045813, 0.083877, 0.113791, 0.119228, -0.071506, -0.000527, -0.137935, -0.316399, 0.111565, -0.218013, -0.032044, -0.160591, 0.098374, 0.020560, 0.215583, -0.247725, 0.327158, 0.070223, 0.123186, 0.205095, -0.114599, -0.053832, 0.046406, 0.081839, -0.217662, 0.084545, -0.007477, -0.064674, -0.103760, 0.005183, -0.028182, 0.149046, 0.095501, 0.525429, -0.079509, 0.014219, 0.123393, -0.159814, 0.052500, -0.022371, 0.014955, 0.174139, -0.036407, -0.341102, 0.180023, -0.146890, 0.076620, 0.284013, 0.027467, 0.020602, 0.216606, -0.078397, -0.163346, -0.073949, -0.144030, 0.096384, 0.213650, -0.087422, 0.135035, -0.177028, -0.153717, 0.113958, -0.122267, 0.215899, 0.009807, -0.023215, 0.038407, 0.133319, 0.063818, 0.079688, -0.206285, 0.206643, 0.157761, 0.103958, 0.035016, 0.111378, -0.055765, 0.183634, -0.025329, 0.111961, -0.084201, 0.069492, 0.316765, 0.042025, 0.214837, -0.075514, 0.071519, -0.012587, -0.049294, 0.079547, 0.333534, 0.031623, -0.226414, -0.007368, -0.096892, 0.165209, 0.293372, -0.000514, -0.145374, -0.094627, -0.110654, 0.377002, 0.288755, -0.053483, -0.136693, -0.103292, 0.087768, 0.059640, 0.031383, 0.110433, -0.175035, 0.017788, -0.248137, 0.031610, 0.206929, -0.118208, 0.094454, 0.237577, -0.010006, 0.113993, 0.036780, -0.167795, 0.048071, 0.071094, 0.306502, -0.150393, -0.138407, 0.250511, -0.036455, 0.092231, 0.115928, -0.096363, -0.070498, 0.043998, 0.006479, 0.017999, 0.031526, -0.093179, 0.121220, -0.078725, 0.020500, 0.025041, -0.045886, 0.083195, 0.137855, -0.139382, 0.052527, -0.086468, 0.005371, 0.146984, 0.158950, -0.145507, -0.016250, 0.172625, -0.145826, 0.273144, -0.005274, 0.123378, -0.075713, -0.162793, 0.187455, 0.126202, -0.052467, -0.070676, 0.061451, 0.029780, 0.049767, -0.333433, -0.233315, -0.038118, 0.015471, 0.011939, -0.189297, -0.278841, -0.041718, 0.049325, -0.035804, -0.109917, 0.147159, 0.070069, -0.076511, -0.104354, -0.115203, 0.024003, 0.141992, 0.036817, -0.016449, 0.059133, -0.220755, -0.068057, -0.023301, 0.094446, 0.229162, 0.017457, -0.300584, -0.283260, 0.140435, -0.008820, 0.227473, 0.091294, -0.044449, -0.235599, -0.177791, -0.019026, 0.153778, 0.099652, 0.166396, 0.064348, 0.167986, -0.021154, -0.020840, 0.028343, -0.091574, 0.110616, -0.014691, -0.040711, -0.043046, -0.093375, 0.050505, -0.097423, 0.124185, 0.042170, -0.000085, -0.267302, 0.268676, -0.122693, -0.030575, -0.173989, 0.002956, 0.104218, 0.034992, 0.009472, 0.149388, 0.028344, 0.079425, -0.063266, 0.344508, 0.232990, 0.062700, -0.078895, -0.076636, 0.298937, -0.207325, 0.167210, -0.063485, 0.192745, -0.016590, -0.242539, -0.004501, -0.194233, 0.036565, -0.256190, -0.165823, 0.065669, 0.073020, 0.020350, -0.210864, 0.139396, -0.139172, -0.201324, 0.049580, 0.018459, 0.003807, -0.042563, -0.128892, 0.082219, -0.246603, -0.110261, 0.022375, 0.154025, 0.135519, -0.058221, 0.133493, -0.226379, 0.145786, -0.089203, 0.115120, 0.048247, 0.145630, 0.408510, -0.200721, -0.134988, -0.270448, -0.169098, -0.137514, -0.063571, 0.001789, -0.238150, -0.000270, 0.018862, -0.088383, -0.149591, 0.099385, -0.209532, -0.126490, 0.058609, 0.156086, 0.155875, -0.081562, 0.119513, 0.147567, -0.261261, -0.143972, -0.105346, -0.005248, 0.012882, -0.079721, -0.083627, 0.273845, -0.260006, 0.233504, -0.094962, 0.153320, -0.150764, -0.049309, 0.173109, -0.060875, 0.117481, -0.296526, 0.058752, 0.006218, 0.140085, 0.074536, -0.074332, -0.272356, -0.057171, -0.031503, -0.027494, -0.040484, -0.205625, -0.169230, -0.109331, -0.142676, 0.047987, -0.148411, 0.113082, -0.022890, -0.152741, -0.068187, 0.289972, 0.133361, 0.123541, -0.091170, 0.010881, -0.071960, -0.066541, -0.019401, 0.160056, 0.116609, -0.072154, -0.104674, 0.108101, 0.001428, -0.003824, -0.174289, 0.406891, 0.166743, -0.143992, 0.277721, -0.185679, 0.239188, -0.086861, 0.098200, -0.128880, -0.053529, -0.121223, 0.251699, 0.103013, -0.046915, 0.007650, 0.241791, -0.071375, -0.045232, 0.146201, 0.036231, -0.007655, 0.113428, -0.228942, 0.223929, -0.068715, 0.053879, -0.049372, -0.048647, 0.097054, 0.127702, -0.106433, -0.037432, 0.045630, 0.000217, -0.125974, 0.101132, 0.285622, -0.269737, -0.047616, 0.284901, -0.102813, -0.092628, 0.187278, -0.019732, -0.096931, 0.169946, 0.064355, 0.228648, 0.187353, -0.053820, 0.210388, 0.059566, 0.107406, 0.058579, -0.048339, 0.212842, 0.145517, -0.085185, -0.026661, 0.122964, 0.066274, 0.447769, 0.209629, 0.148763, -0.052058, 0.003228, -0.064085, 0.183365, -0.058389, 0.093720, 0.180315, 0.168839, -0.265369, 0.253659, 0.170104, -0.300406, 0.048246, -0.079142, -0.192734, -0.002531, -0.067078, 0.306576, 0.019078, -0.004480, -0.006903, 0.026277, -0.069218, 0.082991, -0.087431, 0.144894, 0.087742, -0.101634, -0.058964, 0.065036, 0.070172, -0.166678, 0.276417, 0.093364, -0.081588, -0.081549, -0.060911, -0.058565, 0.011305, 0.162368, 0.006868, 0.156258, -0.247950, -0.184496, -0.145964, 0.016429, 0.137855, -0.022657, -0.072416, 0.361744, 0.106550, -0.370003, -0.104130, -0.180027, 0.037215, 0.095620, -0.042296, -0.198825, 0.011535, -0.030115, 0.052073, 0.006277, -0.197067, 0.011160, 0.102897, 0.184440, 0.118148, -0.040474, 0.005163, -0.199174, -0.207997, -0.119931, 0.002327, -0.048733, 0.042709, -0.251665, -0.071420, -0.007930, -0.000805, 0.094883, -0.069666, 0.238318, -0.075701, -0.087910, -0.160722, -0.086102, -0.081555, -0.105646, -0.113052, 0.024263, 0.090113, -0.011987, -0.110453, -0.020269, 0.173733, 0.071621, -0.052070, -0.109349, -0.140365, 0.154059, 0.050814, -0.063170, 0.149961, -0.298559, -0.150853, 0.042282, -0.028567, -0.238292, 0.058950, 0.159154, 0.084991, 0.169533, 0.215634, -0.075488, -0.195005, 0.117770, 0.037835, 0.273187, -0.025707, 0.076879, 0.196669, -0.206251, 0.040399, -0.033407, -0.313458, -0.149347, -0.017262, 0.071237, 0.196936, 0.103622, -0.137137, -0.094902, 0.108118, 0.094513, -0.340879, -0.219423, 0.212359, 0.028343, 0.022548, 0.061786, 0.252937, 0.083900, -0.068274, 0.167415, 0.024573, -0.147272, 0.007625, -0.018407, 0.000032, 0.061625, -0.106294, 0.002937, -0.294571, -0.157478, -0.193520, -0.389195, -0.140838, 0.092176, 0.066368, 0.030686, 0.103125, 0.020385, 0.103098, 0.246206, 0.190157, 0.019707, -0.056183, 0.116394, 0.129943, 0.001561, -0.114364, 0.033235, -0.048908, -0.011592, -0.306148, -0.035285, 0.013319, 0.121878, -0.014114, 0.358959, -0.114416, -0.146532, 0.289083, -0.003945, -0.055926, -0.082950, -0.076177, 0.066726, 0.076829, 0.101318, -0.077447, -0.117405, 0.179194, 0.233983, 0.000708, -0.125859, 0.015255, -0.103722, -0.094504, 0.039017, -0.137734, 0.048229, -0.016719, 0.106955, 0.031225, -0.082252, 0.130800, -0.145647, 0.014207, 0.144007, -0.108767, 0.126865, 0.017894, 0.014663, -0.032649, 0.150611, -0.013075, 0.020688, 0.213802, 0.132839, -0.127992, -0.003510, -0.200662, -0.157218, 0.139434, -0.054830, -0.374077, 0.103295, -0.066863, -0.124976, -0.331792, 0.159213, 0.032603, -0.052644, -0.004971, 0.107401, -0.077319, -0.212827, 0.178722, -0.025349, -0.093480}};

#endif
