//Numpy array shape [16, 48]
//Min -0.509936094284
//Max 0.392852813005
//Number of zeros 0

#ifndef WR5_H_
#define WR5_H_

[[intel::fpga_register]] static constexpr wr5_t wr5 = {{0.234392, 0.089368, -0.007860, -0.338062, 0.015407, -0.074379, 0.348840, -0.143491, 0.047578, 0.169848, -0.012035, 0.066592, -0.135775, 0.189541, 0.298107, -0.046791, -0.001073, -0.098880, -0.033933, 0.042495, -0.099103, 0.047081, -0.066302, -0.355694, 0.021782, 0.035750, 0.101586, 0.140384, -0.041839, -0.143448, -0.016604, 0.278330, 0.161974, 0.240594, -0.044178, 0.042634, -0.026632, -0.215733, 0.000440, 0.040546, -0.210199, -0.057990, 0.040705, -0.029470, 0.209017, 0.026558, 0.260224, 0.046404, -0.065633, 0.153402, 0.116577, -0.131886, -0.156498, -0.261891, -0.145120, -0.100201, -0.024070, -0.023181, 0.114870, 0.139686, -0.084298, 0.149233, -0.044361, -0.020900, -0.211360, 0.004112, 0.038647, -0.169541, 0.112050, -0.197248, 0.129222, -0.046035, -0.010333, 0.217249, 0.161291, -0.200287, 0.119334, -0.330563, -0.145464, 0.236572, 0.025046, 0.124810, -0.099098, -0.221703, -0.022774, 0.129022, 0.140928, -0.313991, 0.032841, 0.213255, 0.201994, -0.049140, 0.105789, 0.161157, -0.018928, -0.123737, -0.127835, 0.148287, -0.141095, -0.127730, 0.029893, 0.071822, -0.161048, 0.279022, -0.216311, 0.096844, 0.115651, 0.033511, 0.307630, 0.119948, -0.250934, -0.006567, -0.141259, 0.215062, 0.001378, -0.140089, -0.067866, 0.190378, -0.049077, 0.033824, 0.157896, -0.046055, -0.167382, -0.110261, 0.035555, -0.257538, -0.179284, 0.124399, 0.007393, 0.158188, 0.209971, -0.160191, -0.090878, 0.182438, -0.072864, 0.019818, -0.186200, 0.062880, 0.003962, 0.104251, 0.079936, -0.119821, 0.147809, -0.045538, 0.190115, 0.070649, 0.240581, -0.349478, -0.047947, 0.035460, 0.041509, 0.058292, 0.075185, -0.026661, 0.015749, -0.069056, 0.031728, -0.001061, 0.074491, 0.173112, 0.202575, -0.170967, -0.185474, 0.019677, -0.197279, -0.098607, 0.143137, -0.190752, -0.160073, 0.223628, -0.156156, 0.047612, -0.069645, -0.107279, -0.228457, -0.228730, 0.109159, -0.025755, 0.100417, -0.007024, -0.085398, -0.118118, 0.123781, -0.178228, 0.009068, -0.147114, -0.155286, 0.288072, 0.268160, -0.031071, -0.208914, 0.108043, 0.070774, -0.063509, 0.040891, -0.011050, -0.509936, 0.128993, 0.111457, 0.098354, 0.210455, 0.047305, 0.040716, 0.047376, 0.006002, -0.119241, -0.059001, -0.007494, 0.003555, 0.018063, -0.303253, 0.000226, -0.270128, -0.084484, -0.148896, -0.011234, 0.022930, -0.023117, 0.125660, -0.158975, 0.050705, -0.211145, 0.089821, -0.198550, 0.094298, 0.184685, 0.013669, 0.093829, 0.118958, -0.051506, -0.073445, 0.067594, 0.078612, 0.205609, 0.318860, -0.118137, 0.029239, -0.046494, 0.165805, 0.163887, -0.066504, -0.267305, 0.034872, -0.197537, 0.125147, -0.087281, 0.133766, -0.138327, -0.093680, -0.376527, 0.187695, -0.024678, -0.085532, -0.203621, -0.033749, 0.197434, -0.017117, 0.147567, -0.319892, -0.194606, 0.075863, 0.091958, -0.175508, -0.024728, -0.039825, -0.182099, -0.085505, 0.187553, -0.044456, 0.043138, -0.110544, -0.235741, 0.351096, -0.028321, 0.054173, 0.053358, 0.103490, 0.054987, 0.026817, 0.085189, -0.099761, 0.081032, 0.069487, 0.141562, 0.126637, 0.016120, -0.359613, 0.024410, 0.068961, -0.172823, 0.057505, 0.133721, -0.110537, 0.035219, -0.152563, -0.014245, 0.090664, -0.260116, 0.301797, 0.075987, 0.111113, 0.299775, 0.116465, 0.079489, 0.010525, -0.180934, -0.140183, -0.083301, -0.181023, 0.082517, 0.040176, -0.118621, -0.039481, -0.055641, -0.177303, -0.231208, 0.392853, 0.238138, -0.037343, 0.246532, 0.066029, 0.031144, 0.093957, -0.117206, 0.256585, 0.292972, -0.122445, -0.205716, -0.146382, 0.240777, 0.103574, 0.002164, -0.166317, 0.106562, -0.109737, -0.011647, 0.178705, -0.158226, 0.105353, 0.016912, -0.130103, -0.134358, -0.228040, -0.112220, -0.307146, -0.034391, -0.105988, -0.176078, -0.096105, -0.057550, 0.042265, -0.010946, 0.297314, -0.170693, -0.000044, -0.168916, 0.104079, -0.046610, -0.113128, 0.347217, 0.269576, 0.090219, -0.079745, -0.021356, 0.196124, 0.131099, 0.008354, -0.093868, 0.067512, -0.163279, -0.012909, 0.081624, -0.049754, 0.209609, -0.173551, -0.055233, -0.257947, -0.011448, 0.088904, -0.177174, -0.084195, 0.323671, -0.039997, 0.155002, 0.028026, 0.011761, 0.163818, -0.039244, 0.078337, -0.038966, -0.274090, 0.057647, -0.032971, -0.176216, -0.084654, 0.050378, -0.179417, -0.126184, 0.071904, -0.137135, 0.027109, -0.094943, -0.157586, 0.043361, 0.053937, 0.119835, 0.074610, 0.039005, -0.156312, -0.120895, -0.039547, -0.066193, 0.185772, -0.106280, 0.169293, -0.114225, -0.076119, -0.066027, -0.027202, 0.016989, -0.044165, 0.010524, -0.065753, 0.087876, 0.176317, 0.102242, 0.061046, 0.053790, 0.104386, 0.030607, -0.084712, 0.055186, 0.130793, 0.056992, 0.197627, 0.000953, -0.182280, -0.331954, 0.034813, 0.103708, -0.403338, 0.067775, 0.119837, -0.038174, 0.137522, -0.100406, -0.017283, -0.060413, 0.323008, -0.104705, -0.140093, 0.014322, 0.275659, 0.130803, 0.000642, 0.084203, -0.101145, 0.084983, -0.152880, -0.031229, 0.106613, -0.264499, 0.020862, 0.182393, 0.011224, -0.374911, -0.130671, -0.112447, 0.082047, -0.189154, 0.080329, 0.172790, -0.096762, -0.017711, 0.097621, -0.022671, -0.199237, 0.070767, -0.097849, -0.064960, -0.081993, -0.048332, 0.253245, -0.159034, -0.099005, -0.158874, -0.224923, 0.030411, 0.070719, 0.057361, -0.170678, -0.008658, 0.064812, 0.050578, -0.095164, -0.064439, -0.156865, 0.030886, 0.026166, 0.251097, 0.253872, -0.143331, 0.060239, -0.170500, -0.023488, 0.025087, 0.073131, -0.007393, 0.105494, 0.063478, -0.200452, -0.122229, 0.039250, 0.213834, 0.070591, -0.066351, -0.116771, 0.060625, 0.049831, -0.050435, -0.101273, -0.240341, 0.085723, -0.116180, -0.056320, 0.102710, -0.002439, 0.012568, -0.041617, 0.149883, -0.238490, -0.013990, -0.111161, -0.018200, 0.100227, -0.055667, -0.035425, -0.124376, -0.312821, -0.051872, -0.081977, 0.155498, 0.000347, 0.316093, -0.042787, 0.110252, -0.033432, 0.027554, -0.091604, 0.288240, -0.022756, -0.040286, -0.233193, -0.080612, 0.220272, -0.042081, 0.083998, -0.060949, -0.106294, -0.031778, -0.034125, -0.041987, -0.073467, 0.188305, -0.105654, -0.118025, -0.197646, -0.158056, 0.147266, 0.209162, 0.007967, -0.372061, 0.019328, -0.053245, 0.038179, -0.073365, 0.025039, -0.103542, 0.121757, 0.030444, -0.089653, 0.225833, 0.152397, 0.050507, 0.100138, -0.144875, 0.298740, 0.050298, 0.197487, -0.201423, 0.050674, -0.182226, 0.302057, 0.297428, -0.024724, 0.015351, 0.021252, -0.180403, -0.179940, -0.187282, 0.149615, -0.094977, 0.026913, -0.025091, -0.006581, -0.021604, -0.281474, 0.045836, 0.148824, -0.082299, -0.032819, -0.237431, 0.176231, 0.066281, -0.307970, -0.235254, 0.067581, -0.167761, -0.080995, -0.168732, 0.142749, -0.198229, 0.182705, -0.073305, 0.237680, -0.072185, -0.025490, 0.005321, -0.181735, 0.093587, -0.058420, 0.097768, 0.121256, 0.035940, 0.145817, -0.074235, -0.220739, -0.026384, -0.161769, 0.153108, -0.154980, 0.018920, -0.204201, -0.281793, -0.037375, -0.114148, -0.064787, 0.098193, -0.082475, -0.143897, 0.047994, 0.134035, 0.009983, -0.030965, -0.104991, 0.007928, 0.203691, 0.236279, -0.166668, 0.097064, 0.008666, -0.027432, 0.069825, 0.249721, 0.007887, -0.171476, 0.120287, -0.135056, -0.316019, -0.072502, -0.126251, 0.190631, 0.041048, 0.214844, 0.019122, 0.167404, 0.074736, -0.041692, 0.116454, 0.018540, 0.054308, -0.104214, -0.143208, -0.279464, 0.137848, 0.097715, 0.029535, -0.068080, 0.032180, -0.034797, 0.307514, -0.021163, 0.085670, -0.006923, -0.024381, -0.127415, 0.187243, -0.166325, -0.009765, -0.212719, 0.032709, 0.091958, -0.272261, -0.120812, -0.133401, -0.073922, -0.003129, -0.041310, 0.125963, -0.198888, -0.062175, 0.067077, 0.027196, 0.034281, 0.073747, 0.073469, 0.115868, 0.091303, 0.069406, 0.299542, 0.058176, -0.031646, -0.306248, -0.190412, 0.073069, -0.190817, 0.015941, -0.083354, 0.179334, -0.092765, 0.284233, -0.110190, 0.046510, 0.078959, -0.040897, -0.145245, -0.022389, 0.005963, 0.153826, -0.052629, 0.067853, 0.028344, 0.365799, 0.083823, -0.077733, -0.198833, -0.035867, -0.351903, -0.022277, 0.055706, -0.142016, -0.201704, 0.202140, 0.072574, -0.042716, 0.280372, 0.097646, -0.058903, 0.082912, -0.152634, 0.099935, -0.166458, 0.042577, 0.268410, 0.145313, -0.077479, 0.076503, -0.019853}};

#endif
