//Numpy array shape [64]
//Min -0.058593750000
//Max 0.070312500000
//Number of zeros 0

#ifndef B9_H_
#define B9_H_

[[intel::fpga_register]] static constexpr b9_t b9 = {{0.035156250000000, -0.013671875000000, -0.005126953125000, 0.029296875000000, -0.021484375000000, -0.015136718750000, 0.005126953125000, -0.009277343750000, -0.007324218750000, 0.019531250000000, 0.025390625000000, 0.027343750000000, 0.033203125000000, -0.025390625000000, 0.007812500000000, 0.028320312500000, -0.007080078125000, 0.012207031250000, -0.035156250000000, -0.001586914062500, -0.014160156250000, -0.058593750000000, 0.021484375000000, 0.023437500000000, -0.005371093750000, -0.024414062500000, 0.070312500000000, 0.013183593750000, -0.024414062500000, 0.033203125000000, 0.029296875000000, 0.011230468750000, 0.021484375000000, -0.003784179687500, -0.026367187500000, 0.023437500000000, -0.035156250000000, 0.018554687500000, 0.013183593750000, -0.021484375000000, -0.006103515625000, -0.037109375000000, -0.005859375000000, 0.007080078125000, -0.028320312500000, 0.003906250000000, -0.033203125000000, -0.048828125000000, 0.009277343750000, -0.033203125000000, -0.009765625000000, 0.028320312500000, 0.058593750000000, 0.035156250000000, 0.021484375000000, -0.010253906250000, -0.003295898437500, 0.029296875000000, -0.012695312500000, -0.007080078125000, -0.000823974609375, -0.042968750000000, 0.025390625000000, 0.041015625000000}};

#endif
