//Numpy array shape [4, 48]
//Min -0.335154980421
//Max 0.336591541767
//Number of zeros 0

#ifndef W4_H_
#define W4_H_

[[intel::fpga_register]] static constexpr w4_t w4 = {{0.135871, 0.106179, -0.327559, 0.184132, 0.224317, 0.291538, 0.082490, 0.082105, 0.185364, -0.178406, -0.010303, -0.176508, 0.262906, 0.294340, 0.032647, -0.028979, 0.122236, 0.254985, -0.130936, -0.269594, 0.274269, -0.140426, -0.094984, -0.157881, -0.327069, -0.016731, 0.033028, 0.064092, -0.304908, -0.082326, 0.136150, -0.125507, -0.318896, 0.274614, 0.203478, 0.027006, -0.294220, 0.300678, -0.292824, 0.336592, 0.086408, 0.156007, -0.207100, -0.144884, 0.239932, 0.169379, 0.224865, -0.106346, -0.036093, 0.177628, 0.333975, -0.335155, -0.062542, -0.265516, -0.230829, -0.145611, -0.149831, -0.064765, -0.318964, 0.162372, 0.261952, 0.124144, -0.078974, 0.130994, -0.085190, 0.285519, -0.187445, 0.077051, -0.291408, -0.087894, -0.307654, 0.180899, -0.117531, -0.288727, 0.021456, -0.206173, 0.061360, 0.023272, 0.063309, -0.231877, -0.310059, 0.026115, -0.034044, 0.190326, -0.076433, -0.327245, -0.033761, -0.056693, -0.050768, -0.037001, 0.174616, 0.170298, 0.047251, 0.116395, 0.247216, 0.233029, 0.315817, -0.305344, 0.285519, -0.332884, 0.029925, 0.143276, 0.250285, -0.288344, 0.207336, 0.201278, 0.238699, 0.303959, -0.277530, -0.116622, -0.074883, -0.120086, 0.236953, -0.168709, 0.086470, 0.045294, 0.321682, 0.199490, -0.079102, -0.255496, 0.048762, 0.201051, -0.299187, -0.135335, -0.082299, 0.011169, 0.200017, -0.092222, -0.254155, -0.055750, 0.011533, -0.082781, -0.261481, -0.288893, 0.008416, 0.002413, 0.235000, -0.244475, -0.123215, -0.155471, -0.036175, 0.307580, 0.008448, -0.219946, 0.138649, -0.228566, -0.040160, -0.055073, -0.161362, 0.259133, 0.242008, 0.129103, -0.326470, -0.032178, -0.217107, 0.280594, -0.103958, -0.220038, -0.040222, -0.028373, 0.085868, -0.030450, -0.018342, -0.025493, -0.214040, -0.306189, 0.049207, -0.136122, 0.253685, 0.135606, -0.154492, -0.121260, -0.142288, 0.000876, -0.020854, 0.195970, -0.185181, 0.006857, 0.294081, -0.050250, -0.323849, -0.241633, 0.198989, -0.206290, 0.114871, 0.015062, -0.134935, -0.224580, 0.189318, -0.304046, -0.034698, -0.323696}};

#endif
