//Numpy array shape [16, 48]
//Min -0.435451149940
//Max 0.467092990875
//Number of zeros 0

#ifndef WR4_H_
#define WR4_H_

[[intel::fpga_register]] static constexpr wr4_t wr4 = {{0.026957, -0.054537, -0.164583, -0.108809, 0.193127, -0.314987, 0.281265, -0.044588, -0.111811, 0.184163, 0.118624, 0.112675, 0.188414, 0.321015, 0.101656, 0.094341, -0.168905, 0.112236, 0.072215, 0.101764, 0.088070, 0.174544, 0.044122, -0.052878, -0.140676, -0.300739, -0.042143, 0.327264, -0.042557, 0.074921, 0.002452, -0.064183, 0.132175, 0.117855, 0.105160, 0.147698, -0.023066, 0.075773, -0.054924, -0.071859, 0.023464, 0.156239, -0.130989, 0.034085, 0.068864, -0.214755, 0.166780, -0.209316, -0.076226, 0.048918, -0.008793, -0.040014, 0.117401, -0.117372, 0.098539, 0.174220, 0.059301, -0.051251, 0.347529, -0.072782, 0.056439, -0.206284, 0.247004, -0.044000, -0.006015, -0.034583, 0.411753, -0.079257, 0.043841, -0.215738, -0.325975, 0.012908, -0.100180, -0.040561, -0.138032, 0.071771, -0.244490, 0.122129, 0.224345, -0.210602, -0.000649, -0.030861, 0.034904, -0.253778, 0.023348, 0.179499, -0.144120, 0.169079, 0.069187, 0.078138, 0.084868, 0.075878, 0.005968, 0.033343, -0.032888, 0.184301, 0.008788, -0.137743, -0.043112, 0.211226, -0.053525, -0.074383, -0.054523, -0.312018, 0.102354, -0.079737, 0.119006, -0.035829, -0.002297, 0.037098, -0.087352, -0.030865, 0.164619, -0.256361, 0.086638, -0.217533, 0.080457, -0.207040, -0.122172, 0.078507, -0.019268, -0.070582, -0.131291, 0.067798, 0.015007, 0.050675, -0.136752, 0.163769, -0.026869, -0.036766, -0.050752, -0.045738, -0.299995, 0.143636, 0.239196, -0.089356, 0.071943, 0.162274, -0.066848, -0.139810, 0.000610, -0.006783, 0.106976, 0.112346, -0.087936, -0.249441, -0.185816, 0.156846, -0.032823, -0.101566, -0.078404, 0.007201, -0.122595, 0.000222, -0.005370, 0.149414, 0.015277, 0.050793, 0.286775, 0.223278, -0.018199, -0.173341, -0.015118, 0.166232, -0.096002, -0.114808, -0.185591, -0.251740, 0.016402, 0.047580, 0.008791, 0.017484, 0.063745, -0.136367, -0.163225, -0.038263, 0.130322, 0.027896, 0.086074, -0.125639, -0.058912, -0.057881, -0.029665, -0.072888, 0.160823, 0.245821, -0.051180, 0.205497, -0.052319, -0.129498, -0.201652, -0.221982, -0.035970, -0.063033, 0.156092, 0.112183, -0.084907, -0.164607, -0.105333, 0.213445, -0.069935, 0.187861, 0.219700, -0.118435, 0.182220, 0.018872, 0.142242, 0.176990, -0.003428, 0.169217, 0.169028, -0.006266, -0.099630, -0.000014, 0.043675, -0.029045, -0.190986, -0.113065, 0.121778, 0.087969, 0.075905, -0.005836, 0.058521, 0.203375, 0.225866, -0.062309, -0.215326, 0.058945, 0.069524, -0.049870, 0.092120, 0.090744, 0.163891, -0.187522, -0.161015, -0.076486, 0.013212, 0.109558, 0.069873, -0.025341, 0.044602, 0.037056, 0.119834, 0.079190, -0.243183, 0.042152, 0.062582, 0.035072, 0.169573, -0.192054, 0.097510, 0.118821, -0.073380, 0.223146, -0.040996, 0.022343, 0.204969, 0.015210, 0.148082, -0.000973, -0.068342, -0.083156, -0.038642, -0.179351, 0.075176, -0.088450, 0.183742, -0.123147, 0.397404, -0.106386, 0.030943, 0.137261, -0.184175, -0.108604, 0.157749, 0.010656, -0.073178, -0.227223, 0.114413, 0.216184, -0.015563, -0.151607, 0.021368, -0.087628, -0.048351, 0.025245, 0.093199, 0.164928, 0.042053, 0.068495, 0.363674, -0.045045, 0.390348, -0.022839, 0.291325, -0.139767, -0.078327, 0.055781, -0.029328, -0.050505, 0.019376, -0.114287, -0.078792, 0.071806, -0.010279, -0.062215, -0.129099, 0.248992, 0.140375, -0.118200, 0.002388, 0.001535, -0.099590, 0.123911, 0.177056, -0.122488, -0.415544, -0.005247, 0.067626, -0.115649, 0.045653, 0.229920, -0.001395, 0.083033, -0.075320, -0.165280, 0.086417, 0.032918, -0.129431, -0.245091, -0.014772, -0.287707, -0.084831, -0.063030, -0.365008, -0.007188, 0.235522, 0.018993, -0.056765, -0.003192, 0.146156, -0.335665, 0.014208, -0.205293, 0.120580, -0.044252, 0.014833, 0.070069, 0.086734, 0.060889, -0.007366, -0.018886, 0.101716, 0.109234, -0.218869, 0.005551, -0.286661, -0.087040, -0.058126, -0.006021, -0.039343, 0.108585, -0.015955, 0.129788, -0.057667, -0.158501, 0.015691, 0.019867, 0.156286, -0.084219, 0.052547, 0.169488, 0.291886, 0.128642, -0.041709, -0.003048, 0.014154, -0.222682, -0.148389, 0.237787, -0.077467, -0.148186, 0.078013, 0.169988, -0.005268, 0.111424, -0.022306, 0.083524, -0.025753, -0.064980, -0.039063, -0.069430, 0.035517, 0.029838, 0.057409, 0.282574, 0.203019, -0.257243, 0.213096, 0.043713, -0.157112, 0.134506, 0.019558, 0.030541, -0.140728, -0.025687, 0.054715, 0.054557, -0.100098, -0.099762, -0.060791, -0.029902, -0.113868, 0.048831, 0.054727, -0.050199, 0.013297, -0.229671, 0.113778, -0.045346, -0.023160, -0.110691, 0.092891, -0.272673, -0.063208, -0.154046, 0.145514, -0.066786, -0.180131, -0.029294, 0.149840, -0.103688, 0.225655, -0.072101, 0.014563, -0.093457, -0.001195, 0.317981, -0.120013, -0.104884, -0.071359, -0.237274, 0.374796, 0.084987, 0.214599, 0.118638, 0.053627, -0.319321, 0.080375, -0.211832, 0.089397, 0.131537, -0.127319, 0.037939, 0.184793, -0.045025, 0.109084, 0.131948, -0.170858, 0.076975, -0.025685, 0.176016, 0.015751, -0.055485, 0.170994, 0.016577, 0.070145, -0.121332, 0.097099, 0.210524, 0.204093, -0.046978, -0.034023, 0.174492, 0.238823, -0.078930, -0.123855, 0.182645, 0.170884, -0.123220, -0.232498, 0.208535, 0.097171, -0.060980, 0.193922, -0.142061, -0.082008, -0.209082, 0.114431, 0.089915, -0.127990, 0.216229, 0.129779, 0.202113, -0.013229, 0.028616, 0.018601, -0.217118, -0.082161, -0.098953, 0.126625, -0.076192, 0.014680, 0.167758, -0.136160, -0.050562, -0.252069, 0.072492, 0.129369, -0.177546, -0.067914, -0.126394, -0.267531, 0.154383, 0.096758, 0.388255, 0.113922, 0.064211, 0.115583, -0.179328, 0.053469, 0.079686, -0.019379, -0.098501, 0.143780, 0.087104, -0.151602, 0.071509, -0.026501, 0.195806, -0.131676, -0.131478, 0.079309, -0.079411, -0.357794, 0.005781, 0.386991, -0.064123, -0.153131, -0.338137, 0.120868, 0.196433, 0.194369, -0.093394, 0.011533, -0.254063, 0.174475, 0.241700, -0.173104, 0.037887, -0.190534, -0.011338, -0.005895, 0.149038, -0.006455, 0.050938, 0.041673, -0.078458, 0.024991, 0.124042, 0.103544, -0.031450, -0.106270, -0.077447, 0.029448, 0.139051, 0.044029, 0.253724, -0.112057, 0.106993, 0.028212, 0.209577, 0.094829, 0.051408, -0.238699, 0.075104, 0.044876, 0.133323, 0.250655, 0.043631, 0.094197, 0.151927, -0.231202, 0.165766, -0.104039, 0.099457, 0.010642, -0.162025, 0.115761, 0.087672, -0.025782, 0.130255, -0.138215, -0.209394, -0.080534, -0.071285, -0.022657, 0.174482, 0.100489, -0.141050, -0.289000, -0.119374, -0.330269, -0.198054, 0.237669, 0.145949, 0.250350, -0.135437, 0.052919, 0.025369, -0.036951, 0.077835, -0.053167, 0.024915, -0.068293, -0.058302, 0.045217, 0.075795, 0.029528, 0.139000, -0.086619, 0.459357, -0.153759, 0.168057, -0.026460, -0.154175, 0.067427, -0.100332, -0.028966, 0.117999, -0.208692, -0.149780, -0.063658, -0.229503, 0.079920, -0.119342, -0.125855, 0.048892, -0.101574, 0.277288, -0.268624, -0.229420, 0.157904, -0.233236, 0.036105, 0.205900, 0.038867, -0.164312, 0.165281, 0.269013, -0.065274, -0.101775, -0.031371, -0.095329, -0.017269, 0.048333, 0.111388, -0.042174, -0.090052, -0.137682, 0.048363, 0.123841, 0.077254, -0.228112, 0.282209, -0.112557, 0.009639, 0.004105, -0.152764, -0.103163, 0.066013, 0.353381, 0.152178, 0.021502, -0.031421, 0.264865, -0.015359, 0.105296, -0.105907, 0.002994, -0.175507, 0.111868, -0.079252, -0.008479, 0.173297, 0.194893, 0.033728, -0.043363, -0.395132, 0.130502, -0.208667, -0.037654, 0.070553, 0.084832, -0.107066, -0.021647, 0.131611, -0.073583, 0.103762, 0.215750, -0.038839, -0.051700, 0.153803, 0.034388, -0.340667, -0.321665, 0.025994, -0.031131, -0.004588, -0.097988, -0.009083, 0.111244, 0.155378, -0.069279, 0.258018, 0.077914, 0.169019, 0.071148, -0.291115, -0.300589, 0.084315, -0.077556, 0.267223, 0.228572, -0.061581, 0.044602, 0.247665, 0.322945, 0.467093, -0.135056, -0.084810, 0.087012, 0.017450, 0.060071, 0.142092, -0.065950, -0.088781, -0.091598, -0.046470, 0.054689, 0.041534, 0.044417, 0.089646, 0.046347, 0.059908, -0.185816, -0.103809, -0.103142, 0.268786, -0.122231, -0.105222, 0.026644, -0.038508, 0.168676, 0.172595, -0.280293, -0.435451, -0.169731, 0.153794, -0.125106, -0.089211, -0.105350, -0.108886, 0.147922, 0.085526, 0.033850, 0.052399, -0.025029}};

#endif
