//Numpy array shape [64]
//Min -0.050781250000
//Max 0.052734375000
//Number of zeros 0

#ifndef B3_H_
#define B3_H_

[[intel::fpga_register]] static constexpr b3_t b3 = {{-0.006103515625000, -0.012695312500000, 0.019531250000000, -0.003540039062500, 0.044921875000000, 0.027343750000000, 0.013671875000000, 0.017578125000000, -0.037109375000000, -0.019531250000000, -0.042968750000000, 0.027343750000000, 0.022460937500000, -0.026367187500000, 0.011718750000000, 0.016601562500000, -0.030273437500000, 0.017578125000000, 0.025390625000000, -0.035156250000000, 0.005126953125000, 0.025390625000000, 0.007812500000000, 0.037109375000000, 0.035156250000000, -0.011230468750000, 0.025390625000000, -0.009765625000000, -0.046875000000000, 0.018554687500000, 0.000274658203125, 0.010742187500000, -0.005859375000000, -0.024414062500000, -0.022460937500000, 0.022460937500000, 0.042968750000000, 0.005615234375000, 0.050781250000000, 0.018554687500000, 0.031250000000000, -0.018554687500000, 0.008300781250000, -0.020507812500000, -0.001159667968750, -0.024414062500000, -0.026367187500000, 0.039062500000000, -0.027343750000000, -0.009765625000000, -0.050781250000000, 0.035156250000000, 0.052734375000000, 0.022460937500000, 0.050781250000000, 0.031250000000000, -0.041015625000000, 0.044921875000000, 0.035156250000000, -0.001770019531250, 0.037109375000000, -0.006591796875000, -0.030273437500000, 0.012695312500000}};

#endif
