//Numpy array shape [64]
//Min -0.046875000000
//Max 0.062500000000
//Number of zeros 0

#ifndef B6_H_
#define B6_H_

[[intel::fpga_register]] static constexpr b6_t b6 = {{0.0102539062500000, 0.0625000000000000, 0.0068359375000000, 0.0253906250000000, 0.0527343750000000, -0.0029296875000000, -0.0003814697265625, 0.0185546875000000, -0.0151367187500000, 0.0263671875000000, 0.0507812500000000, -0.0185546875000000, 0.0273437500000000, -0.0112304687500000, 0.0292968750000000, -0.0351562500000000, -0.0048828125000000, -0.0141601562500000, 0.0585937500000000, -0.0371093750000000, 0.0312500000000000, -0.0351562500000000, -0.0083007812500000, 0.0117187500000000, 0.0292968750000000, -0.0175781250000000, -0.0166015625000000, -0.0024414062500000, 0.0312500000000000, 0.0263671875000000, 0.0041503906250000, 0.0185546875000000, -0.0332031250000000, -0.0195312500000000, 0.0122070312500000, -0.0078125000000000, 0.0112304687500000, 0.0023193359375000, -0.0205078125000000, 0.0429687500000000, 0.0007629394531250, -0.0205078125000000, 0.0292968750000000, 0.0312500000000000, -0.0131835937500000, -0.0034179687500000, -0.0195312500000000, -0.0005798339843750, 0.0205078125000000, 0.0083007812500000, -0.0371093750000000, -0.0351562500000000, -0.0068359375000000, 0.0028076171875000, -0.0312500000000000, 0.0003814697265625, 0.0410156250000000, -0.0273437500000000, -0.0092773437500000, -0.0273437500000000, -0.0468750000000000, -0.0292968750000000, -0.0195312500000000, -0.0136718750000000}};

#endif
