//Numpy array shape [4, 64]
//Min -0.343750000000
//Max 0.312500000000
//Number of zeros 0

#ifndef W3_H_
#define W3_H_

[[intel::fpga_register]] static constexpr w3_t w3 = {{0.2812500000000, -0.2421875000000, 0.1015625000000, 0.0371093750000, -0.0371093750000, -0.2343750000000, 0.0063476562500, 0.0898437500000, 0.0126953125000, 0.2109375000000, -0.1054687500000, -0.2343750000000, -0.1875000000000, 0.1093750000000, -0.0273437500000, -0.1328125000000, 0.0898437500000, 0.1093750000000, 0.1093750000000, 0.2812500000000, 0.0859375000000, 0.2656250000000, -0.0937500000000, -0.2656250000000, 0.1953125000000, 0.1562500000000, 0.1718750000000, -0.3437500000000, -0.2500000000000, -0.0566406250000, -0.0898437500000, 0.0781250000000, 0.2500000000000, 0.2187500000000, 0.2500000000000, 0.1171875000000, 0.0585937500000, 0.0625000000000, -0.0429687500000, 0.0937500000000, -0.0061035156250, 0.0781250000000, 0.1171875000000, -0.0859375000000, -0.1132812500000, 0.0625000000000, 0.2812500000000, 0.2500000000000, 0.0566406250000, -0.2812500000000, 0.2109375000000, 0.2968750000000, 0.1953125000000, 0.0742187500000, 0.1406250000000, 0.0156250000000, -0.3281250000000, -0.2812500000000, 0.0898437500000, -0.0566406250000, 0.1718750000000, 0.3125000000000, -0.0156250000000, 0.2187500000000, -0.0205078125000, -0.2109375000000, 0.0371093750000, -0.1875000000000, -0.2421875000000, -0.2812500000000, -0.1875000000000, 0.3125000000000, -0.0820312500000, -0.1562500000000, 0.2187500000000, 0.1875000000000, 0.2343750000000, -0.1328125000000, -0.1484375000000, 0.1250000000000, -0.3281250000000, -0.2343750000000, -0.2265625000000, 0.0585937500000, 0.1171875000000, -0.3281250000000, 0.1640625000000, 0.1328125000000, -0.0664062500000, 0.2968750000000, -0.2656250000000, 0.2812500000000, 0.0898437500000, 0.0263671875000, 0.0585937500000, 0.2968750000000, 0.1093750000000, 0.1640625000000, -0.3125000000000, -0.1015625000000, 0.0195312500000, 0.2265625000000, 0.2265625000000, -0.0075683593750, -0.3281250000000, 0.2812500000000, -0.0131835937500, 0.1328125000000, -0.2031250000000, 0.1406250000000, -0.2343750000000, 0.0664062500000, -0.0429687500000, -0.0937500000000, -0.1640625000000, 0.1328125000000, 0.0146484375000, 0.0703125000000, -0.2109375000000, -0.2109375000000, -0.1171875000000, 0.1640625000000, 0.1953125000000, -0.0742187500000, 0.2343750000000, -0.2968750000000, 0.0351562500000, -0.0312500000000, 0.1640625000000, -0.0166015625000, 0.0507812500000, 0.0046386718750, -0.0976562500000, -0.2265625000000, -0.2500000000000, -0.1562500000000, -0.1328125000000, 0.1718750000000, 0.0976562500000, -0.1562500000000, -0.1328125000000, -0.1796875000000, 0.0625000000000, -0.0468750000000, -0.0151367187500, 0.0025634765625, 0.2968750000000, 0.2500000000000, 0.1406250000000, -0.0028076171875, -0.1484375000000, -0.1796875000000, 0.2968750000000, 0.0283203125000, -0.0781250000000, -0.1875000000000, -0.2031250000000, 0.2812500000000, -0.0527343750000, -0.2031250000000, 0.2656250000000, -0.1953125000000, 0.1562500000000, -0.2812500000000, 0.2031250000000, 0.1796875000000, 0.2500000000000, -0.1640625000000, 0.0292968750000, -0.0976562500000, 0.2968750000000, -0.1953125000000, -0.2500000000000, 0.1484375000000, -0.2812500000000, -0.0351562500000, 0.2343750000000, -0.1562500000000, -0.0117187500000, 0.2500000000000, 0.1953125000000, -0.2500000000000, 0.0585937500000, 0.0263671875000, 0.1718750000000, -0.2656250000000, 0.0488281250000, -0.1953125000000, -0.0151367187500, -0.1562500000000, 0.1328125000000, 0.2656250000000, 0.1796875000000, 0.1406250000000, -0.0302734375000, 0.1875000000000, 0.0898437500000, 0.2500000000000, -0.2656250000000, 0.2968750000000, -0.1562500000000, 0.1171875000000, 0.1796875000000, -0.0703125000000, 0.0859375000000, -0.0664062500000, 0.1250000000000, -0.2812500000000, 0.2500000000000, 0.0390625000000, 0.0781250000000, -0.2343750000000, 0.0371093750000, 0.2187500000000, 0.3125000000000, 0.2968750000000, 0.2109375000000, 0.0546875000000, 0.0625000000000, -0.2421875000000, -0.2109375000000, -0.2968750000000, 0.1796875000000, 0.0214843750000, -0.2343750000000, -0.0058593750000, -0.1210937500000, -0.2265625000000, -0.1406250000000, -0.1093750000000, 0.0429687500000, 0.2109375000000, 0.1328125000000, 0.1562500000000, -0.1562500000000, -0.0742187500000, 0.1328125000000, -0.0820312500000, 0.2343750000000, -0.1953125000000, -0.1328125000000, -0.0664062500000, 0.1328125000000, 0.2968750000000, 0.1093750000000, 0.2500000000000, 0.1484375000000, 0.2343750000000, -0.0859375000000, -0.0527343750000, -0.2109375000000, 0.0976562500000, 0.0205078125000, 0.1640625000000, -0.2343750000000, -0.0083007812500}};

#endif
